// Auto-generated MLP weights + pointers for C inference
// Generated from scikit-learn MLPClassifier

#pragma once

#define ALIGN16 __attribute__((aligned(16)))

#define NUM_LAYERS 3

#define NUM_CLASSES 4

static const int LAYER_SIZES[NUM_LAYERS+1] = { 16, 128, 64, 4 };

#define OUTPUT_SIZE 4

// Convenience macros for selecting code paths at compile time
#if OUTPUT_SIZE == 1
    #define IS_BINARY_CLASSIFICATION 1
    #define IS_MULTICLASS_CLASSIFICATION 0
#else
    #define IS_BINARY_CLASSIFICATION 0
    #define IS_MULTICLASS_CLASSIFICATION 1
#endif

// Shape: (16, 128)
static const float W0[2048] ALIGN16 = {
    0.409816, 1.558183, 0.025785, 0.762442, -0.017375, 0.000000, -2.345100, 0.786074, 0.643154, 0.880859, -2.564454, 1.190761, 1.881464, 0.000000, 0.745896, 0.141813, 0.814213, -0.265908, 0.000000, -0.907399, 0.491301, -0.504152, -0.655559, 0.671061, 1.055222, 1.363927, 0.304499, 0.000000, 0.254576, -0.000000, 0.706098, -1.295897, 0.488264, 1.168125, 1.270231, 1.855002, 0.481758, 0.088479, 0.685411, 1.130965, -0.516460, -0.962662, -2.974310, 0.975067, -0.000000, 0.900609, -1.438421, 1.052040, 2.222754, 0.000000, 1.150912, 0.879478, 0.705284, 0.626919, -1.911934, 1.890536, 0.352991, -2.254565, 1.263307, -0.128354, -0.901037, -0.469907, -0.705648, -1.817105, -0.000000, 0.000000, -0.539625, 1.472578, -1.640398, 1.364097, 0.718837, -0.978321, 0.502412, 0.719282, 0.173129, -0.344274, 1.222588, 0.378909, 0.119621, -2.717155, 0.087350, 0.193482, -1.757680, -3.514049, 1.286914, 0.419147, 1.245001, -0.000000, -0.000000, 1.640511, -3.034876, 0.895776, 0.924179, 0.002132, 0.802723, 1.011891, 0.848242, 1.359336, 0.535267, -0.398234, -2.115403, 1.029170, -0.060629, 0.848024, 0.000000, 0.654991, -0.036824, 1.673437, 1.825047, -0.021056, 0.469284, 1.161154, 0.411552, 1.047505, -0.437538, 0.217099, 0.657318, -1.558062, 0.825123, -2.519713, 0.741822, -0.000000, 0.069893, 0.095281, -0.222210, 1.693211, 0.541481, 1.644480, -1.275061, 0.222328, -0.004890, -1.321350, -0.435194, -0.000000, 0.188381, -0.018656, 0.247518, 0.185840, 0.377206, 0.582457, 0.528207, 0.000000, 0.065565, -0.245487, -0.303613, -0.886847, -0.000000, 0.071095, 0.234109, -0.070130, 0.575834, -0.430535, -0.451217, 0.049548, 0.084111, 0.000000, 0.388802, -0.000000, -1.215657, -0.272033, -0.004943, 0.079438, 0.151050, 0.037538, -0.210686, 0.071218, -0.430834, 0.369619, -0.371525, 0.290642, -0.016680, 0.060581, -0.000001, -0.019115, 0.234129, 0.259719, 0.805172, -0.000000, 0.392381, -0.799170, 0.186660, -0.610508, 0.487677, 0.268719, 0.033184, -0.228321, 0.124504, 0.191847, 0.394665, -0.004544, -0.413480, 0.429715, 0.000000, 0.000000, -0.118306, 0.076748, 0.147045, 0.216841, 0.196836, 0.221394, -0.031744, -0.385633, -0.422693, 0.072512, 0.400546, -0.559782, -0.748542, 0.265054, -1.386135, -1.464807, 0.178766, 0.233956, 0.313525, -0.051723, -0.023413, 0.000000, -0.000000, 0.340537, 0.082826, 0.366916, 0.025119, -0.022456, 0.415793, -0.195893, -0.502062, -0.286072, 0.052753, -0.146745, 0.346013, 0.154777, 0.180000, 0.071743, -0.000000, 0.109653, -0.103010, -0.013139, 0.251411, -0.331972, 0.088113, -0.769724, 0.291001, 0.208972, 0.319537, -0.030639, -0.097643, 0.277418, 0.057343, 0.259100, 0.117443, 0.000000, -0.608527, 0.094178, 0.181575, -0.492849, -0.849944, -0.055625, 1.006141, 1.151308, 0.038706, 0.418288, 0.498562, 0.000000, -0.290208, 0.130591, -0.061428, 0.082484, 0.146475, -0.668113, -0.289620, 0.000000, 0.362674, 0.302198, 0.766936, 0.228063, -0.000000, 0.710703, -0.337902, 0.057458, 0.372848, -0.062746, 1.018769, -0.063479, -0.121834, 0.000000, 0.357605, 0.000000, 0.004230, -0.056653, 0.148953, -0.102740, -0.124000, -0.444553, 0.177139, -0.069394, -0.966041, 0.129191, 1.295270, -0.295565, 0.313590, -0.251280, 0.000000, 0.004896, -0.002499, -0.087891, -0.507997, 0.000000, -0.569583, -0.115719, 0.168269, -0.322550, 0.093729, -0.345997, -0.576235, 0.532495, 1.104593, -0.458098, 0.419067, -0.875650, -0.032652, 0.014893, 0.000000, -0.000000, 0.281557, 0.727171, 0.681112, -0.314778, 0.143128, 0.646780, 0.330236, -0.305050, 0.889355, 0.589811, -0.062392, 0.377947, -0.160239, -0.157675, 1.214666, 0.408423, -0.342502, 0.131851, -0.135798, 1.003311, -0.186074, 0.000000, 0.000000, 0.609621, 0.689566, -0.177834, -0.113005, 0.038386, 0.271553, 0.860712, 0.607472, 0.045093, -0.361810, 0.140787, -0.006249, 0.037618, 0.653250, 0.471940, -0.000000, 0.458587, -1.133937, 0.438023, 0.082794, 0.302499, 0.782812, 1.150243, -0.458070, -1.104679, -0.006652, 0.113749, 0.373314, 0.260095, -0.305177, -0.116312, 0.098109, -0.000000, 0.303854, 0.337150, -1.419708, 0.691954, 0.469171, 0.380465, 0.002426, 0.248349, -0.056920, -0.436952, 1.272724, 0.000000, 0.522493, 0.053440, 0.028515, 0.078739, 0.325469, 0.107626, -0.138686, -0.000000, -0.070993, 0.257372, -0.103873, 0.079396, 0.000000, 0.414898, 0.067995, 0.813913, -0.116892, -0.958844, -0.093501, -0.195141, -0.667871, -0.000000, 0.673899, -0.000000, 0.029226, -0.266054, 0.014782, -0.178639, 0.034457, 0.106071, 0.154678, 0.030634, -0.078063, -0.134041, -0.571588, 0.569319, 0.181488, 0.516694, 0.000137, -0.154360, -0.472245, 0.390312, 0.343319, -0.000000, -0.443315, 0.683219, 0.289840, 0.551809, 0.409929, -0.107319, -0.927566, 0.361673, -0.015847, -1.219790, 1.033016, 0.640783, 0.101459, 0.371241, -0.000000, -0.000000, 0.634438, 0.862772, 0.162078, 0.327762, -0.095530, 0.557408, -0.972417, -0.156511, -1.125785, 0.251717, -0.309792, 0.945110, 0.823573, 0.341232, 0.268754, -0.378903, 0.451470, 0.243658, -0.621088, 1.035948, -0.906314, 0.000000, -0.000000, 0.716816, 0.421155, 0.906354, -0.344804, 0.130041, 0.881297, 0.603468, 1.471577, -0.101110, -0.128162, 0.125827, 0.388949, -0.130581, -0.156470, -0.596280, 0.000000, -0.037929, 0.297659, -0.435611, 0.545747, -0.067757, 0.212254, -0.087050, 0.931687, 0.195180, 0.440808, 0.192792, 0.040252, 0.804195, 0.121773, 0.490971, -0.023733, 0.000000, 0.452258, 0.612100, 0.116061, -0.130975, 0.639592, 0.144534, 0.150775, 0.501778, 0.022525, -0.154743, -0.383944, 0.000000, 0.228248, -0.189079, 0.123282, -0.058138, 0.270877, 0.328581, 0.454920, -0.000000, -0.070920, -0.053484, -0.276004, 0.056353, -0.000000, -0.257748, 0.437169, -0.512313, -0.029538, 0.137861, 0.969536, 0.146742, 0.165508, 0.000000, -0.152426, -0.000000, 0.151454, 0.364583, -0.070082, -0.147289, -0.235693, 0.303728, 0.087607, 0.326457, 0.624822, -0.003439, -0.638390, 0.582117, 0.441516, 0.506463, -0.000225, -0.235869, 0.550161, 0.206883, 0.436735, 0.000000, 0.256876, -1.121823, 0.133868, 0.254686, 0.244785, 0.314241, 0.748695, 0.039969, -0.114163, 0.391436, -0.341496, 0.371499, -0.619093, 0.343908, 0.000000, 0.000000, -0.264787, 0.361551, -0.833200, 0.258765, 0.302648, -0.431763, 0.457959, 0.277829, -0.345595, -0.559861, -0.182740, -0.401670, 0.270891, 0.158951, -0.407848, 0.064631, 0.456694, 0.255286, 0.541157, -0.330310, 0.193882, 0.000000, -0.000000, 0.017893, -0.113792, -0.038003, 0.132491, 0.037688, 0.111077, -0.573789, -0.753897, 0.456184, 0.070496, 0.182571, 0.135763, -0.223014, -0.142324, 0.708074, 0.000000, -0.228450, 0.608638, 0.799701, 0.422079, -0.232802, -0.373924, -0.087400, 0.148918, 0.837413, 0.413505, 0.095180, 0.027440, -0.080302, 0.343076, 0.198515, -0.075163, 0.000000, -0.042678, -0.234191, 0.776715, -0.358222, -0.523207, 0.068730, -0.400280, 0.643480, -0.003597, -0.360387, -0.452213, -0.000000, 0.317971, 0.811158, 0.653487, 0.287322, -1.546365, -0.239219, -1.548693, -0.000000, -1.659485, 0.290016, 0.220467, -0.694591, -0.000000, 2.992380, -1.340851, 0.575022, -1.408559, -1.068072, 0.741275, -1.371643, -0.241742, 0.000000, 0.888723, -0.000000, -0.613242, 0.414754, 0.102297, 0.261662, 0.427446, 0.273432, -0.057732, 0.036908, 0.624626, 0.188267, 0.792067, -1.892762, 0.317560, -0.519062, -0.000012, 0.835790, 0.616870, -2.393188, 0.772567, 0.000000, -1.179292, 0.170701, -0.123215, -1.615809, -2.215348, -1.061518, -1.162135, 0.411665, 0.527496, -0.293538, 2.251309, -0.228834, 1.318418, -2.206013, 0.000000, 0.000000, 1.306826, 1.892274, 1.718723, 0.374797, 0.946710, -0.452284, -0.641889, -1.535766, -0.788173, 2.670193, 0.806159, 0.712648, -1.478580, 0.220841, -0.362553, -1.270164, -0.691335, -0.118567, 0.230005, 0.952427, -0.518971, 0.000000, -0.000000, 0.096490, -0.369188, 0.260184, 0.083246, -0.001619, -0.708997, 0.245590, 0.173435, 0.722957, 0.050256, 0.631853, -0.238966, -0.029703, 0.695617, 0.853950, 0.000000, 0.154335, -1.165683, 0.707871, 0.682743, -0.017206, -1.022420, 1.100901, 0.207403, -0.583818, -0.119695, 0.202323, 0.172180, 0.092915, -1.127324, 0.160024, 0.530043, -0.000000, -0.441723, 0.564919, -0.705269, 0.899322, -1.338358, 0.281003, -0.603851, 0.828744, -0.021133, 0.209435, -0.296937, -0.000000, -0.039839, -0.536377, -0.989058, -0.267893, 0.353331, -0.278634, 0.377299, 0.000000, -0.270455, 0.077385, -0.550731, 0.762394, -0.000000, 0.006181, -0.458425, 0.124820, -0.072932, 0.280600, 0.982891, 0.215495, -0.394421, 0.000000, 0.328526, -0.000000, 0.218243, -0.125987, -0.133856, -0.164161, 0.052194, 0.131211, -0.444845, -0.063885, 0.210659, 0.621728, 0.004086, -0.549904, 0.124541, -0.005651, -0.028444, 0.120602, 0.401746, 0.005221, -0.150431, 0.000000, -0.891754, 0.141066, -0.197941, -0.112304, 0.185241, -0.076321, -0.515510, 0.338812, 0.064780, -0.337539, 0.191456, -0.575733, -0.297575, -0.037837, -0.000000, -0.000000, -0.148588, -0.363769, -0.009686, -0.185062, -0.121169, 0.407039, -0.568635, 0.457680, -0.046689, 0.167201, -0.900181, -1.103923, -0.568857, 0.064501, 0.534433, 0.732127, -0.921963, 0.010483, -0.477196, -0.698705, -0.155938, -0.000000, 0.000000, 0.303445, 0.194837, -0.351017, 0.232646, -0.000855, 0.523205, 0.348684, 0.131718, 0.429807, -0.333609, -0.304377, 0.186664, 0.307225, 0.047702, -0.336103, -0.000000, -0.744594, -0.951002, -0.173099, 0.274475, 0.033928, -1.151312, 0.134376, 0.185965, 0.280461, -1.282158, -0.151197, 0.170032, 0.073847, 0.034688, -0.120732, -1.150672, -0.000000, -0.177172, -0.257768, 0.153619, 0.030956, 0.438352, -0.239278, 0.104953, 1.492001, 0.009134, -0.000101, 0.517563, -0.000000, 0.221212, -1.806851, 0.908999, -1.011835, 0.836650, 0.417456, 0.041836, -0.000000, 0.333396, -2.268682, -1.783819, 0.918945, -0.000000, -0.391202, -0.318099, 0.563155, 1.268813, 0.007175, 1.518769, 0.971450, 1.182806, -0.000000, 0.351529, -0.000000, 0.125967, -1.306530, -0.035807, -1.812652, -1.942974, 0.265351, 0.553814, 0.225069, -0.193172, 0.837171, -0.745068, 0.152416, -0.829134, 0.120481, -0.000000, -2.496269, 0.297015, -0.085308, 1.016715, -0.000000, 0.357315, 0.451719, 0.529389, -0.594556, 0.918856, 0.043517, -0.159294, -0.531793, -0.942203, 1.299728, -0.026471, -1.164011, -0.070126, 0.966544, -0.000000, -0.000000, -0.032847, 0.571355, 0.258509, -0.122434, 0.313813, 0.423406, 0.464222, 0.282256, 0.473908, -0.204029, -0.296359, 0.361474, 0.115002, -0.035506, 0.051273, 0.156898, -0.066001, 0.173331, 0.587923, 0.410598, -0.810078, 0.000000, 0.000000, 0.890557, 0.119528, 0.213285, -0.518122, 0.002973, 1.079996, 0.969577, -1.592466, 0.581293, -0.805702, -0.611408, 0.030838, -1.330951, 0.271281, 0.797328, 0.000000, 0.052886, 0.072084, 1.671709, 1.603018, 0.175639, 1.315581, -0.477342, 0.152764, 0.692182, -0.696446, 0.327694, 0.245391, -0.021023, 0.231037, 0.196767, -0.145069, -0.000000, 1.516906, 0.092418, 1.348780, -0.149062, 0.599485, 1.063256, 0.958097, 0.064218, -0.017899, 0.277354, -0.691534, -0.000000, 0.145568, -0.449857, -0.150143, -0.766052, -0.526367, 0.052003, -0.702682, -0.000000, -0.433565, -0.705050, -0.534288, 0.112199, -0.000000, 0.300746, 0.247591, 0.184078, 0.593950, -0.245238, 0.902848, -0.029762, 0.177378, 0.000000, 0.151539, -0.000000, 0.590198, 0.539575, 0.026904, -0.537907, -0.625236, -0.127510, 0.127808, 0.024862, 0.274629, 0.549279, 0.012073, 0.075498, 0.157461, -0.094330, -0.002645, -0.514005, -0.129111, -0.505380, -0.007608, -0.000000, 0.310644, 0.959488, -0.054322, 0.058276, -0.437824, -0.191923, 0.186092, -0.270426, 0.744462, 0.916772, 0.307704, 0.389266, 0.573534, -0.098997, 0.000000, -0.000000, 0.802310, 0.489061, 1.057666, -0.062670, -0.118686, -0.416531, 0.145032, -0.343966, 0.862402, 0.096156, -0.256818, 0.422183, 0.354063, 0.318248, -0.554268, 0.859175, 0.327327, 0.660584, -0.229857, -0.455099, 0.687296, -0.000000, 0.000000, -0.131626, 0.311544, -0.394459, -0.020361, -0.000561, -0.518599, -0.546065, 0.457306, 0.775068, -0.019033, 0.325144, 0.030285, -0.473649, 0.463346, 0.135757, -0.000000, 0.041431, -0.019722, 0.430529, -0.383893, -0.082393, -0.046372, -0.437410, 0.081355, -0.125684, 0.064214, 0.075458, -0.016335, -0.080165, 0.389560, 0.136677, -0.100479, -0.000000, 0.495467, -0.198313, 1.132302, 0.396867, 0.086138, -0.126875, 0.329233, -0.483494, -0.032889, 0.025487, -0.975716, -0.000000, -0.086425, -0.643775, 0.153907, -0.635507, -0.190806, 0.163452, -0.556274, 0.000000, -0.336944, -0.730294, -0.869207, 0.544987, 0.000000, -0.096017, -0.388600, 0.026912, 0.758744, 0.281878, 0.168555, -0.262032, 0.046547, 0.000000, 0.310829, -0.000000, 0.231930, 0.460899, -0.015411, -0.115794, -0.322034, -0.596554, -0.385922, 0.197354, -0.241479, 0.684676, -0.356776, -0.129297, 0.157577, 0.141176, -0.012431, -0.093259, -0.312893, -0.453633, 0.695512, 0.000000, 0.795122, 0.474473, -0.340496, 0.111782, -0.033111, -0.373692, -0.592564, 0.261025, 0.329170, 0.368086, -0.581223, 0.001704, 0.363811, 0.072805, -0.000000, 0.000000, -0.096394, -0.043181, 0.386830, -0.020995, -0.298646, -0.497107, -0.317446, -0.418698, 0.117543, -0.178188, 0.570004, 0.426748, 0.162781, -0.270909, -0.492542, 0.645974, 0.204624, 0.663930, 0.130304, -0.105257, 0.108680, -0.000000, 0.000000, 0.307461, 0.430319, -0.188937, 0.072137, -0.000992, -0.397258, -0.848078, 0.222993, -0.362167, 0.114297, -0.044039, -0.524149, -0.494350, -0.153511, 0.041444, -0.000000, 0.076541, -0.219683, 0.224766, -0.263084, -0.016952, -0.255660, 0.073924, -0.505490, 0.025448, -0.143378, -0.263541, -0.242956, -0.291359, 0.305620, 0.037909, 0.628805, -0.000000, -0.093489, -0.214908, 0.703842, 0.583860, -0.470096, -0.100288, 0.974364, 0.798060, 0.220786, 0.021434, -0.341620, -0.000000, -0.119981, -0.191897, -0.317185, -0.417350, -0.027825, -0.330592, 0.078566, 0.000000, 0.483626, -0.195936, -0.006252, -0.401091, -0.000000, 0.201380, -0.127834, 0.045254, -0.349712, 1.132952, -0.098557, 0.587368, 0.577154, -0.000000, -1.144488, 0.000000, 0.570197, 0.351234, 0.041638, 0.055816, -0.088049, 0.036546, 0.414547, 0.135775, -0.872148, -1.837179, 0.653767, -0.704882, 0.286842, -0.840143, 0.005898, -0.017809, -0.235450, -0.182646, 0.054234, 0.000000, 0.239298, 0.603639, 0.367996, 0.534254, 0.065468, 0.054732, 0.342276, 0.048092, -1.503929, 0.258976, -0.208034, -0.141306, 0.786902, 0.156369, 0.000000, 0.000000, -0.283988, 0.111708, 0.081898, 0.305923, 0.691282, -0.337059, 0.288552, 0.789561, 1.338112, 0.246504, -0.083887, 0.132787, 0.152289, -0.065558, 0.511796, 1.072361, -0.047659, 0.134157, 0.913750, -0.124382, 0.597869, 0.000000, -0.000000, -0.111127, 0.023290, -1.829684, 0.056891, 0.048835, -0.119259, 0.280207, -0.875889, 0.466573, 0.021501, 0.057988, -0.292720, -0.013225, 0.092600, -0.790155, 0.000000, 0.361271, 0.447197, -0.803542, 0.375553, 0.210671, 0.064324, 0.080640, -1.211048, -0.209953, 0.063125, 0.216168, 0.613251, -0.700772, -0.024400, -0.099171, -0.003688, -0.000000, -0.229963, -0.163832, 0.476797, 0.091059, 1.029499, 0.365519, -0.305655, 0.181628, -0.033310, -0.728501, -1.008726, 0.000000, 0.224916, 0.537662, -0.127920, 0.129801, -0.953339, 0.483848, -0.464858, 0.000000, -1.134838, -0.017418, 0.232731, 0.275542, 0.000000, 0.359468, -0.475193, 0.218732, 0.049701, -1.110188, 0.675763, -0.711973, -0.426054, 0.000000, 0.083408, -0.000000, -0.025423, 0.797100, -0.007143, 0.066348, 0.171440, -0.031135, 0.315119, -0.118107, -0.028853, 0.078362, 0.173914, -0.076259, 0.190824, -0.186452, -0.000765, 0.287079, -0.108101, 0.670472, 0.463598, 0.000000, 0.027611, 1.126800, -0.048639, 0.097199, -0.735833, 0.326008, 0.013662, -0.051783, 0.247287, 0.029028, -0.057576, 0.562453, 0.497467, -0.032222, 0.000000, 0.000000, 0.032131, 0.323874, 0.151699, 0.478297, 0.270475, -0.441393, -0.452599, -0.892512, -0.795314, 0.061047, 0.442430, 0.529262, 0.588197, -0.116167, -0.230123, -0.740828, 0.441653, -0.001436, -0.659732, -0.373417, 0.377094, 0.000000, 0.000000, -0.327941, -0.202256, 1.045007, 0.492722, 0.018362, -0.150910, -0.901578, -0.583161, 0.062648, -0.046030, 0.265985, 0.049884, 0.268095, 0.252141, -0.070665, -0.000000, -0.064188, -0.488440, 0.052838, -0.654606, -0.021220, -0.658463, 0.455031, 0.264108, -0.104622, 0.368763, -0.094991, -0.134752, 0.338659, 0.266633, -0.272444, 0.866948, 0.000000, -0.299954, -0.032099, 0.017088, 0.116500, -1.073050, -0.565629, -0.562707, 0.968391, -0.028571, 0.101910, 0.137192, -0.000000, -0.072606, -0.351422, -0.391415, -0.209835, 0.410313, -0.584289, 0.164729, -0.000000, 0.054686, 0.295039, -0.097733, 0.716592, 0.000000, 0.022221, -0.302743, 0.024554, 0.246748, 0.402946, 1.102309, 0.038704, -0.045798, -0.000000, 0.114692, 0.000000, -0.035525, -0.557897, 0.086993, 0.022394, 0.080544, -0.141805, -0.031728, -0.006191, 0.101140, 0.194481, -0.177651, -0.223211, -0.071189, -0.471917, -0.024343, -0.026277, 0.292578, -0.092372, -0.203182, -0.000000, -0.456867, -0.042229, -0.411021, 0.009814, 0.245059, 0.077342, -0.440560, -0.105414, 0.067091, -0.249834, 0.025857, -0.595616, -0.332979, 0.067485, -0.000000, 0.000000, -0.193743, 0.051789, -0.350706, -0.110774, -0.139362, 0.554725, -0.337560, 0.317523, 0.290622, 0.191636, -0.689011, -0.854397, -0.500474, 0.000565, 0.650540, 0.709720, -0.593042, -0.080108, -0.055548, -0.366381, -0.112565, 0.000000, 0.000000, 0.204826, -0.018344, -0.412376, -0.316522, -0.000034, 0.571460, 0.412652, 0.417837, 0.610131, 0.030099, -0.283595, 0.097177, 0.037530, 0.446531, 0.270234, 0.000000, 0.066914, -0.575763, 0.282828, 0.069871, -0.019940, -0.880612, 0.281094, 0.094264, 0.081865, -1.098537, -0.128528, 0.261642, 0.154544, -0.467922, 0.150137, -0.978247, -0.000000, -0.245581, -0.013992, 0.024904, 0.014340, 0.523378, -0.086402, 0.282621, 1.459231, 0.017677, 1.971083, 0.429943, 0.000000, 0.563802, 0.803802, 0.730088, 0.895590, 1.091484, 0.162336, -0.065014, -0.000000, 0.400339, 0.507889, 0.826665, 0.945714, 0.000000, -0.199330, -0.174565, 0.473063, 0.563662, 0.530117, 0.950380, 0.405984, 0.702940, -0.000000, -0.112185, 0.000000, 0.779089, -0.985520, -0.026403, 0.511171, 0.653849, -0.365479, 1.010304, 0.097914, 0.003398, -0.047073, 0.009315, 0.489135, -0.297849, 0.313145, -0.000000, 0.334309, -0.395599, -0.020760, 0.315926, -0.000000, 0.440855, 0.943015, 0.340429, 0.072667, 1.468554, -0.289418, 0.007503, -0.419383, -0.343597, 0.071323, -0.049853, -0.411748, -0.315400, 1.265133, 0.000000, 0.000000, -0.461332, 1.369061, -0.658849, -0.327816, 0.263849, 1.043639, -0.460397, 0.262210, -0.080416, -0.486101, 0.892889, 1.658140, 1.280566, 0.293246, 0.712659, 0.142878, 0.186382, -0.470434, 1.340078, 0.906370, -0.317127, 0.000000, -0.000000, 0.248260, 0.008529, 0.549965, 0.040982, 0.010296, 0.650952, 0.512665, -0.059117, 1.059031, 0.961477, -0.163640, 0.263875, 0.660323, 0.015193, 0.872771, 0.000000, 0.149892, 0.499128, 1.835925, 1.041118, 0.408877, 1.066612, -0.650289, 0.441032, 0.642731, -0.229597, 0.255605, 0.395578, 0.749749, 0.372609, 0.461957, 0.716490, 0.000000, 1.006237, 0.184326, 0.018363, -0.610797, 0.234967, 0.717682, 0.353373, 0.280947, 0.007883, -0.039456, 0.736859, -0.000000, -0.360635, -1.729289, 0.697581, -1.370844, -0.133948, -0.093234, 0.804346, -0.000000, 0.628530, -1.700292, -1.750435, -0.149229, 0.000000, -0.085247, 0.840491, -0.253953, -0.934117, -0.506664, -0.026539, 0.657842, -0.455813, -0.000000, 0.136555, -0.000000, -0.142324, -0.151041, -0.049169, -2.341410, -2.490816, 0.488652, -0.118483, -0.254804, -0.087154, 0.600970, -0.223549, 0.692418, 0.582816, -0.072630, 0.025660, -2.118372, 0.522407, 0.580051, 0.839603, 0.000000, -0.597673, -0.000801, 0.008883, 0.264359, -0.727253, 0.309719, 0.575676, -0.000680, -1.001842, -0.430986, 0.443869, 0.158340, 0.397613, -0.889418, 0.000000, 0.000000, 0.110382, 0.205911, 0.237621, 0.691906, 0.197503, 0.155140, 1.115579, 0.042365, 0.135282, 0.065335, -2.396217, 0.421431, -0.400126, -0.341421, -0.033593, 0.160729, 0.089315, 0.523677, 0.169945, 0.729475, -0.242353, -0.000000, -0.000000, 0.934004, 0.372250, 0.341664, -0.375802, -0.001061, -0.751488, -0.150591, -0.903563, -0.252417, -3.189440, 0.154139, -0.026059, -2.481037, -0.635661, 0.157154, -0.000000, 0.196735, 0.767551, 0.154630, 0.052609, -0.171870, 1.312753, -0.341897, 0.194353, -1.447606, 0.582791, 0.085276, 0.118043, -0.058477, -0.132457, -0.202895, -0.721776, -0.000000, 0.204060, 0.417863, -0.388871, 0.660463, -0.058630, -0.128728, 1.337801, 0.327135, 0.023413, 1.892408, 0.378028, 0.000000, 0.706497, 0.622018, -0.071344, 0.177002, 0.100961, -0.052255, -0.700266, -0.000000, 0.123901, 0.634229, 0.567780, 0.637845, 0.000000, 0.471522, 0.026865, 0.549486, -0.264305, 0.139129, 1.221989, -0.177503, 0.171467, 0.000000, 0.490667, 0.000000, 0.837599, 0.267745, 0.109142, 0.403240, 0.616907, -0.253661, 0.678806, 0.087417, 0.395921, 0.208043, 0.216700, 0.026297, 0.578818, 0.144470, -0.000000, 0.653705, -0.214780, -0.382043, -0.563397, -0.000000, -0.151346, 1.145707, 0.057686, -0.354501, -0.040644, -0.435869, 0.116845, 0.466615, 0.571439, 0.095903, 0.534092, 0.662219, 0.671613, -0.004490, 0.000000, 0.000000, 0.754109, 1.573883, 0.326600, -0.131882, 0.295948, 0.286064, 0.112120, -0.384267, 0.317103, 0.546608, 0.767047, 1.135596, 0.036289, 0.592414, 0.097539, -0.013548, 0.538774, -0.122424, 0.745841, 0.622322, 0.147461, 0.000000, -0.000000, -0.533341, -0.086924, 0.427785, 0.126606, 0.002208, -0.388434, -0.028033, 0.416151, 0.565279, 0.385250, 0.544895, 0.583641, 0.304329, 0.209205, 0.950764, 0.000000, 0.168434, 0.449806, 1.693265, -0.034646, 0.364852, 0.042012, 0.406329, 0.046977, 0.127267, 0.462149, 0.150923, 0.274591, 0.394784, -0.378787, 0.430300, 0.259452, 0.000000, 0.676832, 0.180845, -0.239586, -0.008674, 0.056764, -0.237031
};

// Shape: (128,)
static const float B0[128] ALIGN16 = {
    0.597754, -0.367800, -0.766836, -0.207839, -1.092709, -0.412891, -0.900728, -0.852148, 0.092662, -0.802015, -1.008614, -0.344734, -0.455012, -0.972381, -0.335974, -0.997521, -1.028057, 0.486729, -0.934314, -0.540798, -0.800146, -0.709210, 0.524842, -0.074766, 0.016053, 0.427848, 0.147853, -0.795099, -0.674164, -0.685309, 0.695214, -0.218109, -1.049059, -0.768396, -0.580543, 0.595906, -0.547276, -0.760283, -0.436907, 0.848543, -0.819779, -0.927546, -0.643618, -0.019335, -1.075334, -0.690236, -0.746474, -0.550677, 0.610060, -0.936803, -0.120683, -0.388552, -0.750542, -0.379259, -0.967820, 0.154926, -0.863203, -0.848030, 1.124183, 0.196680, -0.575201, -0.690427, -0.555032, -0.760431, -0.778881, -0.712968, 0.319238, -0.574050, -0.173498, 0.285420, -0.980068, -1.000768, 0.089028, -0.311973, 0.262215, -0.274834, -0.082191, 0.667803, -0.161982, -1.114772, -0.385898, 1.031542, -0.993742, -0.778857, -1.004516, -1.322387, -0.079448, -0.795623, -0.906698, 0.397386, -0.834935, -0.993211, -0.064266, -0.515961, -0.336262, -0.088468, -0.969930, -0.476854, -0.433976, -0.846379, -1.028335, -0.508287, -0.571739, -0.096036, -0.941303, -1.096990, -1.243202, -0.073886, 0.264675, -0.459894, -0.407013, 1.150715, -0.587525, 0.238279, -0.810579, -0.575325, -1.328406, -0.931615, 0.136493, -1.003102, -0.235203, -0.851045, 0.297863, -1.119590, 0.170833, 1.527800, -0.635335, 0.748030
};

// Shape: (128, 64)
static const float W1[8192] ALIGN16 = {
    -0.049965, 0.034931, -0.309175, -0.000000, 0.104534, -0.051990, -0.008154, -0.365353, 0.587595, 0.810805, -0.349712, -0.000000, 0.296335, -0.000000, -0.402868, 0.406538, -0.116394, 0.287957, -0.000000, -0.165561, 0.280395, -0.318791, -0.293786, -0.124688, -0.088739, -0.323426, 0.048459, -0.137682, -0.375431, 0.584866, 0.000000, -0.137334, 0.017026, -0.593943, 1.176191, 0.534153, 0.079989, 0.480951, 0.000000, -0.968123, -0.183760, -0.000000, 0.331358, -0.375923, -0.011840, -0.000000, 0.371533, -0.076303, 0.480883, -0.942038, 0.000000, 0.000000, 0.000000, 0.000000, 0.888437, -0.258932, -0.582434, -0.177117, -0.419398, 0.039223, -0.004134, -0.276748, -0.835619, -0.069395, -0.260430, -0.338662, 0.372680, 0.000000, -0.739883, -0.259396, -0.197628, -0.084335, -0.021067, 0.364879, 0.453813, -0.000000, -0.201635, 0.000000, -0.231576, -1.339152, -0.568661, 0.578556, 0.000000, 0.309306, -0.900854, -0.287169, 0.111389, -0.932222, 0.116441, 0.083174, 0.003392, 0.084936, 0.677445, -1.334449, 0.000000, 0.008735, 0.345197, 0.222678, 0.669114, -0.802982, 0.738023, -0.243713, -0.000000, 0.425494, 0.088650, 0.000000, -0.144439, -0.215249, -0.175554, -0.000000, -0.408980, -0.051287, -0.226818, -0.239342, -0.000000, -0.000000, -0.000000, -0.000000, -0.236266, -1.105451, -0.063458, 0.854041, 0.424979, -0.221186, -0.035273, 0.012298, 0.282988, -0.620810, 0.160658, -0.011558, 0.022220, 0.000000, -0.157334, 0.000958, -0.003904, -0.014501, -0.098696, 0.000636, -0.033326, -0.000000, 0.005929, -0.000000, -0.000000, -0.056187, 0.032595, -0.162143, 0.000000, -0.000000, -0.014604, 0.062947, 0.092534, 0.011114, -0.011297, 0.000002, -0.001941, -0.000000, 0.072892, -0.089456, -0.000000, -0.009621, -0.015874, 0.055891, 0.076567, 0.002297, 0.108247, -0.027212, 0.000000, -0.001498, 0.046035, 0.000000, -0.028402, 0.000002, -0.006591, 0.000000, 0.004145, 0.007135, 0.107195, -0.000160, 0.000000, -0.000000, -0.000000, -0.000000, -0.003793, 0.046775, -0.048865, 0.047819, -0.000154, 0.043692, -0.000000, 0.127599, -0.052593, 0.014193, 0.000000, -0.024504, 0.062164, -0.000000, 1.172591, 0.000000, -0.127359, 0.047687, -0.000000, 0.015235, -0.121219, -0.000000, 0.000665, 0.000000, -0.328914, 0.040936, -0.018989, -0.000000, 0.000000, -0.375130, 1.152406, 0.118679, -0.031891, -0.000000, -0.363065, -0.000147, 0.000000, 0.144845, -0.035618, 0.675592, -0.000000, 0.326998, 1.440841, -0.499600, -0.073575, 0.036610, 0.108600, 0.122419, 0.000000, 0.142663, 0.000000, 0.000000, 1.068181, 0.073216, 0.445514, -0.000000, 0.046062, 0.404216, 0.000000, -0.070615, -0.000000, 0.000000, 0.000000, -0.000000, 0.014012, -0.323777, -0.068766, -0.072803, 0.048513, 0.000000, -0.241702, -0.117059, 0.244682, -1.243047, -0.635118, 1.028115, -0.129789, 0.000000, -0.239088, 0.038476, -0.275643, 0.156189, -0.000000, 0.071507, 0.410307, -0.000000, 0.316896, 0.000000, -0.365031, -0.665865, -0.588881, -0.111695, 0.000000, -0.180812, 0.290287, -0.260364, 1.110046, 0.294636, -0.112534, 0.057541, 0.062302, 0.534738, 0.195477, -0.393821, 0.000000, -0.074633, 0.080465, 0.267435, -0.022489, -0.451148, -0.334249, 0.942631, -0.000000, 1.390815, 0.033932, -0.000000, -0.140771, 0.029126, -0.645790, -0.000000, -0.680631, -0.601421, 0.588595, -0.121932, 0.000000, 0.000000, 0.000000, 0.000000, 0.181370, 0.147435, -0.652445, 0.307491, 0.030216, 0.188036, -0.001152, -0.159324, -0.179199, -0.686169, -0.000000, -0.000000, 0.000000, 0.000000, -0.000000, 0.000000, -0.000000, 0.000000, -0.000000, -0.000000, -0.000000, 0.000000, -0.000000, -0.000000, -0.000000, 0.000000, -0.000000, -0.000000, 0.000000, 0.000000, -0.000000, 0.000000, 0.000000, 0.000000, -0.000000, -0.000000, 0.000000, 0.000000, -0.000000, -0.000000, 0.000000, -0.000000, -0.000000, -0.000000, 0.000000, 0.000000, 0.000000, 0.000000, 0.000000, -0.000000, -0.000000, 0.000000, 0.000000, -0.000000, -0.000000, 0.000000, 0.000000, -0.000000, -0.000000, 0.000000, -0.000000, -0.000000, -0.000000, 0.000000, 0.000000, 0.000000, 0.000000, -0.000000, -0.000000, 0.000000, -0.000000, -0.000000, 0.000000, -0.000000, -0.144294, 0.825379, -0.219760, 0.000000, 0.036239, -0.188131, -0.300671, 0.259581, -0.200796, -0.308183, -0.270946, -0.000000, 0.370406, -0.000000, 0.022859, -0.432183, 0.052527, 0.193198, 0.000000, -0.144595, -0.291007, -0.436494, -0.377843, -0.047449, -0.154339, 0.831029, 0.442464, 0.522327, -0.008237, 0.471973, 0.000000, 0.243546, -0.049432, -0.399177, -0.743394, 0.414715, 0.317971, -0.762808, -0.000000, 0.345742, 0.239449, 0.000000, -0.144365, -0.293843, 0.194298, -0.000000, 0.256404, -0.963557, 0.150235, -0.048202, 0.000000, 0.000000, 0.000000, -0.000000, -0.109085, -0.209966, -0.197651, 0.123759, 0.366296, -0.220440, -0.001567, -0.115308, 0.419922, 0.806153, -0.859668, -0.284871, 0.027520, -0.000000, 0.394028, 0.115164, 0.546176, -1.165895, 0.001129, -1.097520, 0.821016, -0.000000, 0.831381, -0.000000, 0.799125, -1.136325, 0.218630, -0.600427, -0.000000, 0.428818, -0.009648, -1.652672, 0.068487, 0.107359, -0.346343, -0.807024, -1.356149, -0.732744, -0.734750, -0.510803, -0.000000, 0.414855, 0.734669, 0.528799, 0.615406, -1.103461, -0.380167, 0.972985, 0.000000, 0.105115, -1.440927, -0.000000, 0.071450, -0.177449, 0.937553, -0.000000, 0.714620, -1.203764, 0.370510, 0.045509, -0.000000, 0.000000, 0.000000, -0.000000, 0.521877, 0.123107, 0.060434, -1.158284, 1.004014, -0.625145, -0.075738, 0.594020, 0.115926, -0.204879, -0.720411, 0.349440, 0.171050, 0.000000, 0.019941, 0.167852, 0.087834, -0.204740, -0.087136, -0.772083, 0.775833, 0.000000, 0.012230, -0.000000, -0.599021, -0.322026, -0.219505, 0.019289, -0.000000, -0.238701, -0.042320, 0.017718, 0.317450, -0.133138, -0.143526, 0.331486, -0.159217, -0.266940, -0.050247, 0.588656, -0.000000, 0.363408, 0.082756, 0.288130, 0.268266, 0.099237, -0.748358, 0.156906, 0.000000, 0.109857, -0.013644, -0.000000, 0.325566, -0.213040, 0.623171, -0.000000, -0.319669, -0.057043, 0.060223, 0.599568, 0.000000, 0.000000, 0.000000, -0.000000, 0.606855, 0.169329, -0.083313, 0.109633, 0.090803, -0.026597, -0.000059, -0.207174, 0.312524, -0.066774, -0.906613, 0.015314, 0.292655, 0.000000, 0.084603, 0.084710, 0.277351, -0.119264, -0.112772, 0.198289, 0.415294, -0.000000, 0.084915, 0.000000, 0.340631, -0.860574, -0.342378, -0.020870, -0.000000, 0.109088, 0.001440, -0.565279, 0.199836, 0.015525, -0.151889, 0.252733, -0.335756, -0.343627, 0.069348, -0.087939, -0.000000, 0.117102, 0.727684, 0.204969, 0.268152, -0.644942, -0.526261, 0.662161, 0.000000, 0.316983, 0.020003, 0.000000, 0.020393, 0.198738, 0.383978, -0.000000, -0.201220, -0.530117, 0.474502, -0.019360, -0.000000, -0.000000, 0.000000, -0.000000, -0.095241, 0.397166, 0.256882, -0.114076, 0.876793, -0.113169, -0.005974, 0.166451, 0.110106, -0.163812, -0.604111, -0.499993, -0.140778, -0.000000, 0.029249, -0.104308, -0.708133, -0.209062, 0.194316, 1.056003, 0.780699, 0.000000, -0.628211, -0.000000, -1.148806, -0.815820, 0.363024, -0.904108, 0.000000, 0.455987, -0.158429, -0.140137, 0.223375, 0.389115, -0.827071, 0.487337, 0.388065, 0.845280, 0.745748, -1.599038, 0.000000, -0.909121, -1.172856, 0.269252, -1.723724, -0.014819, 0.216135, 0.342774, -0.000000, 0.944338, -0.640123, 0.000000, -0.220357, -0.118426, -1.397311, 0.000000, 0.368610, -0.991041, -0.620685, -0.354436, 0.000000, -0.000000, 0.000000, 0.000000, -1.966515, -1.755808, -0.591122, -0.494576, 0.692298, -0.009998, -0.069760, 0.065988, -1.133094, 0.508279, -0.203718, 0.039383, -0.007159, -0.000000, -0.516207, 0.098890, -0.038941, 0.103642, -0.078433, -0.481727, -0.066604, -0.000000, -0.358760, -0.000000, 0.004092, -0.889358, -0.330653, 0.118305, 0.000000, -0.053559, -0.245529, 0.680068, -0.151377, -0.083580, 0.008308, -0.152935, -0.028368, -0.153975, -0.563234, -0.019936, 0.000000, 0.247952, 0.303091, -0.169692, 0.168527, 0.486256, 0.104701, -0.005839, 0.000000, -0.148465, -0.211539, -0.000000, -0.138400, 0.395719, 0.212782, -0.000000, 0.031827, 0.212933, 0.410979, -0.091028, -0.000000, -0.000000, 0.000000, -0.000000, 0.114142, -0.137659, -0.167939, -0.137748, 0.094827, 0.208128, 0.000000, -0.221141, 0.074295, -0.394523, 0.323951, -0.614537, 0.496437, 0.000000, -0.196455, 0.603063, 0.141449, 0.319705, 0.348841, 0.917020, -0.607038, 0.000000, -0.321612, 0.000000, 0.201496, 0.027629, 0.216407, -0.170626, -0.000000, 0.220779, -0.437314, 0.161320, 0.225106, -0.008780, 0.660963, -0.570221, -0.660244, -0.335420, 0.288210, -0.672059, 0.000000, -0.212820, -0.306327, 0.202826, 0.626358, 0.246060, -0.801234, -0.267390, -0.000000, -0.318686, 0.104205, 0.000000, -0.508505, 0.346256, 0.386581, 0.000000, -0.517996, -0.084915, -0.198512, 0.082755, -0.000000, -0.000000, 0.000000, -0.000000, -0.911771, 0.868665, 0.506012, 0.334000, -0.376362, 0.084275, -0.000006, -0.017360, 0.246170, 0.147658, 0.000000, -0.000000, -0.000000, -0.000000, 0.000000, -0.000000, -0.000000, -0.000000, 0.000000, -0.000000, -0.000000, -0.000000, -0.000000, -0.000000, 0.000000, 0.000000, 0.000000, 0.000000, -0.000000, -0.000000, 0.000000, -0.000000, -0.000000, -0.000000, 0.000000, -0.000000, 0.000000, 0.000000, 0.000000, -0.000000, 0.000000, -0.000000, 0.000000, -0.000000, -0.000000, -0.000000, 0.000000, 0.000000, -0.000000, 0.000000, 0.000000, 0.000000, -0.000000, -0.000000, -0.000000, 0.000000, -0.000000, -0.000000, -0.000000, -0.000000, -0.000000, -0.000000, 0.000000, -0.000000, 0.000000, 0.000000, -0.000000, 0.000000, 0.000000, 0.000000, -0.000000, -0.000000, 0.000000, -0.000000, 0.425488, -0.889918, 0.297973, -0.000000, -0.144903, 0.032669, 0.217874, 0.104066, 0.219757, 0.476972, 0.097620, -0.000000, 0.638104, 0.000000, -0.269697, -0.216046, 0.945604, -1.050455, -0.000000, 0.283036, 0.380122, 0.439751, -0.016201, 0.287717, 0.197529, -0.915604, 0.195799, 0.104404, 0.461084, -0.062507, 0.000000, -0.128636, -0.167149, 0.185291, -0.024687, 0.383304, 0.317368, 0.363803, 0.000000, -0.094926, 0.031470, 0.000000, -0.068029, 1.002893, 0.001435, -0.000000, -0.195667, -0.824462, -0.218853, 0.162677, -0.000000, 0.000000, 0.000000, 0.000000, -0.935665, 0.255149, 0.213210, 0.243919, -0.245949, 0.070616, -0.002084, -0.593539, -0.227499, 0.146025, 0.056224, 0.226162, -0.097665, -0.000000, -0.518545, -0.175137, 0.333372, -1.404695, -0.099427, -1.161441, 1.300445, 0.000000, 0.932889, -0.000000, 0.811686, -1.828527, 0.516490, -1.392985, 0.000000, 0.878039, -0.117375, -0.026319, 0.619277, 0.385154, -1.085348, -1.034684, -0.502039, -0.214812, -0.107684, -0.700849, -0.000000, -0.236214, 0.179733, 0.544542, -0.180099, 0.175227, -0.054720, 0.813469, -0.000000, 0.958608, -1.114400, 0.000000, 0.191926, 1.138099, -0.263738, -0.000000, -0.544721, -1.374238, 0.093336, 0.203424, 0.000000, -0.000000, -0.000000, 0.000000, 0.062663, -0.020366, -0.444325, -0.820991, 0.778913, 0.018881, 0.052250, 0.705476, -0.671548, 0.685459, -2.021506, 0.079398, 0.252869, -0.000000, -0.246381, -0.026415, 0.042100, -0.972338, -0.215493, -0.188763, 0.292276, 0.000000, 0.338637, -0.000000, 1.016914, -1.315424, 0.098239, 0.062833, -0.000000, 0.634669, -0.952194, -0.888130, -0.408809, -0.567008, 0.418681, -0.808160, -1.508039, 0.109885, -0.687910, 0.321797, 0.000000, 0.169781, 0.164304, -0.387183, 0.271345, 0.260444, 0.168324, 0.957443, 0.000000, 0.437332, -1.756857, 0.000000, 0.297745, 0.697132, -0.037823, -0.000000, 0.117470, -1.587062, 0.015922, 0.137581, -0.000000, 0.000000, -0.000000, 0.000000, 0.126843, -0.186344, 0.157742, -0.850407, 1.407802, -1.889768, -0.049118, 0.598341, -0.133954, 0.010719, -0.105861, -0.390824, 0.643897, -0.000000, 0.893058, -0.058874, -0.164125, -0.412018, -0.049762, 0.135382, 0.553154, 0.000000, 0.038034, 0.000000, -0.673552, -0.552415, 0.083220, -0.305689, -0.000000, 0.570589, 0.322318, 0.164716, 0.528898, -0.140294, 0.018444, 0.400073, 0.319135, -0.425434, 0.446144, -0.272619, -0.000000, 0.525816, 0.186100, -0.568097, -0.515995, -1.951656, 0.930928, -0.188012, 0.000000, 0.256190, -0.412565, -0.000000, 0.374584, -0.591235, 1.183294, 0.000000, -0.228702, 0.091028, 0.066100, -0.190924, 0.000000, 0.000000, -0.000000, -0.000000, 0.567651, 0.281545, 0.707431, -0.212771, 0.455697, -0.352401, 0.425569, -0.082618, 0.154124, -0.215584, -0.000000, -0.000000, -0.000000, -0.000000, -0.000000, 0.000000, -0.000000, 0.000000, 0.000000, 0.000000, 0.000000, 0.000000, 0.000000, 0.000000, 0.000000, -0.000000, 0.000000, -0.000000, 0.000000, -0.000000, 0.000000, -0.000000, 0.000000, -0.000000, -0.000000, 0.000000, 0.000000, 0.000000, 0.000000, 0.000000, -0.000000, 0.000000, 0.000000, 0.000000, 0.000000, 0.000000, 0.000000, -0.000000, 0.000000, 0.000000, -0.000000, 0.000000, -0.000000, -0.000000, 0.000000, -0.000000, -0.000000, 0.000000, -0.000000, 0.000000, 0.000000, 0.000000, -0.000000, -0.000000, 0.000000, -0.000000, 0.000000, 0.000000, -0.000000, 0.000000, 0.000000, 0.000000, 0.000000, 0.000000, 0.306081, 0.567928, 0.492443, -0.000000, 0.846280, 0.050250, -1.179058, 0.671794, -0.013834, -1.755344, 0.651814, -0.000000, 0.425630, -0.000000, -0.584263, 0.300387, -0.536991, -0.524314, -0.000000, -0.307502, 0.127961, 1.016796, 0.602136, 0.314986, 0.204277, 0.774453, -0.304692, -0.041950, -0.716033, 0.521167, 0.000000, 0.221556, 0.265430, 0.864980, 0.166646, 0.143180, -0.425620, -0.189028, -0.000000, 0.420842, 0.029041, -0.000000, 0.394642, -0.705747, -0.578167, 0.000000, -0.498948, 0.015657, 0.443631, 0.103569, -0.000000, -0.000000, -0.000000, -0.000000, 0.538574, -0.396043, -0.953410, 0.088264, -0.174368, 0.195417, -0.013051, -0.690506, 0.452172, 0.037825, 0.774789, -0.493273, 0.127488, 0.000000, -0.016279, -0.079532, 0.672448, 0.500796, 0.281790, 0.258405, -0.165886, 0.000000, 0.144700, 0.000000, 0.286012, 0.056251, -0.549744, -0.315709, -0.000000, 0.010008, -0.026300, 0.254665, -0.276514, -0.183259, 0.406538, 0.068140, 0.045337, 0.729188, 0.231179, 0.392454, -0.000000, -0.004494, -0.173972, 0.782764, -0.093572, 0.376912, 0.041461, -0.081968, 0.000000, -0.100997, 0.404360, 0.000000, 0.058070, 0.960289, -0.094019, 0.000000, 0.600933, -0.168381, 0.184704, -0.109077, -0.000000, 0.000000, 0.000000, 0.000000, -0.401715, -0.543742, 0.591066, 0.123296, 0.144720, 0.931171, -0.000000, -0.326569, -0.434763, 0.086213, 0.000929, -0.132876, -0.105015, 0.000000, 0.319153, -0.182245, 0.092313, 0.521191, -0.000000, -0.125738, -0.045534, 0.000000, -0.283442, -0.000000, -0.053370, -0.314551, 0.098021, 0.120927, 0.000000, -0.019619, -0.391843, -0.671908, -0.339625, -0.401045, -0.041362, -0.231528, 0.559720, -0.225641, 0.458314, -0.153911, 0.000000, 0.034580, 0.345587, -0.156124, -0.022429, 0.279202, -0.050988, -0.247734, 0.000000, 0.241871, 0.335631, -0.000000, -0.073502, -0.350941, 0.130079, 0.000000, -0.012616, -0.570339, -0.113039, -0.026131, -0.000000, 0.000000, 0.000000, 0.000000, -0.394133, -0.076758, 0.117153, -0.007849, -0.030220, 0.242713, 0.096576, 0.141672, 0.012741, 0.165238, -0.052477, -0.284281, -0.051845, 0.000000, -0.040009, 0.219331, 0.501934, -0.133449, -0.232596, -0.194974, -0.751326, 0.000000, -1.167723, -0.000000, -0.463972, -0.622285, 0.204637, 0.105449, 0.000000, 0.011857, -0.922587, -0.430131, -0.343654, 0.200372, -0.318818, -0.005026, -0.350529, -0.422917, 0.446792, -0.592693, -0.000000, -0.067253, -0.509185, -0.345649, 0.157323, 0.343460, 0.315506, -0.778284, 0.000000, 0.298556, -0.551565, -0.000000, -0.482626, 0.045256, 0.429626, 0.000000, 0.195498, -0.281996, -0.011164, 0.214860, 0.000000, -0.000000, -0.000000, -0.000000, -0.186702, -0.118800, 0.542841, 0.121290, 0.388874, 0.279597, -0.132774, -0.180401, -0.131814, -0.153655, -0.198996, -0.204685, -0.195266, -0.000000, 0.189613, -0.177163, 0.392460, -0.061463, 0.352420, 0.004628, -0.062481, 0.000000, -0.160991, -0.000000, -0.021697, -0.789082, -0.345145, 0.810671, -0.000000, -0.297872, -0.474298, 0.472356, -0.777681, -0.486517, 0.248600, -0.781494, -0.295609, 0.095323, -0.032885, 0.395300, 0.000000, 0.413288, 0.125243, 0.247764, -0.332967, -0.016548, 0.798703, 0.119998, 0.000000, 0.228458, 0.294737, 0.000000, 0.122830, -0.603984, 0.610139, 0.000000, 0.099117, -0.556725, -0.293218, 0.277471, 0.000000, 0.000000, 0.000000, -0.000000, 0.020927, 0.381166, -0.338620, -0.189981, 0.237819, -0.590628, 0.032822, 0.619440, 0.586412, 0.184923, -0.000000, -0.070456, 0.406580, -0.000000, -0.915579, -0.359572, -0.340841, 0.204573, 0.000000, -0.135106, 0.719063, -0.000000, -0.001073, -0.000000, -0.537401, -2.030215, -0.332913, 0.238743, -0.000000, 0.372874, -0.013747, -0.214176, -0.382416, -0.524892, 0.444343, -0.055188, 0.049337, 0.050637, 0.406165, -1.688159, 0.000000, 0.261535, 0.353687, -0.755089, 0.031606, -1.860817, -0.013479, 0.104026, -0.000000, 0.433229, -0.516922, -0.000000, 0.100482, -0.316548, 0.225447, 0.000000, 0.194275, 0.032604, -0.005331, 0.256969, -0.000000, -0.000000, 0.000000, -0.000000, 0.901694, -0.140912, -0.281895, -0.208064, 0.185172, -0.049839, -0.283420, -0.000000, 0.446822, -0.840684, 0.321823, -0.045487, 0.119767, 0.000000, -0.260099, 0.066706, -0.120377, -0.127361, 0.297577, -0.058777, 0.140518, -0.000000, -0.076483, -0.000000, -0.029888, 0.086065, -0.325051, -0.377313, -0.000000, 0.163603, -0.273379, 0.154770, -0.337431, -0.636265, -0.111061, -0.237072, -0.081184, -0.468381, 0.067895, 0.647535, 0.000000, -0.487429, 0.185515, -0.041368, -0.212187, 0.399875, -0.396647, 0.113653, 0.000000, -0.415716, 0.145884, -0.000000, -0.295767, 0.677863, -0.146787, 0.000000, -0.603667, 0.015826, 0.074325, -0.250741, 0.000000, -0.000000, -0.000000, 0.000000, -1.029226, 0.408102, 0.060153, 0.109966, 0.116087, -0.420494, -0.000034, 0.228318, 0.409991, -0.253030, 0.209186, -0.598136, -0.016986, -0.000000, 0.003205, 0.153501, 0.037620, -0.137974, -0.188428, -0.535640, 0.222550, -0.000000, 0.054705, 0.000000, -0.017888, -0.272241, 0.497967, -0.207213, 0.000000, 0.040864, 0.032882, 0.132738, -0.162505, -0.132362, 0.163390, 0.177356, -0.078775, 0.244279, -0.337663, -0.246817, 0.000000, 0.062331, -0.275877, -0.320194, 0.114561, 0.109126, 0.102698, -0.006488, -0.000000, 0.132754, 0.269838, 0.000000, -0.242729, -0.072994, -0.349811, 0.000000, -0.054456, 0.165609, 0.168117, -0.086416, -0.000000, -0.000000, -0.000000, -0.000000, -0.156085, 0.425188, -0.063234, 0.090948, -0.020005, -0.003427, -0.000010, 0.123960, 0.003123, -0.178420, 0.000000, -0.000000, -0.000000, 0.000000, -0.000000, -0.000000, -0.000000, 0.000000, -0.000000, -0.000000, 0.000000, 0.000000, -0.000000, -0.000000, -0.000000, 0.000000, 0.000000, 0.000000, -0.000000, -0.000000, -0.000000, 0.000000, 0.000000, -0.000000, 0.000000, -0.000000, -0.000000, -0.000000, -0.000000, -0.000000, 0.000000, -0.000000, 0.000000, 0.000000, 0.000000, 0.000000, 0.000000, 0.000000, -0.000000, -0.000000, -0.000000, -0.000000, 0.000000, 0.000000, -0.000000, -0.000000, -0.000000, -0.000000, 0.000000, 0.000000, -0.000000, -0.000000, 0.000000, -0.000000, 0.000000, 0.000000, 0.000000, 0.000000, 0.000000, 0.000000, -0.000000, -0.000000, 0.000000, -0.000000, 0.000000, 0.028048, 0.022612, 0.000000, -0.671412, 0.008020, -0.346131, 0.198580, -0.000000, -0.168547, -0.353517, -0.000000, -0.068722, 0.000000, 0.334585, 0.055616, 0.335873, -0.250370, -0.000000, -0.461282, -0.537289, -0.470027, -0.462406, 0.105309, 0.234084, 0.133731, 0.017883, -0.115746, 0.081029, 0.315156, 0.000000, 0.610919, -0.010630, -0.333287, -0.203474, -0.110623, 0.081360, 0.041673, 0.000000, -0.370908, 0.059599, -0.000000, -0.167157, -0.077779, -0.053709, -0.000000, -0.160159, -0.278075, -0.010019, 0.174464, 0.000000, 0.000000, -0.000000, -0.000000, -0.039247, -0.058274, 0.151603, -0.017329, -0.433085, -0.020152, 0.113440, 0.000000, 0.214018, 0.483788, 0.000000, 0.000000, -0.000000, 0.000000, 0.000000, -0.000000, 0.000000, 0.000000, 0.000000, 0.000000, 0.000000, 0.000000, -0.000000, -0.000000, 0.000000, -0.000000, 0.000000, -0.000000, -0.000000, 0.000000, -0.000000, 0.000000, -0.000000, -0.000000, 0.000000, 0.000000, -0.000000, -0.000000, -0.000000, 0.000000, -0.000000, 0.000000, 0.000000, 0.000000, 0.000000, 0.000000, 0.000000, -0.000000, -0.000000, 0.000000, 0.000000, 0.000000, 0.000000, 0.000000, -0.000000, -0.000000, -0.000000, 0.000000, 0.000000, 0.000000, -0.000000, -0.000000, -0.000000, 0.000000, -0.000000, 0.000000, 0.000000, -0.000000, 0.000000, -0.000000, 0.000000, 0.000000, 0.000000, 0.000000, -0.556191, 0.297478, -0.240725, 0.000000, 0.058747, 0.010503, 0.578873, -0.617081, 0.061805, 0.119108, -0.934042, 0.000000, -0.349817, -0.000000, -0.036150, 1.168236, -0.551250, -0.371405, -0.000000, 0.169634, 0.362939, -0.129387, -0.076806, -0.411518, -0.193642, 0.202938, 0.415657, 0.374678, 0.105361, 0.288920, 0.000000, -0.185566, 0.056119, -0.561608, -0.672877, 0.314812, 0.840564, -0.546715, 0.000000, -0.161171, 0.324855, -0.000000, 0.481465, -0.222406, 0.625079, -0.000000, -0.617460, -0.054120, 0.146416, -0.230293, 0.000000, 0.000000, -0.000000, 0.000000, 0.545883, 0.203798, -0.030719, 0.069741, -0.165361, -0.067035, 0.568354, -0.179019, -0.165917, -1.035868, 0.154566, -0.262624, -0.377176, 0.000000, -0.000892, -0.336218, -0.147593, 0.007890, -0.375072, -0.797313, -0.783032, 0.000000, 0.119620, -0.000000, -1.325082, 0.455584, 0.259291, 0.589789, -0.000000, -0.548006, 0.392444, 0.354742, 0.203810, 0.253083, -0.231357, 0.023751, -0.848738, -0.292729, -0.310370, -0.562075, 0.000000, 0.154037, -0.640071, -0.035582, -0.423466, -0.466469, -0.240395, -0.317397, 0.000000, -0.653063, -0.177220, 0.000000, -0.176559, 0.050970, -0.736591, -0.000000, 0.256634, -0.184487, 0.423196, 0.125977, 0.000000, 0.000000, -0.000000, -0.000000, 0.472043, -0.333171, 0.111280, 0.096170, -0.382775, 0.135701, -0.202689, 0.222401, 0.085731, 0.506809, -0.000000, -0.000000, 0.054874, 0.000000, 0.000021, 0.000000, -0.000000, 0.000000, 0.000000, 0.000000, 0.084455, -0.000000, 0.000000, -0.000000, -0.021224, -0.000000, -0.000000, 0.000000, 0.000000, -0.001259, -0.009500, -0.000000, -0.000000, -0.000000, 0.000000, 0.000000, -0.000000, -0.000000, -0.000000, -0.002215, -0.000000, 0.031735, 0.041812, 0.038539, -0.056066, 0.000128, -0.000007, 0.000002, 0.000000, 0.000000, -0.000000, 0.000000, 0.063657, 0.000000, 0.044848, 0.000000, -0.000000, 0.071719, 0.000000, 0.026441, -0.000000, -0.000000, -0.000000, 0.000000, -0.034787, -0.000315, 0.000022, 0.000000, 0.000000, -0.000000, 0.000000, 0.000000, 0.036668, 0.000000, -0.578270, -0.779766, 0.190493, -0.000000, 0.111637, -0.046512, 0.630711, -0.986529, -0.235787, -0.399398, 0.639638, -0.000000, 0.330142, -0.000000, 1.294473, -0.262091, -0.079493, -0.992659, -0.000000, 0.646744, 0.031503, -0.660980, -0.867282, -0.849791, -0.481513, -0.588261, -1.124118, -0.325388, -0.036633, -0.651393, 0.000000, 0.227166, 0.126696, -0.024688, 0.177063, -0.486925, -0.739614, 0.703086, 0.000000, 0.127197, -1.051655, 0.000000, 0.196270, 0.715168, 0.417049, -0.000000, -0.092867, -0.198379, -0.371598, 0.393909, -0.000000, -0.000000, -0.000000, 0.000000, 0.107288, -0.759595, 0.589940, -0.370135, 1.156933, -0.199396, -0.372424, 0.925174, -0.024092, -0.537173, -2.039201, -0.436365, 0.027682, 0.000000, -0.108011, -0.148104, 0.811507, -1.963837, -0.359955, -1.266571, 0.822221, 0.000000, 0.617049, 0.000000, 1.361241, 0.235215, 0.243666, -1.902261, 0.000000, 0.706010, -0.326577, -2.407212, -0.581193, -0.223694, -1.104413, -2.342618, -1.340028, -0.877221, -1.346467, -0.795356, 0.000000, 0.237888, 0.422354, -0.104119, 0.634888, 0.205710, 0.113255, 0.747688, 0.000000, -0.636570, -1.100977, 0.000000, -0.058686, 0.152904, 0.625491, 0.000000, 0.019568, -0.146000, -0.798171, 0.186995, -0.000000, -0.000000, -0.000000, 0.000000, 0.944069, -0.168278, -0.044272, -2.697772, 0.230850, -0.541325, -0.295086, 0.724089, 0.187229, 0.069501, -0.112995, -0.355920, 0.189112, 0.000000, 0.656945, 0.026730, -0.319381, -0.288872, 0.006939, 0.281105, -0.708087, 0.000000, -0.509471, 0.000000, -0.248555, 0.473201, -0.208067, 0.185142, -0.000000, -0.284417, 0.634550, 0.327967, 0.269365, 0.007242, 0.426300, -1.238186, -0.002312, -2.013903, -0.031125, 0.390516, 0.000000, 0.360128, 0.280000, 0.629378, 0.412002, 0.445471, -0.614492, -0.916294, 0.000000, -0.656527, 0.247152, 0.000000, 0.278470, -0.365325, 0.453022, 0.000000, -0.214372, 0.547542, -0.034359, -0.005940, 0.000000, -0.000000, -0.000000, 0.000000, 0.174423, 0.668928, 0.366110, 0.145587, -0.935048, -0.266129, -0.784467, -0.158031, 0.409088, -0.305055, 0.006762, -0.000022, 0.147185, -0.000000, 0.055434, -0.000191, -0.020684, 0.033782, -0.059514, 0.009214, 0.351026, 0.000000, 0.000396, 0.000000, -0.213520, 0.003706, 0.017115, -0.018323, 0.000000, -0.092481, -0.021633, 0.067447, 0.000719, 0.001408, 0.059373, -0.000000, 0.000000, -0.017137, 0.000145, -0.010153, 0.000000, 0.215006, -0.061935, 0.201649, 0.257065, 0.031022, 0.204452, 0.114393, -0.000000, -0.000000, -0.000174, -0.000000, 0.376343, -0.000000, 0.228379, 0.000000, -0.000000, 0.157143, 0.099678, 0.055205, 0.000000, 0.000000, -0.000000, -0.000000, -0.053080, -0.052179, -0.080523, -0.059546, 0.000000, 0.051415, 0.000000, 0.063501, 0.071161, 0.025693, -0.000000, 0.049924, 0.033141, -0.000000, 0.000004, 0.000000, 0.004613, 0.076085, 0.000000, 0.000000, 0.000034, 0.000000, 0.000000, 0.000000, 0.000000, -0.000000, 0.000000, -0.032538, -0.000000, -0.016223, -0.022901, 0.000000, -0.000000, 0.022900, -0.000558, 0.000000, -0.000000, -0.000000, 0.000054, -0.020630, 0.000000, 0.093911, 0.006225, 0.000096, 0.004503, 0.001784, -0.021382, 0.000000, 0.000000, 0.000185, 0.000000, -0.000000, -0.007175, 0.000000, 0.014466, 0.000000, -0.000000, 0.000150, -0.000000, -0.012606, -0.000000, 0.000000, -0.000000, 0.000000, 0.006185, -0.000003, 0.000000, 0.000001, -0.000000, 0.003695, 0.000000, -0.000000, -0.015870, 0.001590, 1.736751, 0.781053, -0.598070, 0.000000, 0.159734, -0.113921, -0.847899, 0.104574, 1.007465, 0.043165, 0.581392, 0.000000, 0.321761, -0.000000, -0.321541, 0.267721, 0.081266, 0.303466, -0.000000, 0.134681, 0.519446, -0.496031, 0.190978, -0.065560, 0.144528, 0.335578, 0.236173, -1.141894, 0.619925, 0.081369, 0.000000, 0.151476, 0.430008, -0.099537, 0.005299, -0.304448, -1.286731, 0.346965, 0.000000, -0.516372, -0.057699, -0.000000, 0.310969, -0.805663, 0.944817, 0.000000, -1.131561, -0.072747, 0.073066, -0.406198, -0.000000, 0.000000, -0.000000, 0.000000, -0.020142, 1.052052, -1.284788, 0.165563, -0.227096, 1.150337, 0.313415, 0.308037, 0.038181, 0.745629, -1.848844, 0.087599, -0.346310, 0.000000, -0.111091, -0.521579, 0.118968, 0.119046, -0.334658, 0.056754, -0.118111, 0.000000, 0.111165, -0.000000, -0.340730, 0.069689, -0.324347, -0.443966, 0.000000, 0.154129, 0.196346, 0.171153, -1.048835, -0.243670, 0.223639, -0.312740, 0.467400, 0.372860, -0.277931, -0.162052, 0.000000, -0.244366, 0.109243, -0.120071, -0.106119, -0.381342, -0.427776, 0.147509, -0.000000, -0.573108, 0.165424, -0.000000, -0.213447, -0.161038, -0.698882, -0.000000, -0.102169, 0.152405, -0.230848, 0.056516, 0.000000, 0.000000, -0.000000, 0.000000, 0.093744, 0.078669, -0.332473, -0.172292, -0.295154, -0.805285, 0.154356, -0.266037, 0.218354, -0.685785, 0.493967, 0.293825, -0.063348, 0.000000, 0.354488, -0.071602, -0.482186, 0.010183, 0.014880, -0.541035, -0.868696, 0.000000, 0.396248, 0.000000, 0.467788, 0.652106, -0.070212, 0.001004, -0.000000, -0.205273, 0.059822, 0.483633, -0.029585, 0.053046, 0.660921, 0.385179, 0.291372, -0.346437, 0.501071, -0.234476, -0.000000, -0.142450, -0.023372, 0.095512, 0.352774, 0.037782, 0.185809, 0.689189, -0.000000, 0.102121, 0.210909, -0.000000, -0.076859, -0.816822, 0.173387, 0.000000, -0.397512, 0.096864, 0.320758, -0.033027, -0.000000, -0.000000, 0.000000, -0.000000, -0.232484, 0.511349, -0.348465, 0.066282, -0.644133, 0.390019, -0.002882, -0.364298, -0.482057, 0.263379, 0.812671, -0.737991, 0.150304, 0.000000, 0.471763, 0.116882, 0.436265, 0.309535, 0.259783, -0.018470, -0.214857, -0.000000, -0.093634, 0.000000, -0.279838, -0.673714, -0.468497, 0.041630, -0.000000, 0.005869, -0.569079, -0.096248, -0.552401, -0.401066, -0.537291, 0.346948, -0.025642, 0.941706, 0.259349, 0.051789, -0.000000, 0.120738, -0.458845, 0.251617, -0.674257, -0.744205, 0.124507, -0.619809, -0.000000, 0.088612, -0.089247, -0.000000, -0.344013, 0.457875, -0.684926, -0.000000, 0.287436, -0.417634, -0.300810, -0.158528, -0.000000, 0.000000, -0.000000, 0.000000, -0.950407, -0.972885, 0.631659, 0.122221, 0.552202, 0.396674, -0.001643, -0.279484, -0.548615, -0.118707, 0.075345, 0.338505, -0.863744, 0.000000, -0.021444, 0.298481, -0.337800, -0.596003, -0.097946, -0.282706, -0.020957, 0.000000, 0.510437, -0.000000, -0.010207, 0.573394, 0.280469, 0.415973, 0.000000, -0.485267, 0.101145, -0.751197, 0.460387, 0.612457, -0.164976, 0.791091, 0.046228, -0.502514, 0.238554, -0.139814, 0.000000, -0.662192, -0.909910, -0.014557, -1.251671, 0.119995, -0.743762, 0.265749, 0.000000, -0.044355, 0.343901, 0.000000, 0.197561, -1.352793, -0.408554, -0.000000, 0.169785, -1.126088, 0.293812, -0.077523, -0.000000, -0.000000, -0.000000, -0.000000, 0.227080, -0.333097, -0.499084, 0.199811, -0.155142, 0.197008, -0.199465, 0.135803, -0.188989, 0.771069, -0.051671, 0.087440, 0.223740, 0.000000, 0.356969, -0.016180, -0.313299, 0.037759, -0.047327, 0.147750, -0.236327, -0.000000, 0.199060, 0.000000, 0.373201, -0.072941, -0.133027, -0.325355, 0.000000, 0.054272, 0.784124, 0.248510, -0.396499, -0.117625, 0.334972, 0.167011, -0.200608, -0.027504, -0.256770, 0.083571, -0.000000, 0.040535, -0.036566, 0.440173, 0.337242, -0.174463, 0.268742, -0.148461, 0.000000, -0.076969, -0.026773, 0.000000, 0.009319, 0.178459, -0.565131, -0.000000, -0.252653, 0.255635, 0.072108, 0.011013, 0.000000, -0.000000, -0.000000, 0.000000, -0.430165, -0.182244, -0.154221, -0.140132, -0.015464, -0.202670, -0.233536, -0.213410, -0.266025, -0.357023, -0.000116, -0.000000, -0.000000, -0.000000, 0.000000, 0.000000, -0.000000, -0.000000, 0.000000, 0.000000, 0.000000, -0.000000, 0.000000, -0.000000, 0.000000, 0.000000, 0.000000, 0.000000, 0.000000, -0.000000, -0.000000, 0.000000, 0.000000, 0.000000, -0.000000, -0.000000, 0.000000, 0.000000, -0.000000, 0.000003, 0.000000, -0.000000, -0.000047, -0.000000, 0.000000, -0.000000, 0.000000, 0.000000, -0.000000, -0.000000, -0.000000, 0.000000, -0.000612, -0.000000, -0.000000, 0.000000, 0.000000, -0.000000, 0.000000, 0.001209, -0.000000, -0.000000, -0.000000, 0.000000, -0.000000, 0.000000, 0.000000, -0.000000, -0.000000, -0.000000, 0.000000, 0.000000, 0.000000, 0.000000, -1.001000, -0.909581, 0.077515, -0.000000, 0.017743, -0.373330, 0.771326, -1.768865, 0.005089, -2.282901, 1.306841, 0.000000, 0.257199, 0.000000, 1.299675, 0.142487, 0.103638, -1.019968, -0.000000, 0.800341, -0.049265, -1.884974, -0.630095, -0.252133, -2.332140, -1.185253, -1.749954, -0.120705, -1.229972, -1.050650, -0.000000, -0.001372, 0.133679, 0.186695, 0.126670, -0.117364, 0.244291, 0.763711, 0.000000, -0.615584, -2.007571, -0.000000, -0.260095, -0.083978, 0.070667, -0.000000, -0.532315, -0.448349, -1.488183, -0.140662, 0.000000, -0.000000, 0.000000, 0.000000, 1.200028, -0.600723, -0.505463, -1.141222, 0.021791, -0.740980, -0.035483, 1.301039, -0.690344, -0.256736, -0.820984, 0.243852, -0.318372, 0.000000, 0.242441, 0.136625, 0.342623, -0.397456, -0.185674, -0.495473, 0.486351, 0.000000, 0.509894, -0.000000, -0.008771, -0.153034, -0.089912, 0.031264, -0.000000, 0.343894, 0.170530, -0.664002, 0.346372, 0.288500, -0.363584, 0.666305, -0.042719, -0.356946, 0.532342, -0.573157, -0.000000, 0.086098, -0.422595, 0.156136, 0.019612, 0.344675, -0.244833, -0.362208, 0.000000, 0.454570, -0.879520, -0.000000, -0.107794, -0.235874, -0.077885, 0.000000, -0.271689, -0.611211, 0.435438, 0.553898, 0.000000, 0.000000, 0.000000, -0.000000, -0.244230, 0.048385, 0.665961, -0.622187, 0.198934, 0.353309, -0.124574, -0.250995, -0.121214, 0.409788, 0.186923, 0.159291, 0.474064, -0.000000, -0.425638, -0.250861, -0.225513, 0.766615, 0.120588, 0.009816, -0.233535, -0.000000, -0.157419, 0.000000, -0.918719, -0.117434, -0.092072, 0.020731, 0.000000, 0.578721, -0.120105, 0.051746, -0.214817, 0.191624, 0.805550, -0.402348, 0.470148, -0.011380, 0.637730, 0.114652, 0.000000, 0.422296, -0.419344, 0.407051, 0.615287, -0.036720, 0.295478, -0.203393, 0.000000, 0.165673, 0.005402, -0.000000, -0.152316, 0.895372, 0.218535, 0.000000, 0.100338, 0.499132, 0.108711, 0.210178, 0.000000, 0.000000, -0.000000, 0.000000, -1.043266, 0.522432, 0.695384, 0.041239, 0.441431, 0.106447, -0.005423, -0.332278, 0.428486, 0.228585, -0.262574, -0.354473, 0.051585, -0.000000, -0.693663, -0.330098, -0.120872, -0.058010, -0.485280, 0.262540, -0.569911, 0.000000, -0.548463, 0.000000, -0.324757, -0.126802, -0.277512, 0.002402, 0.000000, -0.482127, -0.416067, -0.185836, 0.125030, -0.053133, 0.377580, -1.307940, -1.120780, -0.607912, -1.270052, -0.227329, 0.000000, 0.209515, 0.138612, -0.514513, 0.997635, 0.248658, 0.286324, -0.613265, 0.000000, -0.434495, -0.099768, -0.000000, -0.239435, 0.450075, -0.268861, -0.000000, -0.353828, 0.051763, -0.574422, 0.134757, 0.000000, -0.000000, 0.000000, 0.000000, 0.201631, 0.314673, -0.054403, -0.585191, -1.139907, -0.525098, -0.142034, -0.001673, 0.109554, -0.635531, -0.000000, 0.000000, 0.000000, 0.000000, -0.000000, 0.000000, 0.000000, -0.000000, 0.000000, 0.000000, -0.000000, -0.000000, 0.000000, -0.000000, 0.000000, -0.000000, -0.000000, 0.000000, 0.000000, 0.000000, -0.000000, -0.000000, -0.000000, 0.000000, 0.000000, -0.000000, -0.000000, 0.000000, 0.000000, -0.000000, 0.000000, 0.000000, -0.000000, 0.000000, -0.000000, 0.000000, -0.000000, -0.000000, -0.000000, -0.000000, 0.000000, 0.000000, -0.000000, -0.000000, -0.000000, -0.000000, 0.000000, 0.000000, -0.000000, 0.000000, 0.000000, -0.000000, -0.000000, 0.000000, -0.000000, 0.000000, -0.000000, 0.000000, 0.000000, -0.000000, 0.000000, -0.000000, -0.000000, 0.000000, 0.337744, -0.625109, 0.385544, -0.000000, 0.004559, -0.003523, 0.022659, 0.329158, 0.193355, -0.219113, 0.277647, -0.000000, 0.317252, -0.000000, -0.378987, -0.378151, 0.328628, 0.203324, -0.000000, -0.197929, -0.132133, -0.131863, -0.504269, -0.497575, 0.237750, -0.278464, -0.193680, 0.105951, -0.105019, -0.312305, -0.000000, -0.003537, 0.187996, 0.334908, 0.057200, -0.234966, 0.762727, -0.166751, 0.000000, -0.081102, -0.276674, 0.000000, -0.015246, 0.220201, -0.057256, -0.000000, 0.511667, 0.491160, -0.201096, 0.258751, -0.000000, 0.000000, -0.000000, 0.000000, -0.336792, 0.360305, 0.256323, 0.128704, -0.114097, 0.380822, -0.000000, -0.216043, 0.694915, -0.002817, 0.023596, -0.096180, 0.060513, 0.000000, 0.219706, -0.475925, 0.059203, 0.636657, 0.000000, 0.467943, -0.276805, 0.000000, -0.002585, -0.000000, 0.213142, -0.276636, -0.165938, 0.288552, -0.000000, 0.454620, -0.154589, -0.638435, -0.558128, -0.094961, 0.044420, 0.100759, 0.201716, -0.040891, 0.007264, 0.155145, -0.000000, -0.364008, 0.352146, -1.051254, 0.232106, -0.309745, -0.461973, 0.070901, -0.000000, 0.254835, 1.162911, 0.000000, -0.384075, 0.829002, -0.232639, 0.000000, 0.052331, 0.251882, -0.378117, -0.457879, 0.000000, 0.000000, -0.000000, 0.000000, -0.159729, -0.106718, 0.347314, 0.084615, -0.375424, 0.000202, 0.163878, -0.133430, -0.478947, -0.706672, 0.073573, 0.064881, 0.037744, 0.000000, -0.111487, 0.059040, -0.081983, 0.042893, -0.105362, 0.131051, 0.156564, -0.000000, 0.093552, 0.000000, -0.124742, -0.125283, 0.134357, -0.064612, -0.000000, -0.086704, -0.123612, 0.040475, 0.069488, 0.068416, 0.178340, -0.124513, 0.031229, -0.028322, 0.079849, 0.045806, 0.000000, 0.016773, 0.050205, 0.101099, 0.168637, 0.058338, 0.021900, 0.076421, 0.000000, 0.018367, 0.042517, -0.000000, -0.051964, 0.014592, 0.046282, 0.000000, 0.072963, 0.114391, 0.138762, -0.000936, 0.000000, 0.000000, 0.000000, -0.000000, -0.118605, 0.058885, -0.040605, 0.047387, 0.105476, 0.045296, 0.000000, 0.085776, 0.112503, -0.072384, 0.137100, 0.408067, 0.393494, -0.000000, -0.287596, -0.191837, 0.241591, -0.344674, 0.027570, -0.942325, -0.183821, -0.000000, -0.427944, 0.000000, 0.057645, 0.267703, -1.000018, 0.244320, -0.000000, 0.447154, 0.047923, 0.339768, -0.084208, -0.386727, -0.256532, 0.019501, -0.106252, 0.278526, -0.585152, 0.099689, -0.000000, 0.500133, -0.200304, 0.369814, 0.474169, 0.042431, 0.160353, -0.109438, -0.000000, 0.107508, -0.329652, 0.000000, -0.130397, 0.702155, -0.241448, 0.000000, -0.000885, 0.173287, 0.229532, 0.047341, -0.000000, -0.000000, 0.000000, 0.000000, 0.472669, 0.130492, 0.538691, 0.142079, -0.498752, -0.074295, 0.053689, -0.068102, -0.680113, -0.068084, -0.691058, -0.294083, -0.127209, -0.000000, -0.138381, 0.107597, -0.288195, -0.152242, 0.235906, 1.249127, 0.771561, -0.000000, -0.515607, 0.000000, -0.963574, -0.310779, 0.320112, -0.634904, -0.000000, 0.683330, 0.012923, -0.101155, 0.010537, 0.597461, -0.354800, 0.644018, 0.599366, 0.749039, 0.755253, -1.426257, 0.000000, -0.704681, -0.434221, 0.098552, -1.371007, -0.009163, 0.545096, 0.197116, 0.000000, 0.805950, -0.153809, 0.000000, -0.173410, 0.266475, -0.585371, 0.000000, 0.732121, -0.082703, -0.199378, -0.226543, 0.000000, -0.000000, -0.000000, 0.000000, -2.351637, -1.318589, -0.626064, -0.368540, 0.563330, 0.086164, -0.024083, 0.537333, -0.923876, 0.529157, 0.146455, -0.939772, 0.537948, 0.000000, 0.321376, 0.108831, -0.000896, 0.063883, 0.001334, 0.322629, -0.493931, -0.000000, -0.890795, 0.000000, 0.196845, -0.201251, 0.001837, -0.011974, -0.000000, -0.139799, 0.609061, 0.731918, -0.116345, 0.155011, 0.319637, -0.850587, -0.364016, -0.911817, 0.070630, 0.377415, -0.000000, 0.225332, -0.387652, 0.757418, 0.263507, -0.038667, -0.357673, -0.592076, 0.000000, -0.364874, -0.175713, 0.000000, 0.116918, 0.285044, 0.375772, -0.000000, 0.056444, 0.676390, -0.112759, 0.152799, -0.000000, -0.000000, -0.000000, -0.000000, -0.498408, 0.128138, 0.286400, 0.125833, -0.068710, -0.134106, -0.652074, -0.231901, 0.068163, -0.551185, 0.079282, -0.484665, 0.150625, -0.000000, 0.507756, 0.012504, 0.306814, 0.421298, 0.327935, -0.338814, -0.025113, 0.000000, 0.174363, -0.000000, -0.099972, 0.098619, 0.056565, -0.103064, -0.000000, 0.123458, 0.276306, -0.167065, -0.488307, -0.555552, 0.497633, -0.409518, -0.048176, 0.557298, 0.172951, 0.238795, -0.000000, 0.195808, -0.293824, 0.594472, 0.110454, 0.202518, -0.433003, -0.173397, 0.000000, -0.320959, -0.041990, -0.000000, 0.156392, 0.295319, -0.468496, -0.000000, -0.194717, -0.214148, -0.737568, 0.017368, -0.000000, -0.000000, 0.000000, -0.000000, 0.489494, 0.061038, 0.213075, -0.281561, -0.630809, 0.303391, -0.000003, -0.576460, -0.250027, 0.170440, -0.234712, 0.533619, -0.437411, 0.000000, 0.426617, -0.117425, -0.285994, -0.066589, -0.228233, -0.093430, 0.071728, -0.000000, 0.590909, -0.000000, -0.015851, 0.408376, 0.121998, 0.042812, -0.000000, -0.209970, 0.021204, -0.691146, 0.217918, 0.068741, 0.229624, 0.402750, 0.455420, -0.111288, 0.335200, 0.065315, 0.000000, -0.058520, -0.405442, 0.076487, -0.842986, -0.030025, -0.114495, 0.435127, 0.000000, 0.006596, 0.254390, 0.000000, -0.294508, -0.731183, 0.053898, 0.000000, 0.039125, -0.338407, -0.064955, -0.001498, -0.000000, 0.000000, 0.000000, -0.000000, 0.433238, -0.086183, -0.456613, -0.096947, -0.111069, 0.146408, -0.152157, 0.181810, -0.062514, 0.747590, -0.196765, 0.609279, -0.380123, -0.000000, -0.093515, -0.151596, -0.034727, 0.238653, -0.527211, -0.472583, -1.642789, 0.000000, -0.860690, 0.000000, -0.190475, 0.043375, -0.954136, 0.004329, 0.000000, -0.430812, 0.289959, 0.225121, -0.153974, -0.066328, -0.473132, -0.455092, -0.619680, 0.074409, 0.097638, -0.003806, -0.000000, -0.557877, -0.174421, 0.484975, -0.388119, 0.005911, 0.208143, -1.723915, 0.000000, -0.438930, -0.200082, 0.000000, -0.895575, -0.670923, 0.171653, -0.000000, -0.488747, -0.014448, 0.102451, 0.123627, 0.000000, 0.000000, 0.000000, 0.000000, -0.219710, 0.319529, 0.094690, 0.553907, -0.669161, -0.234150, 0.193095, -0.303349, -0.312229, -0.314498, -0.282195, -0.764729, 0.226810, 0.000000, 0.304262, -0.254641, -0.002789, 0.067438, 0.017211, -0.394116, 0.283462, 0.000000, -0.175528, 0.000000, 0.359893, 0.190900, 0.191700, -0.100130, -0.000000, -0.792099, 0.782448, 0.059771, -1.309154, -1.037709, -0.114400, -0.017379, 0.444215, -0.335630, -0.197914, -0.589994, 0.000000, 0.603415, 0.026686, 0.045338, 0.116284, 0.163281, 0.471539, -0.545840, 0.000000, 0.015843, 0.085631, -0.000000, 0.378382, -0.215797, -0.606896, 0.000000, -0.257028, 0.003249, -1.041567, 0.527428, -0.000000, 0.000000, 0.000000, -0.000000, -0.225074, 0.423430, -0.126401, -0.369665, 0.093163, -0.073210, -0.010338, -0.403708, 0.214330, -0.256766, 0.063524, 0.834029, -0.094298, 0.000000, 0.488788, 0.094391, -0.460275, 0.094449, -0.084888, -0.091702, 0.255248, 0.000000, 0.359866, -0.000000, -0.197971, -0.208129, 0.067484, -0.870815, -0.000000, -0.778556, 0.325651, 0.162713, 0.636720, 0.616523, 0.210120, 0.258286, 0.681505, 0.305086, 0.022103, 0.379849, -0.000000, 0.175165, 0.885451, 0.821427, -0.072876, 0.265173, -0.695237, -0.698868, -0.000000, 0.263660, 0.766900, 0.000000, -0.156784, -0.644175, -0.328663, 0.000000, -0.839039, -1.050758, -0.747180, -0.352815, 0.000000, -0.000000, -0.000000, 0.000000, 0.408463, 0.198984, -0.259698, -0.415683, -1.106272, -0.030467, -0.000117, -0.554202, 0.396506, 0.809121, 0.418511, 0.766560, 0.086933, 0.000000, 0.175251, -0.149992, 0.187363, 0.165734, 0.039750, -0.350386, -0.469809, -0.000000, 0.152814, -0.000000, -0.795569, 0.032986, 0.137958, 0.873282, -0.000000, 0.133022, -0.184316, 0.395800, 0.247639, 0.495293, -0.747174, 0.138998, 0.119451, 0.152764, -0.038801, 0.032931, -0.000000, 0.424537, 0.222857, 0.078810, -0.155759, -0.029904, 0.093415, -0.368072, -0.000000, 0.037869, -0.333655, 0.000000, -0.022168, 0.417594, -0.116902, 0.000000, 1.587817, 0.804017, 0.408754, -0.303239, 0.000000, 0.000000, -0.000000, -0.000000, 0.167791, -0.231707, 0.317658, -0.941647, -0.155638, 0.314159, -0.042006, 0.162665, -0.318072, 0.312164, 0.158026, -0.030866, -0.402440, 0.000000, -0.186794, -0.154812, 0.070575, 0.320909, -0.225424, 0.791685, -0.733881, -0.000000, -0.193236, 0.000000, -0.045600, -0.098778, -0.383833, 0.319741, -0.000000, -0.119937, -0.082523, -0.153011, 0.037045, -0.046650, -0.312327, 0.015443, -0.046691, -0.019851, 0.215002, 0.292641, 0.000000, -0.447814, 0.339071, -0.226936, -0.066990, -0.093589, -0.275146, -0.657725, 0.000000, 0.014714, -0.144226, 0.000000, -0.025690, 0.505217, -0.893400, -0.000000, 0.096020, -0.092501, 0.431854, 0.118525, -0.000000, 0.000000, -0.000000, 0.000000, -0.368119, -0.537736, 0.627198, 0.090440, 0.000000, 1.482747, -0.015325, 0.236939, -0.437792, -0.217460, -0.422750, -0.052466, -0.197151, 0.000000, -0.245063, -0.013197, -0.076089, 0.087217, 0.212831, 0.614507, 0.480619, -0.000000, -0.091862, 0.000000, -0.138172, -0.083375, 0.405439, 0.010437, -0.000000, 0.475689, -0.196910, -0.919925, -0.254425, 0.482998, -0.426726, 0.564295, 0.346671, 0.649899, 0.571776, -0.644724, -0.000000, -0.796186, -0.529551, -0.163942, -1.128980, -0.076323, 1.082264, 0.089711, -0.000000, 0.363234, 0.105079, 0.000000, -0.594761, 0.078976, -0.419672, 0.000000, 0.887093, 0.270396, 0.074677, -0.244354, 0.000000, -0.000000, 0.000000, -0.000000, -1.864806, -0.712012, -0.148754, -0.224493, 0.840764, 0.115017, -0.025081, 0.398702, -0.613687, 0.540873, -0.000000, 0.000000, -0.000000, 0.000000, 0.000000, 0.000000, 0.000000, 0.000000, 0.000000, 0.000000, -0.000000, 0.000000, 0.000000, -0.000000, -0.000000, -0.000000, 0.000000, 0.000000, -0.000000, 0.000000, 0.000000, 0.000000, -0.000000, 0.000000, 0.000000, 0.000000, -0.000000, -0.000000, -0.000000, -0.000000, -0.000000, 0.000000, 0.000000, -0.000000, 0.000000, 0.000000, 0.000000, 0.000000, -0.000000, 0.000000, 0.000000, 0.000000, 0.000000, 0.000000, 0.000000, -0.000000, 0.000000, -0.000000, -0.000000, 0.000000, 0.000000, 0.000000, 0.000000, 0.000000, -0.000000, 0.000000, -0.000000, 0.000000, 0.000000, 0.000000, -0.000000, 0.000000, 0.000000, 0.000000, 0.000000, -0.000000, 0.000000, -0.000000, 0.000000, 0.000000, -0.000000, 0.000000, -0.000000, -0.000000, 0.000000, -0.000000, 0.000000, -0.000000, 0.000000, 0.000000, -0.000000, 0.000000, -0.000000, 0.000000, 0.000000, 0.000000, -0.000000, -0.000000, 0.000000, -0.000000, 0.000000, 0.000000, -0.000000, 0.000000, 0.000000, -0.000000, 0.000000, -0.000000, -0.000000, 0.000000, -0.000000, -0.000000, 0.000000, -0.000000, 0.000000, -0.000000, -0.000000, 0.000000, 0.000000, 0.000000, -0.000000, -0.000000, 0.000000, -0.000000, -0.000000, 0.000000, -0.000000, 0.000000, -0.000000, 0.000000, 0.000000, 0.000000, 0.000000, 0.000000, 0.000000, 0.000000, -0.000000, -0.000000, -0.089213, 0.108242, -0.231189, -0.000000, 0.834980, -0.293811, 0.019089, 0.419580, -0.000000, -0.439238, -0.356539, 0.000000, 0.009902, -0.000000, -0.568563, -0.186040, -0.106394, 0.399777, -0.000000, -0.423487, 0.367423, -0.173400, -0.066848, -0.259393, -0.222255, -0.670275, 0.453778, -0.018823, 0.009048, 0.268684, 0.000000, -0.221310, 0.512069, 0.351730, -0.583434, 0.433653, -0.375389, -0.234521, -0.000000, -0.420207, -0.058029, -0.000000, 0.084308, -0.615353, 0.153849, -0.000000, 0.189242, -0.470656, -0.247823, -0.344618, 0.000000, -0.000000, 0.000000, -0.000000, 0.460574, 0.068623, -0.338607, 0.155880, -0.983927, -0.058582, -0.384381, -0.364552, 0.284264, 0.222676, 0.000000, 0.168859, -0.041888, 0.000000, -0.417747, -0.037583, -0.182436, 0.131918, -0.000000, 0.000000, 0.493735, -0.000000, -0.043811, -0.000000, -0.155086, 0.045005, -0.000000, 0.006484, 0.000000, -0.077348, -1.079924, -0.191161, 0.024648, 0.387207, -0.063776, 0.010686, -0.000000, 0.030107, 0.099679, 0.390634, -0.000000, 0.054182, 0.566021, 0.209630, -0.109881, 0.400546, -0.075751, 0.178337, -0.000000, -0.108710, -0.044584, -0.000000, 0.055544, 0.003218, 0.018744, -0.000000, 0.020074, 0.047330, 0.000494, -0.450579, -0.000000, -0.000000, -0.000000, -0.000000, -0.903646, -0.624544, 0.089928, 0.037860, 0.000000, 0.071088, 0.000000, -0.000000, 0.055291, 0.385619, -0.051912, 0.377407, 0.038505, 0.000000, 0.559291, -0.264824, -0.643900, 0.211216, -0.010294, -0.579568, -0.065053, -0.000000, 0.044513, -0.000000, 0.075288, 0.118331, -0.740783, -0.226544, -0.000000, 0.053353, 0.343375, -0.009429, 0.016067, -0.268630, -0.128110, 0.033266, -0.077624, 0.246758, -0.271232, -0.138642, -0.000000, -0.113885, -0.152795, -0.232325, -0.344691, -0.218479, -0.511070, -0.286087, 0.000000, 0.284739, -0.185545, 0.000000, -0.123337, -0.005684, -0.434552, 0.000000, -0.549629, -0.317822, 0.408473, 0.183162, -0.000000, 0.000000, -0.000000, -0.000000, 0.298314, -0.277763, -0.244253, 0.196967, -0.198447, 0.065624, -0.701706, -0.358766, -0.039598, -0.205244, -0.233498, 0.083436, 0.139375, 0.000000, -0.126788, -0.135970, -0.038253, 0.139927, -0.356247, 0.090131, -0.339509, -0.000000, -0.054376, -0.000000, -0.167119, 0.402353, -0.168875, 0.582553, -0.000000, -0.456415, -0.179955, -0.028901, 0.118241, 0.277364, 0.335781, -0.931743, -0.322405, -1.002708, -0.408864, 0.127526, -0.000000, 0.316540, 0.183854, 0.303697, 0.261520, 0.259693, -0.301041, -0.953098, 0.000000, -0.312151, 0.160767, 0.000000, -0.532324, -0.429688, 0.345437, -0.000000, -0.353772, 0.100310, -0.967918, -0.189500, 0.000000, 0.000000, 0.000000, 0.000000, 0.199573, 0.442871, 0.089754, 0.091501, -1.422041, -0.048200, -0.279605, -0.113403, 0.329066, -0.130916, 0.360456, 0.060182, 0.364595, -0.000000, -0.415547, -0.162865, -0.049745, 0.002553, -0.155714, -0.675643, 0.171173, 0.000000, 0.224586, -0.000000, -0.400832, 0.363321, 0.331134, -0.365616, 0.000000, -0.092832, -0.263742, 0.698155, 0.067313, 0.377898, 0.250791, 0.189862, -0.049557, -0.000000, -0.070587, -0.097972, -0.000000, 0.193706, -0.315978, 0.493260, 0.439629, 0.417404, 0.311767, 0.453805, 0.000000, 0.525978, 0.058126, -0.000000, 0.494962, -0.143931, -0.012212, 0.000000, -0.094191, 0.255055, 0.011937, 0.020080, 0.000000, 0.000000, 0.000000, 0.000000, -0.094246, 0.320892, -0.137365, 0.038608, -0.000000, -0.114767, 0.000000, 0.171780, -0.254241, 0.086857, -0.000000, -0.009988, -0.064131, 0.000000, -0.070277, -0.081483, -0.151563, -0.000952, -0.000000, 0.551118, 0.055133, -0.000000, -0.057806, 0.000000, -0.001625, -0.186451, 0.081148, 0.001521, 0.000000, -0.636293, 0.036634, 0.000030, -0.258540, 0.319256, 0.334385, 0.565365, 0.000506, 0.360721, 0.483418, -0.120934, -0.000000, 0.032669, -0.090887, 0.190012, -0.286965, -0.225639, -0.020676, -0.442588, -0.000000, 0.065551, -0.223586, -0.000000, 0.105380, -0.635107, -0.009602, -0.000000, -0.041713, -0.058636, 0.021920, 0.001595, -0.000000, 0.000000, 0.000000, 0.000000, -0.561938, -0.188453, 0.216165, 0.001025, -0.022464, 0.155849, -0.011797, -0.085578, 0.029242, 0.422327, 0.456319, -0.283492, 0.280949, 0.000000, 0.154298, -0.453439, 0.322769, 0.044408, -0.030147, -0.422057, -0.220822, 0.000000, -0.113358, 0.000000, -0.016757, -1.120582, -0.207977, 0.004459, 0.000000, -0.095596, -0.183102, 0.280132, -0.131206, -0.538677, 0.000438, -0.087375, -0.239863, 0.186490, 0.359335, -0.138371, 0.000000, 0.223388, -0.189228, 0.580467, 0.123427, -0.572681, -0.365784, -0.168764, 0.000000, -0.259089, -0.272040, 0.000000, -0.023154, 0.632459, 0.512826, -0.000000, -0.180285, -0.995658, -1.089680, -0.208828, 0.000000, 0.000000, 0.000000, -0.000000, -0.089955, 0.413355, 0.118840, 0.344749, -0.987272, 0.130255, -0.003397, -0.566567, -0.353223, 0.015343, -0.049171, -0.430211, 0.167083, -0.000000, -0.033838, 0.495297, 0.459853, 0.015915, 0.250388, 0.115419, 0.522962, 0.000000, -0.779134, -0.000000, -0.040324, -0.033763, -0.441809, 0.144000, 0.000000, 0.212997, -0.122679, 0.477520, 0.017712, -0.363816, -0.138840, -0.870711, -0.109989, 0.048936, 0.376332, 0.334366, 0.000000, 0.534586, 0.074489, 0.193541, 0.062878, 0.017381, 0.293616, 0.124073, 0.000000, 0.322611, -0.217327, -0.000000, 0.145593, 0.418898, 0.181481, -0.000000, -0.785070, -0.105747, 0.437814, 0.052588, 0.000000, 0.000000, 0.000000, -0.000000, -0.505690, 0.540941, 0.667110, -0.073728, -0.722678, -0.347081, -0.206205, -0.008001, 0.102971, 0.229469, 0.780142, -0.711356, -0.005228, 0.000000, 0.619111, -0.171912, -0.387032, -0.267134, 0.578668, -0.417902, -0.257946, 0.000000, 0.053988, 0.000000, -0.566850, 0.223853, 0.158823, -0.119548, 0.000000, -0.634504, -0.004207, -0.149621, -0.564608, -0.602435, -0.083326, -0.185645, -0.280479, -0.385001, 0.012820, 0.390218, 0.000000, 0.109847, 0.606110, -0.084568, 0.085983, 0.104390, -0.109089, 0.699383, 0.000000, -0.869018, 0.021524, -0.000000, -0.165895, -1.338048, 0.485072, -0.000000, -0.270099, 0.401967, 0.448823, -0.330586, 0.000000, -0.000000, 0.000000, 0.000000, 0.218278, 0.542785, -0.311696, 0.268260, -0.261264, 0.409624, -0.049259, -0.030142, -0.274543, -0.102880, 0.130022, 0.622902, 0.385403, 0.000000, 0.230076, -0.159272, -0.743505, 0.340641, -0.011651, -0.677473, 0.575286, 0.000000, -0.194029, 0.000000, -0.209336, 0.413213, -0.125137, -0.270519, -0.000000, -0.043273, -0.286241, 0.740950, 0.099858, 0.214502, 0.289373, -0.103203, 0.104847, -0.011667, -0.568292, -0.140450, -0.000000, 0.076345, 0.112422, 0.185466, 0.077003, -0.182329, -0.471490, 0.234490, 0.000000, -0.229142, 0.029078, -0.000000, 0.091941, -0.890871, -0.365092, 0.000000, -0.744161, 0.157914, 0.327907, -0.050186, 0.000000, 0.000000, 0.000000, 0.000000, 0.253796, -0.105385, -0.759668, 0.397459, -0.125512, 0.382144, -0.061701, -0.281714, 0.431418, 0.088400, 0.163150, -0.528730, -0.345073, 0.000000, 0.200417, 0.103299, -0.285544, -0.206945, -0.284180, -0.400214, 0.046138, -0.000000, 0.232058, -0.000000, 0.216170, -0.386404, -0.193410, 0.023605, -0.000000, -0.474204, -0.432540, -0.786752, -0.716185, -0.491325, -0.034888, 0.199297, -0.658582, -0.382651, -0.089057, -0.060060, -0.000000, 0.036155, 0.046673, -0.860538, 0.207144, -0.804431, 1.067889, 0.078520, 0.000000, 0.068125, -0.634729, 0.000000, 0.181125, -1.678431, 0.626921, 0.000000, 0.661601, -0.127638, -0.059217, -0.165136, 0.000000, 0.000000, 0.000000, 0.000000, 0.099863, -0.096555, -0.072008, 0.184017, 0.196538, 0.154411, -0.048121, -0.545003, 1.032562, 0.094510, 0.309507, 0.250921, -0.145188, 0.000000, 0.878419, 0.021505, 0.027316, 0.238429, -0.016048, -0.100378, -0.401841, -0.000000, -0.286307, 0.000000, -0.419512, -0.214281, -0.021939, 0.800354, -0.000000, 0.441753, -0.154668, 0.276883, -0.993888, -1.289845, -0.262685, -0.024660, 0.175525, -0.194048, 0.628126, -0.544211, 0.000000, 0.553555, 0.630518, -0.464662, -0.356624, -0.630154, -0.915867, -0.120209, -0.000000, 0.082131, 0.073507, 0.000000, 0.991951, 0.262082, 0.076166, 0.000000, -0.065207, -0.777647, -0.476586, -0.018280, -0.000000, 0.000000, 0.000000, -0.000000, 0.159684, -0.262668, -0.668746, 0.024463, -0.464327, 0.507728, -0.005741, 0.668285, 1.266173, -0.291302, 0.230822, 0.079283, 0.182737, 0.000000, 0.289096, 0.044866, 0.057847, -0.126657, -0.438127, -0.268323, -0.541771, -0.000000, -0.541982, 0.000000, -0.250277, -0.582543, -0.342838, -0.419507, -0.000000, 0.000315, -0.195709, 0.403440, -0.570623, -1.059694, -0.071555, 0.226278, 0.107327, 0.278048, 0.238936, -0.816115, -0.000000, 0.397539, -0.142126, -0.447399, 0.234369, 0.226310, 0.429552, -0.174693, 0.000000, 0.472326, -0.103793, 0.000000, -0.058180, 0.334167, 0.362439, 0.000000, 0.532700, 0.749998, 0.094373, 0.052523, 0.000000, -0.000000, -0.000000, -0.000000, -0.541541, -0.050938, 0.192618, 0.377734, -0.549656, 0.021313, -0.037593, 0.097981, 0.488160, -0.290928, -0.132305, 0.887539, -0.337342, -0.000000, -0.100963, 0.006144, -0.367871, -0.152721, -0.122236, -0.563369, 0.085887, -0.000000, 0.353403, 0.000000, 0.030077, 0.007111, 0.020032, 0.036913, -0.000000, -0.024756, -0.270254, -0.306204, -0.070132, 0.403163, -0.302115, 1.187087, 0.165389, 0.535477, -0.266883, 0.146445, -0.000000, -0.415670, -0.514447, -0.182226, -1.216963, 0.428378, 0.288356, -0.334008, 0.000000, 0.668550, 0.154231, 0.000000, -0.049101, -0.509523, 0.174823, -0.000000, 0.476707, -1.084479, 0.378277, -0.152389, 0.000000, -0.000000, -0.000000, 0.000000, -0.037364, -0.461200, -0.887813, -0.159097, 0.114840, -0.231124, -0.009474, 0.306944, -0.307593, 0.913154, -0.012531, 0.007521, 0.334315, -0.000000, 0.367620, -0.137796, -1.102678, 0.003435, 0.075123, 0.545610, 0.606850, 0.000000, 0.104648, -0.000000, 0.358082, 0.040759, -0.426744, -0.056416, -0.000000, 0.438745, -0.091283, 0.295287, -0.591715, -0.335122, 0.016799, 0.279403, 0.171550, -1.029602, 0.103750, 0.386505, 0.000000, 0.241072, -0.282959, -0.284909, -0.243673, 0.220098, 0.600429, -0.313441, 0.000000, 1.026077, 0.260865, -0.000000, 0.889720, -0.140292, 0.412493, -0.000000, -0.366361, -0.493205, -0.479290, 0.019170, -0.000000, 0.000000, 0.000000, -0.000000, -0.188257, 0.769102, -0.651697, 0.671361, -0.231443, -0.172291, 0.297910, 0.031894, 0.030487, 0.063945, -0.534667, -0.885136, 0.094482, -0.000000, -0.162379, 0.337238, -0.174037, 0.093532, -0.155931, -0.293207, -0.320513, -0.000000, -0.864602, 0.000000, -0.378757, -0.348755, -0.294811, -0.443621, -0.000000, 0.357298, -0.506158, 0.498409, -0.049196, -0.171102, -0.352286, -0.534451, -0.423905, 0.040260, -0.262667, 0.361265, 0.000000, 0.221460, 0.157509, -0.670524, -0.322452, -0.517374, 0.169140, -0.643799, 0.000000, -0.206864, -0.266182, -0.000000, 0.653118, -0.378557, 0.727833, -0.000000, -0.440342, -0.178940, -0.037941, -0.443902, -0.000000, -0.000000, 0.000000, -0.000000, -0.135693, 0.347605, -0.228449, 0.020095, -0.059300, -0.503696, 0.068534, -0.203145, -0.355388, 0.043645, 0.270911, 0.110030, 0.039401, 0.000000, 0.299817, -0.123736, -0.189782, 0.507428, 0.178779, -0.120188, 0.069271, -0.000000, 0.197368, 0.000000, -0.269268, -0.289070, 0.212703, 0.959315, -0.000000, -0.028719, -0.227064, -0.302169, -0.249472, 0.082608, -0.345120, 0.615481, 0.173605, 0.456399, 0.037803, -0.002854, 0.000000, -0.146225, -0.501912, -0.040112, -0.918384, -0.989045, -0.237657, -0.110749, 0.000000, 0.265424, -0.668552, 0.000000, -0.005346, -0.337770, 0.338439, -0.000000, 0.732468, 0.430345, -0.406360, 0.041813, -0.000000, 0.000000, 0.000000, 0.000000, -0.556504, -0.865595, -0.250997, -0.066064, 0.089521, 0.039216, -0.000000, 0.326538, 0.208865, 0.379710, -0.206486, 0.475526, -0.618940, 0.000000, 0.030802, 0.120098, -0.581660, -0.844927, -0.278009, -0.308808, -0.084857, 0.000000, 0.504275, -0.000000, 0.036502, 0.434103, 0.400287, 0.143941, 0.000000, -0.490267, 0.170893, -0.816509, 0.028602, 0.389673, -0.537512, 0.543680, -0.082911, 0.372040, 0.136228, -0.488992, -0.000000, -0.275517, -1.197112, -0.228055, -2.099178, 0.173591, 0.149500, 0.104211, 0.000000, 0.494134, -0.105854, 0.000000, -0.092155, -1.154723, -0.926060, -0.000000, 0.484773, -0.623156, 0.312868, 0.087158, 0.000000, -0.000000, 0.000000, 0.000000, -0.421137, -1.235912, -0.829378, -0.383951, 0.165391, -0.052885, -0.822205, 0.268542, -0.304406, 1.038187, 0.014139, -0.193667, 0.369110, 0.000000, 0.014960, -0.008585, 0.077561, 0.036948, -0.101753, 0.103285, 0.518858, 0.000000, 0.000746, 0.000000, -0.553451, 0.153899, 0.203958, 0.044869, 0.000000, -0.146841, -0.496823, -0.290416, -0.593785, -0.312832, 0.419415, 0.075670, -0.021115, -0.019101, 0.392904, 0.060718, -0.000000, 0.492264, 0.447454, 0.094036, 0.616062, 0.328630, 0.237536, 0.098675, 0.000000, 0.364152, 0.078744, -0.000000, 0.886966, 0.000000, -0.117776, 0.000000, -0.404965, 0.495514, 0.110368, 0.102633, -0.000000, -0.000000, 0.000000, 0.000000, 0.379563, 0.210317, -0.000441, -0.328245, -0.000927, -0.066814, 0.000000, 0.126407, 0.275591, 0.102690, 0.000000, -0.029668, 0.246596, 0.000000, 0.238791, 0.033537, -0.040015, 0.043871, -0.000000, 0.070800, 0.657471, 0.000000, -0.145000, -0.000000, -0.420922, 0.000004, -0.015910, -0.000000, -0.000000, -0.174541, 0.008666, 0.001185, -0.127799, -0.119167, -0.146190, 0.038435, 0.044311, 0.109944, 0.021278, 0.217712, -0.000000, 0.152395, 0.681894, 0.455380, -0.462518, 0.146523, 0.009126, 0.321250, -0.000000, 0.017787, 0.038220, 0.000000, 0.644209, 0.013960, 0.311574, -0.000000, 0.032494, 0.041167, 0.008607, 0.150796, -0.000000, 0.000000, 0.000000, -0.000000, 0.017771, -0.115895, 0.093963, -0.003468, 0.044434, -0.000290, 0.000000, 0.034763, 0.369427, -0.253994, 0.293179, -0.296407, 0.019184, -0.000000, 0.491629, -0.101814, 0.243426, 0.257847, -0.209469, 0.033323, -0.557083, 0.000000, 0.071691, 0.000000, -0.034926, -0.198226, -0.479780, 0.739129, 0.000000, -0.556934, 0.691065, -0.320258, 0.401866, 0.602753, 0.193118, 0.050615, -0.010210, -0.056170, 0.147787, 0.962201, -0.000000, -0.126350, -0.610590, 0.377295, -0.646707, 0.175434, 0.518783, -0.187826, 0.000000, 0.172546, -0.719010, -0.000000, 0.050183, -0.085896, 0.623440, -0.000000, -0.451471, 0.235492, -0.079891, 0.152656, 0.000000, -0.000000, -0.000000, 0.000000, -0.456415, 0.104789, -0.163451, -0.007845, 0.380618, 0.109297, -0.274352, -0.091212, -0.200634, 0.042887, -0.000000, 0.000000, 0.000000, 0.000000, -0.000000, -0.000000, 0.000000, -0.000000, -0.000000, 0.000000, 0.000000, -0.000000, 0.000000, -0.000000, 0.000000, 0.000000, -0.000000, -0.000000, 0.000000, -0.000000, -0.000000, 0.000000, -0.000000, -0.000000, 0.000000, -0.000000, -0.000000, 0.000000, -0.000000, -0.000000, -0.000000, 0.000000, -0.000000, 0.000000, -0.000000, -0.000000, 0.000000, 0.000000, 0.000000, -0.000000, -0.000000, 0.000000, 0.000000, -0.000000, -0.000000, 0.000000, -0.000000, 0.000000, 0.000000, -0.000000, -0.000000, -0.000000, 0.000000, 0.000000, 0.000000, -0.000000, 0.000000, -0.000000, -0.000000, 0.000000, -0.000000, -0.000000, -0.000000, -0.000000, 0.000000, -0.000000, 0.000000, -0.000000, -0.000000, -0.000000, 0.000000, -0.000000, -0.000000, 0.000000, 0.000000, -0.000000, -0.000000, 0.000000, -0.000000, 0.000000, 0.000000, 0.000000, -0.000000, -0.000000, 0.000000, -0.000000, -0.000000, -0.000000, 0.000000, -0.000000, 0.000000, -0.000000, 0.000000, -0.000000, -0.000000, -0.000000, 0.000000, 0.000000, -0.000000, -0.000000, -0.000000, -0.000000, 0.000000, 0.000000, -0.000000, 0.000000, -0.000000, 0.000000, -0.000000, -0.000000, -0.000000, -0.000000, 0.000000, -0.000000, 0.000000, 0.000000, -0.000000, 0.000000, -0.000000, 0.000000, -0.000000, 0.000000, -0.000000, -0.000000, -0.000000, -0.000000, 0.000000, -0.000000, 0.208024, -0.542557, 0.292350, 0.000000, -0.159301, 0.107063, -0.333865, 0.087222, 0.000000, 0.382951, -0.277268, -0.000000, -0.751060, 0.000000, -0.162320, -0.331086, -0.214330, -0.883873, -0.000000, -0.248817, -0.182044, 0.394941, 0.462083, 0.178899, 0.409226, -0.412445, 0.059196, -0.408296, -0.201366, -0.077523, 0.000000, -0.220382, 0.332088, 0.269313, 0.380040, 0.200062, -0.618713, -0.063299, 0.000000, -0.328582, 0.173874, -0.000000, -0.186764, -0.053898, -0.040026, -0.000000, -1.004601, 0.002598, -0.041729, 0.152139, -0.000000, 0.000000, 0.000000, -0.000000, 0.044960, 0.408309, 0.381790, -0.283192, -0.343748, 0.109843, -0.113816, -0.629944, 0.116893, -0.137147, -0.227166, 0.310578, -0.446011, 0.000000, 0.064215, 0.015532, -0.723167, -0.360876, -0.172270, -0.117825, 0.184330, -0.000000, 0.611184, -0.000000, -0.087586, 0.254228, 0.321837, -0.303843, -0.000000, -0.075930, 0.416022, -0.265014, -0.032588, 0.002045, 0.247403, 0.473877, 0.358439, 0.013680, 0.634862, -0.020761, 0.000000, -0.130413, -0.447459, 0.004941, -1.638967, -0.087454, -0.195603, 0.608670, 0.000000, 0.255563, 0.242068, -0.000000, 0.057483, -0.444522, -0.371658, 0.000000, 0.286791, -0.267534, -0.119782, 0.152520, -0.000000, 0.000000, -0.000000, -0.000000, -0.239735, -0.924248, -0.986326, -0.443409, -0.214645, 0.095660, -0.845722, 0.196923, -0.183694, 0.640924, 0.012666, -0.125452, -0.029703, 0.000000, -0.305435, 0.092687, -0.289317, 0.111447, -0.000000, -0.017739, -0.007876, -0.000000, 0.194168, -0.000000, 0.326362, -0.061634, 0.017658, -0.027511, -0.000000, -0.040774, -0.470971, -0.448232, -0.194115, -0.282813, 0.225108, 0.196343, -0.199565, 0.138399, -0.189925, 0.304518, -0.000000, 0.503804, -0.149070, -0.266165, 0.186110, 0.119881, 1.097558, 0.150444, -0.000000, -0.219458, 0.103270, 0.000000, -0.015379, 0.066483, -0.278208, -0.000000, 0.361140, 0.054341, 0.091154, 0.007744, 0.000000, -0.000000, -0.000000, -0.000000, 0.079973, -0.124107, -0.096958, 0.000001, -0.253623, -0.061699, 0.065150, -0.089213, 0.389158, -0.180495, -0.025197, -0.066381, 0.167526, -0.000000, 0.607741, -0.096052, -0.160781, 0.438056, -0.004465, 0.011087, -0.611689, 0.000000, -0.027683, -0.000000, 0.059084, -0.065005, -0.125157, 0.302878, 0.000000, -0.034345, 0.563010, 0.119565, 0.269394, 0.194526, -0.059336, -0.028814, -0.000000, -0.000000, 0.025821, 0.242617, -0.000000, 0.107858, -0.062695, 0.083194, 0.018093, 0.145007, 0.195547, 0.123084, 0.000000, -0.039911, -0.090442, 0.000000, -0.210647, -0.016337, 0.083585, -0.000000, -0.002818, 0.567191, 0.213386, 0.056151, -0.000000, -0.000000, -0.000000, 0.000000, 0.046280, -0.136870, -0.181651, 0.052644, -0.005685, -0.037253, -0.164364, -0.048960, -0.033159, -0.298615, 0.000000, 0.000000, -0.000015, 0.000000, -0.000000, -0.000000, 0.003720, 0.000037, -0.000000, 0.000000, -0.000000, 0.000000, 0.000000, 0.000000, -0.000000, -0.000000, -0.000000, 0.000032, 0.000000, 0.000000, -0.001103, -0.000000, 0.000000, 0.000000, 0.000000, 0.000000, -0.000000, -0.003755, -0.000006, -0.000041, 0.000000, 0.000388, 0.000000, 0.000000, 0.000000, 0.000000, 0.013185, -0.000000, 0.000000, 0.000000, 0.000762, -0.000000, -0.000000, 0.000010, 0.002116, -0.000000, 0.000006, 0.000000, 0.000000, -0.000069, -0.000000, -0.000000, -0.000000, 0.000000, -0.000000, 0.000017, 0.001171, 0.000000, -0.000000, 0.021413, 0.000000, -0.000881, 0.000000, 0.003121, -0.925761, -0.139174, 0.366722, -0.000000, -1.317787, 0.268499, 0.138423, -0.102884, -0.335426, 0.659411, 0.438594, -0.000000, 0.032121, -0.000000, 0.249069, -0.001259, 0.366226, -1.004693, 0.000000, -0.291610, -0.533938, -0.184615, 0.435112, 0.411280, 0.830051, -0.760461, 0.508613, -0.055623, 0.564256, 0.600829, -0.000000, 0.597383, 0.243057, 0.044532, 0.884271, 0.307619, 0.451754, -0.308466, -0.000000, -0.066269, 0.814633, 0.000000, 0.146587, 0.057835, 0.103138, -0.000000, -0.342293, 0.377779, -0.427419, -0.224189, 0.000000, 0.000000, 0.000000, 0.000000, -0.143488, 0.471684, 0.643769, -0.555355, 0.059927, 0.346235, -0.410535, -0.401749, 0.227790, 0.856720, -0.552828, -0.251645, 0.193915, 0.000000, 0.035509, 0.155762, 0.464075, 0.030149, -0.191539, -0.025543, 0.638492, -0.000000, -0.200642, -0.000000, 0.070472, -0.125539, -0.530665, -0.652943, 0.000000, -0.103968, 0.505821, 0.011164, -0.235293, -0.434736, 0.389301, -0.826217, 0.826958, -0.822963, 0.414075, 0.237967, -0.000000, -0.170687, 0.609716, 0.026101, 0.701202, 0.462745, -0.450902, 0.725086, 0.000000, 0.562711, 0.872095, 0.000000, 0.571962, 0.316460, -0.312664, 0.000000, -1.439025, 0.241038, 0.138771, 0.127579, -0.000000, -0.000000, -0.000000, 0.000000, -0.019913, 0.138438, 0.428789, 0.045791, 0.130254, 0.514277, -0.000816, -0.956829, -0.204381, -0.681056, -0.016122, -0.737928, -0.306826, 0.000000, -0.442180, -0.380331, -0.122252, -0.620280, 0.000000, -0.612652, 1.297345, -0.000000, -1.225102, 0.000000, -1.351626, -0.469113, 0.119756, -0.171750, -0.000000, 0.559272, -0.066356, -0.257176, -0.163654, 0.296564, -0.374992, -0.364458, -0.134257, -0.215102, -0.174443, -0.752865, 0.000000, -0.481802, -0.725428, -0.336404, 0.611495, -0.095281, 0.246037, -0.514119, 0.000000, -0.248576, -0.383390, -0.000000, -0.213923, 0.289958, 0.172048, -0.000000, 0.055502, -0.175608, -0.761567, -0.283244, -0.000000, 0.000000, 0.000000, 0.000000, -0.197231, 0.666121, -0.702291, -0.169426, 0.290767, 0.439355, 0.105514, 0.033901, -1.014300, 0.083194, 0.000000, -0.109157, 0.432499, 0.000000, -0.320323, -0.082214, -0.216128, 0.230850, -0.000000, -0.000051, 0.155743, -0.000000, -0.000000, 0.000000, -0.031639, -0.253245, -0.577602, 0.736840, -0.000000, 0.251675, -0.169757, -0.519288, -0.485513, -0.694456, -0.416164, -0.000477, 0.000008, 0.026982, 0.278273, 0.339369, 0.000000, 0.392112, 0.618037, -0.085332, -0.343151, -0.052943, 0.126248, 0.057152, -0.000000, 0.341797, -0.050378, -0.000000, 0.246519, 0.044636, 0.510857, 0.000000, -0.125518, 0.587814, -0.016796, 0.024676, -0.000000, -0.000000, -0.000000, -0.000000, 0.828099, -0.656483, 0.016178, -0.058873, 0.457312, -0.004430, -0.304554, -0.000000, 0.291284, 0.203484, -0.491609, 0.298890, 0.054932, -0.000000, -0.052504, 0.021961, 0.332378, -0.197473, -0.049996, -0.387706, 0.256180, 0.000000, 0.165772, 0.000000, 0.363906, -0.404841, 0.428854, -0.653356, 0.000000, 0.363840, -0.801471, -0.201767, -1.247573, -0.646769, -0.119212, 0.257257, -0.403408, 0.046597, -0.077375, -0.912303, -0.000000, 0.313091, 0.337484, -1.111715, 0.288770, -0.322843, 0.866094, 0.127859, 0.000000, 0.439667, -0.474303, -0.000000, 0.007421, 0.281885, 0.069048, -0.000000, 0.488328, 0.474277, -0.184625, 0.173237, 0.000000, 0.000000, 0.000000, -0.000000, -0.112551, -0.121436, -0.635319, -0.462693, 0.576050, -0.083806, 0.133962, 0.330955, 0.568046, 0.406218, 0.011425, 0.046248, 0.007257, 0.000000, 0.053716, 0.005667, 0.000000, 0.047727, -0.002088, -0.000849, -0.084563, -0.000000, 0.081964, 0.000000, -0.010521, -0.000900, 0.018528, 0.067478, -0.000000, 0.074935, 0.130258, 0.124767, 0.053000, 0.042459, -0.069263, 0.000425, -0.000108, -0.000000, 0.039399, -0.042576, 0.000000, 0.004201, -0.146147, 0.116144, 0.047313, -0.005781, 0.131876, -0.003495, -0.000000, 0.066663, -0.143207, -0.000000, -0.035400, 0.005863, 0.142733, 0.000000, 0.146778, 0.083837, 0.067572, 0.065417, 0.000000, -0.000000, -0.000000, 0.000000, -0.070777, -0.073426, 0.003618, 0.078795, 0.000000, 0.387993, 0.000000, -0.012646, 0.035327, 0.363769, 0.088782, 0.275764, -0.223760, -0.000000, 0.095148, -0.118978, -0.245150, -0.179249, -0.057132, 0.299586, -0.120421, 0.000000, -0.160868, 0.000000, -0.010123, -0.053115, 0.224250, -0.031108, 0.000000, -0.068306, -0.091049, -0.070555, 0.181546, 0.486798, -0.573511, 0.693472, 0.147113, 0.556855, 0.487557, 0.478620, -0.000000, -0.043048, -0.162651, -0.152118, -0.581186, 0.529247, 0.372536, -0.596577, 0.000000, 0.340655, -0.129440, -0.000000, 0.030127, -0.344658, 0.471457, -0.000000, 0.017842, -0.093249, 0.138217, -0.127439, 0.000000, 0.000000, 0.000000, 0.000000, -0.381915, -0.000283, 0.009725, -0.008451, 0.275524, 0.086369, -0.008170, 0.044681, -0.181282, 0.586448, -1.622345, -0.349237, 0.214554, 0.000000, -0.161959, 0.086202, 0.673554, -0.698408, -0.367847, -0.084249, 0.297615, -0.000000, 0.352602, -0.000000, 0.950674, 0.122560, 0.411266, -1.251242, 0.000000, 0.662015, -0.330360, -1.081468, -0.430719, 0.019616, -0.302647, -0.279786, -0.195013, -0.738387, -0.030887, -0.023733, 0.000000, 0.186590, 0.316015, -0.309127, 0.331555, 0.017360, 0.319662, 0.321678, 0.000000, -0.048948, -0.200732, -0.000000, -0.035039, 0.420311, 0.426848, -0.000000, -0.327952, -0.124286, -0.547237, 0.242591, -0.000000, -0.000000, 0.000000, 0.000000, 0.169670, 0.275854, 0.294766, -0.394967, 0.389638, -0.132751, 0.090188, -0.020956, 0.354105, 0.472638, -0.028187, 0.360668, 0.616536, -0.000000, -0.194619, -0.124663, 0.206490, 0.141746, 0.000000, -0.261688, 0.616630, -0.000000, 0.118414, 0.000000, -0.171661, 0.024470, -0.056277, 0.288018, 0.000000, 0.014309, 0.526854, 0.052714, -0.142910, 0.162879, 0.319531, -0.055441, 0.000000, -0.061729, 0.498916, -0.184605, -0.000000, 0.729737, -0.198514, 0.383838, -0.002775, -0.250644, 0.696020, -0.070419, -0.000000, 0.223751, -0.313397, 0.000000, 0.144015, -0.059029, -0.117557, 0.000000, 0.207467, 0.444277, 0.022070, 0.158204, -0.000000, -0.000000, 0.000000, -0.000000, 0.021687, 0.123967, -0.052197, 0.315771, -0.191446, 0.064669, -0.002669, 0.000000, 0.015212, 0.238978, -0.006938, 0.129717, -0.090780, -0.000000, -0.136997, 0.123319, -0.239194, 0.038125, -0.000035, -0.042298, 0.739119, -0.000000, -0.073984, -0.000000, -0.702454, 0.009222, -0.075057, -0.129558, -0.000000, -0.100173, -0.039546, -0.544084, -0.161501, 0.049398, -0.145063, -0.178454, 0.000000, -0.339504, -0.133803, 0.105657, 0.000000, 0.246024, 0.175736, -0.190208, 0.392397, 0.251748, 0.122363, 0.111540, 0.000000, 0.414725, 0.001017, -0.000000, -0.047796, 0.032674, -0.649594, 0.000000, -0.127231, 0.115174, 0.001827, -0.171676, 0.000000, 0.000000, 0.000000, -0.000000, -0.687508, -0.272044, -0.732866, -0.537185, -0.037510, 0.502848, 0.000170, 0.000000, 0.043037, -0.032678, 0.000000, 0.000000, -0.000000, -0.000000, 0.000000, 0.000000, 0.000000, 0.000000, 0.000000, -0.000000, 0.000000, -0.000000, -0.000000, -0.000000, -0.000000, -0.000000, -0.000000, -0.000000, -0.000000, 0.000000, -0.000000, 0.000000, 0.000000, 0.000000, 0.000000, -0.000000, 0.000000, -0.000000, -0.000000, 0.000000, -0.000000, -0.000000, 0.000000, -0.000000, 0.000000, -0.000000, 0.000000, -0.000000, 0.000000, -0.000000, -0.000000, -0.000000, -0.000000, -0.000000, 0.000000, 0.000000, -0.000000, 0.000000, 0.000000, 0.000000, -0.000000, -0.000000, 0.000000, 0.000000, -0.000000, -0.000000, -0.000000, 0.000000, -0.000000, -0.000000, 0.000000, 0.000000, 0.000000, -0.000000, 0.014353, 0.000001, 0.127748, 0.000000, 0.148425, 0.001278, -0.025234, 0.000000, -0.045725, 0.030499, 0.139300, 0.000000, -0.027160, 0.000000, -0.340736, -0.021503, 0.002066, -0.017088, 0.000000, -0.121665, -0.025920, 0.002298, -0.017669, -0.008012, 0.101094, -0.000000, 0.000000, -0.000000, 0.035051, 0.027670, 0.000000, 0.037696, 0.213726, 0.260580, -0.016462, 0.063231, 0.018491, 0.082257, 0.000000, 0.000000, 0.030118, -0.000000, 0.196773, 0.000000, 0.161992, -0.000000, 0.000000, 0.159495, -0.001792, 0.159779, -0.000000, -0.000000, 0.000000, 0.000000, -0.051917, -0.013590, -0.028318, 0.120506, 0.000000, -0.005440, 0.000000, 0.024978, 0.070882, -0.098780, 0.440359, -0.540157, 0.132825, 0.000000, -0.036285, -0.146894, 0.066325, 0.304392, 0.441475, 0.779311, -0.253084, -0.000000, -0.514869, 0.000000, -0.074281, 0.271696, -0.231270, 0.237862, 0.000000, 0.090460, 0.123521, -0.280455, -0.269651, -0.329498, 0.284538, 0.550469, -0.043637, 0.317369, -0.016206, -0.115811, 0.000000, 0.010680, 0.029300, 0.283936, 0.019938, -0.212959, 0.512221, 0.962423, 0.000000, 0.281435, -0.451900, -0.000000, -0.131032, 0.246729, 0.149553, -0.000000, 0.080017, 0.965830, 0.555717, 0.152586, -0.000000, 0.000000, -0.000000, 0.000000, -0.148453, -0.600100, 0.183345, 0.079868, -0.259083, 0.108005, -0.000000, 0.395980, 0.023245, 0.045361, -0.000000, 0.380163, -0.394051, -0.000000, -0.282835, 0.051060, -0.281956, 0.084315, -0.000000, 0.084545, 0.750402, -0.000000, 0.000000, -0.000000, -0.398405, 0.000000, 0.000000, -0.161180, -0.000000, -0.136951, -0.020074, 0.181991, -0.017023, 0.288247, -0.106580, 0.028146, 0.000000, 0.092508, -0.579285, 0.632157, -0.000000, -0.287781, 0.415855, -0.291034, 0.596036, 0.394742, -0.380460, 0.132115, 0.000000, -0.457795, -0.031446, -0.000000, -0.062382, 0.000000, -0.429637, -0.000000, 0.276639, 0.097044, 0.000000, -0.390054, -0.000000, 0.000000, -0.000000, -0.000000, -0.178499, -0.525210, -0.407716, -0.404153, -0.026365, 0.072077, -0.025183, -0.000000, -0.202816, -1.674771, -0.263151, -0.062793, 0.172794, -0.000000, -0.639971, 0.458218, 0.017353, -0.520257, -0.483316, 0.402273, 0.429019, 0.000000, -0.337636, 0.000000, -0.391697, 0.294488, -0.056742, -1.207688, -0.000000, -0.396386, -0.737628, -0.135225, 0.235202, -0.287794, 0.512630, -0.161967, -0.325385, 0.077942, -0.642920, -0.438649, 0.000000, -0.333134, -0.683895, 0.006557, 0.790878, 0.771804, 0.639075, 0.536310, 0.000000, -0.265124, 0.342391, -0.000000, -0.106837, -0.628696, -0.212339, -0.000000, -0.385224, 0.343670, -0.089444, -0.152525, 0.000000, 0.000000, -0.000000, 0.000000, 0.309566, 0.273294, 0.022608, -0.085199, -0.028273, -0.263343, 0.000000, 0.054316, -0.113893, -0.232875, 0.000000, 0.000001, -0.049669, -0.000000, 0.162430, 0.000000, -0.008037, 0.000000, 0.000000, 0.000000, -0.078756, -0.000000, 0.000000, -0.000000, -0.072151, 0.000000, 0.000000, -0.027200, 0.000000, 0.049609, -0.005655, 0.000000, 0.000000, 0.000000, -0.000000, 0.000000, -0.000000, -0.000000, -0.006995, 0.113578, 0.000000, 0.002300, -0.117124, -0.118458, 0.146997, -0.022785, 0.022550, -0.000526, 0.000000, 0.000172, -0.000000, 0.000000, 0.124760, 0.000065, 0.068255, -0.000000, -0.000000, 0.016131, 0.000000, -0.068023, -0.000000, 0.000000, 0.000000, -0.000000, -0.008757, -0.024851, 0.000000, 0.000002, -0.000001, 0.000000, -0.000569, -0.000000, -0.041662, -0.000000, -1.282533, 0.104380, -0.173391, 0.000000, 0.119836, -0.050977, 0.500143, 0.181631, 0.137422, 0.349318, -1.023971, 0.000000, -0.310150, 0.000000, -0.668972, -0.656643, 0.418146, 0.217123, 0.000000, -0.120009, -0.733363, 0.827787, 0.208229, 0.678948, 0.084602, 0.198106, 0.020500, 0.326455, -0.098204, 0.891822, 0.000000, 0.236892, 0.608240, -1.559664, 0.447833, -0.071396, -0.357516, 0.228306, 0.000000, -0.025354, -0.317240, -0.000000, -0.375098, -0.166563, 0.411331, 0.000000, 0.893057, 0.130947, -0.136952, -0.529829, -0.000000, -0.000000, -0.000000, 0.000000, -0.767598, 0.315466, 0.484609, -0.016792, 0.509393, -2.400300, -0.003518, 0.168429, -0.117424, -1.280812, -0.244554, -0.117333, 0.078450, -0.000000, -0.092607, -0.132010, -0.383369, -0.220812, -0.469119, -0.314326, -0.860710, 0.000000, -0.941671, -0.000000, -0.551126, 0.118994, -0.076502, -1.245048, -0.000000, -0.017264, -0.067457, 0.916553, 0.332816, -0.185776, -0.095296, -0.454262, 0.513726, -0.602937, 0.024063, 0.558814, -0.000000, -0.460524, 0.003698, -0.010816, 0.112958, 0.362008, -0.233217, -0.351007, 0.000000, -0.796504, 0.542430, 0.000000, -0.396873, -0.349508, -0.080241, 0.000000, -0.412200, 0.094656, -0.413616, 0.255079, -0.000000, 0.000000, -0.000000, -0.000000, 1.241866, 0.030681, 0.049387, 0.817318, -1.275238, -0.417327, 0.044313, -1.026246, 0.110365, -0.094087, 0.011789, -0.092648, 0.118312, -0.000000, -0.223650, -0.258093, -0.150978, 0.086446, -0.000000, -0.193379, -0.932947, -0.000000, 0.231338, -0.000000, 0.041187, 0.771287, 0.111750, 0.078966, -0.000000, 0.068665, 0.327734, 0.109736, -0.429961, 0.322140, -0.034264, -0.057694, -0.235932, -0.077202, -0.249264, 0.338320, -0.000000, 0.642791, -0.131303, -0.043344, 0.162715, 0.504479, 0.616666, -0.004452, 0.000000, -0.306231, -0.517187, 0.000000, 0.005738, 0.564131, 0.475399, -0.000000, -0.572897, 0.634202, 0.322834, -0.148343, 0.000000, 0.000000, 0.000000, 0.000000, -0.342331, 0.303851, 0.601385, 0.074885, -0.033916, -0.209091, -0.305155, -0.481760, -0.100082, 0.711575, -0.794257, -0.202328, 0.124244, -0.000000, -0.698979, 0.356066, 0.894013, 0.495138, 0.391645, 0.003507, -0.737643, 0.000000, -0.244724, 0.000000, 0.129959, 0.666610, 0.834474, 0.187021, 0.000000, 0.027135, -0.881164, 0.385641, 0.079722, 0.697642, -0.001592, -0.239079, -1.080256, -0.196177, -0.474219, 0.884136, 0.000000, 0.535221, 0.050565, -0.833471, 0.821474, 0.460375, 0.938635, -0.011113, 0.000000, -0.017095, 0.465096, -0.000000, -0.238045, 0.192952, 0.643178, 0.000000, 0.595146, 0.617807, 0.187503, -0.089887, 0.000000, 0.000000, 0.000000, 0.000000, 0.323963, 0.028084, -0.224425, -1.355322, 