// Auto-generated MLP weights + pointers for C inference
// Generated from scikit-learn MLPClassifier

#pragma once

#define ALIGN16 __attribute__((aligned(16)))

#define NUM_LAYERS 3

#define NUM_CLASSES 4

static const int LAYER_SIZES[NUM_LAYERS+1] = { 16, 32, 16, 4 };

#define OUTPUT_SIZE 4

// Convenience macros for selecting code paths at compile time
#if OUTPUT_SIZE == 1
    #define IS_BINARY_CLASSIFICATION 1
    #define IS_MULTICLASS_CLASSIFICATION 0
#else
    #define IS_BINARY_CLASSIFICATION 0
    #define IS_MULTICLASS_CLASSIFICATION 1
#endif

// Shape: (16, 32)
static const float W0[512] ALIGN16 = {
    0.168842, 2.511281, 1.109894, -0.136464, -0.198966, -1.091006, 0.848309, 0.328457, 1.243414, 1.304646, 0.489918, -2.349190, 2.391409, -0.838633, -0.242920, -0.787026, -0.782247, 0.758899, -2.039431, -1.848822, 0.952990, -0.224789, 1.774206, -0.357444, -0.879736, -0.827645, 1.840864, 0.204858, 1.037169, -2.168925, 1.217619, 2.207733, -0.887625, 0.054998, 0.331231, 0.620040, -0.951294, 0.235526, 0.346379, -0.042017, -0.116506, -0.444417, -0.688708, 0.428931, -0.028183, 0.000982, -0.167144, 0.047040, 0.386761, -0.303685, 0.371962, 0.522475, 0.386163, -0.347904, -0.207241, 0.424597, -0.018605, -0.266907, 0.184785, -0.407316, 0.394053, -0.138477, 0.210944, 0.134952, 0.627822, -0.485875, -0.189261, 0.062470, 0.136055, 0.737765, -0.203013, -1.159025, -0.917362, 1.034134, 1.511809, 0.319159, 0.491482, 0.146335, -0.090868, -0.506015, 0.190727, 1.190294, -0.269327, -0.729115, -0.238529, -0.309060, 0.227835, -0.476284, 0.849797, -0.310108, -0.012616, 0.035950, 0.332868, 0.311390, 0.186382, -0.049741, -0.064447, -0.254880, -0.921662, -0.333534, -0.053879, 0.056487, -0.197416, 0.259813, 1.141354, -0.128541, -0.087683, 0.667135, -0.329903, 0.177425, -0.165821, 0.144362, 1.402026, 0.665033, 0.217707, 0.661318, 0.552214, -0.112364, 0.561927, 0.337086, 1.082655, 1.075472, 0.374099, -0.051015, -0.557347, 0.269089, 0.345206, -0.049005, -0.201208, 0.007061, -0.077833, 0.157630, 0.032841, -0.419623, 0.084474, 0.582377, -0.455900, 0.534806, -0.679211, 0.754290, 0.107038, 0.316178, 0.183463, 0.399314, -0.443178, -1.264710, 0.269763, 0.817519, -0.454039, -0.577214, -0.121602, 0.215979, -0.908278, 0.154870, 0.177118, -0.301268, 0.296678, 0.382647, -0.387946, 0.369946, 1.687350, 1.147969, 0.384966, 0.092646, -0.873799, 1.706984, -2.549088, 0.239856, 0.384302, 1.609727, -0.493539, -0.586866, -0.387500, -0.291356, -0.001119, -1.275786, 1.563766, 2.113332, 0.269835, -0.710920, -0.783416, -0.647696, 0.708750, 0.741009, -0.448787, -0.565607, 2.609875, 0.333083, -0.363183, 0.173702, -0.204279, 0.174738, 0.337140, -0.214100, -0.219068, -0.443910, -0.163036, 0.405573, 0.315805, -0.079234, 0.346521, 0.702168, -0.693571, 0.102089, 0.088647, -0.416947, -0.242535, 0.317628, 0.531728, 0.024520, 0.256775, 0.353597, 0.176560, 0.117294, 0.268287, -0.420940, 0.506548, -0.020544, 0.143929, 0.565145, -0.102349, 0.182320, -0.766274, -0.155391, -1.076550, -0.511324, 1.069154, -1.163272, 0.527475, 0.118159, 1.128811, 0.075626, 0.101286, 1.388158, 0.510499, 0.011130, -0.437326, -1.451437, 2.167487, -0.241014, -0.370343, 1.277192, 0.164433, 0.814046, 1.164103, 3.043556, -0.965290, -0.815771, 1.191379, 0.056416, -0.718411, -2.703888, 1.238800, -0.837696, -1.476595, -0.320522, 0.405356, 0.353313, 0.548302, -0.668341, 0.634129, 1.473056, -0.396447, -0.076351, 0.281938, 0.649182, 0.003300, 0.194744, -0.566145, -0.262399, 0.727048, 0.030875, 0.275243, 0.683208, -0.069278, 0.070180, 0.242378, 0.915032, 0.009823, 0.000430, 0.303720, -0.365877, 0.081288, -0.702061, 0.014550, -0.161943, -0.528615, -0.238872, -0.248660, 0.496174, -0.135854, -0.697349, 0.293070, 0.190932, -0.487954, -0.300664, 0.289350, 0.116040, -0.184274, -0.266895, -0.612698, -0.311147, 0.527640, 0.443840, -0.047039, 0.397561, -0.172285, -0.167830, 0.064246, 0.176670, -0.243504, -0.655188, -0.306253, 0.365204, 0.152699, -0.151287, -0.165772, -0.065011, -0.577950, -0.316309, 0.385811, -0.021644, -0.366872, -0.038282, 0.210493, 0.266216, 0.236760, -0.850042, 0.129613, 0.269412, 0.328471, 0.480138, -0.024423, -0.664665, -0.593665, -0.568032, -0.404803, 0.529084, -0.475809, -0.325238, 0.064298, 0.169148, -0.279490, -0.076681, 0.069530, 0.182564, -0.132682, -0.617828, 0.494545, 0.335856, -0.193708, 0.435659, 0.427789, 0.169829, -0.263923, 0.402394, -0.759184, -0.030839, 0.057844, -0.300251, 0.327439, 0.364621, -1.010915, -0.020199, -0.066689, 0.181849, 0.294102, 0.587793, -0.003384, -0.984351, -0.018787, -0.438137, -0.596774, 0.222278, -0.867693, 0.572870, -0.410488, -0.798240, 0.162858, 0.427745, -0.888821, 0.231058, 0.956247, 0.697186, 0.124468, -0.147657, -0.016859, -0.541587, -0.153855, 0.435363, 0.577802, -0.222958, 0.029749, 1.276744, -0.429699, -0.013476, 0.329175, -0.010934, 0.147819, 0.349478, 0.551270, 0.386355, 0.145509, 0.435987, -0.007078, 0.529231, 0.100940, -0.659247, 0.880020, -0.466707, -0.033798, 0.682826, 0.259749, 0.080089, -0.205433, 0.039287, -1.127521, -0.452194, 0.014488, 0.703794, -0.182994, -0.460899, 1.116902, -0.212497, -0.662456, 0.313102, 1.031656, 0.313951, -0.243092, 0.016555, -0.069758, 1.087449, -0.621036, -0.241775, -0.016240, 0.774492, 0.956207, 0.366048, 0.570673, -1.005851, 0.083768, -0.187040, -0.719444, 0.125572, 0.848646, 0.021532, 0.994477, -0.071247, -0.083647, -0.814169, 0.992014, -2.094118, -0.094548, -0.011130, -1.103675, 0.348673, -0.113357, 0.860976, -0.131379, -0.484633, 0.297728, 0.604192, 0.647647, -0.433017, 0.350740, 0.225840, -0.346928, -0.647085, -2.098881, 1.110170, -1.432067, 0.675788, -0.135923, 1.222631, -0.312055, -0.989747, 0.315419, 0.594681, -2.304272, 0.318528, 0.411550, 0.001762, 0.667980, 0.363771, 0.321051, 0.461215, -0.575969, -0.172402, 0.295451, 1.056006, 0.608573, 0.236981, -0.389006, -0.007532, -0.035688, -0.179792, 0.254651, -0.058368, 0.454482, 0.369245, 0.260465, 0.041520, 0.141484, 0.091615, -0.240282, -0.377174, 0.560288, 0.579139, 0.230014, 0.298791, 0.588903, -0.143081
};

// Shape: (32,)
static const float B0[32] ALIGN16 = {
    0.736962, 1.206752, 0.050531, -0.868982, 0.386827, 0.363111, 0.022629, -1.113275, 0.587323, 0.463950, 0.325217, -0.234164, 0.912766, -0.819994, 0.540520, -0.110471, -0.365017, 0.564854, -0.715889, -0.171664, 0.404783, 0.372538, 0.680926, 0.173106, 0.060018, -0.574680, 0.468345, -0.987473, 0.969491, -0.297201, -0.727094, 0.752882
};

// Shape: (32, 16)
static const float W1[512] ALIGN16 = {
    0.441504, 0.050662, 0.000000, 0.070869, -1.209662, -0.057261, 0.672142, -0.144634, 0.559467, 0.571393, 0.368815, 1.098578, 0.081320, -0.713289, 0.961574, 0.098031, -0.879926, 0.663050, 0.000000, -2.147600, -2.477176, -0.822521, 0.016358, -0.863031, 0.999623, 0.178938, 0.503260, -2.318629, 0.536794, 1.450943, 0.037507, -0.946420, -1.132713, -0.057096, -0.000000, -0.119011, -1.418884, -0.758425, 0.185541, 0.020993, 0.606615, -0.754315, 0.132619, -0.000000, 0.220591, 0.496975, -0.274090, -1.832211, -0.720694, -0.072345, 0.000000, 0.748804, 0.298001, 0.529453, -1.925656, -0.288951, -0.713760, 0.072643, -0.955488, 0.150602, -0.980176, 0.259886, 0.001550, 0.367306, 0.632564, 0.762336, 0.000000, -0.036209, -0.592798, -0.359882, 0.055142, 0.214019, -0.408968, -0.378069, 1.247912, 0.241423, 0.669651, -1.140225, -0.164733, -0.026780, 0.092470, -0.044565, 0.000000, 0.524775, -0.360235, -0.263263, -0.782250, -0.615495, -0.153981, -1.145224, 0.138827, -0.067278, 0.058943, -1.238546, -0.286818, 0.577472, -1.753614, 1.252945, 0.000000, -0.795145, 0.942629, 0.362854, -0.391392, 0.117492, 0.829194, -1.788714, 1.291888, 0.410873, 0.845810, 0.172362, -0.667691, -0.526207, 2.678041, -0.970780, -0.000000, 0.268886, 0.536816, 0.223258, 0.223285, 1.208093, 0.123045, 0.724917, -0.099001, -0.064628, -0.597284, -0.767500, 0.523000, 2.413924, -0.405745, 0.192368, 0.000000, -0.045720, -1.026180, 0.222120, 0.766374, 0.089894, 0.810562, 0.192121, -0.482655, 1.070463, 0.630488, 0.148729, 0.499535, -0.503731, 0.114657, -0.590296, -0.000000, -1.156362, -0.484870, -1.135460, -1.506672, -0.966725, 0.594479, 0.529054, -0.157751, 0.000000, -0.937001, -0.891388, -1.773242, 0.477828, -1.620474, 0.643431, 0.000000, -0.019461, -1.290491, 0.140736, 0.769505, -0.345541, 0.196543, -0.202432, 0.876372, 0.670489, 1.072073, 1.439397, -0.337657, 0.248124, 0.423865, -0.681551, -0.000000, 0.929296, 0.808066, 0.926977, -0.052057, 0.278383, -0.188390, -0.026155, -0.461294, -0.493371, -0.031334, 0.251645, 0.014430, 0.232869, 0.626817, 0.765360, 0.000000, -1.003377, -0.623068, -1.253348, 0.701103, 0.503788, 1.011116, 1.035095, 0.094402, -0.250404, 1.006498, 0.496232, -0.411639, 0.505598, 0.092862, 0.303385, 0.000000, 0.266596, 0.772967, 0.061832, 0.015840, 0.852375, -0.924761, 0.279349, -1.299645, 0.405888, -0.426237, 0.525175, 0.884996, 0.853054, -2.406209, 0.018571, 0.000000, -3.789206, -0.269401, -2.597120, -0.053886, -0.235692, -0.046656, 0.761733, 0.081294, -1.507077, 0.665317, 0.503624, -1.070973, -1.465910, -0.924309, 0.889570, 0.000000, -0.344395, 0.380728, 0.236838, -0.154040, -0.265219, 0.050659, -0.068027, -0.118664, 0.495611, 0.521864, 1.026995, 0.244132, -0.532903, 1.728434, -0.821935, -0.000000, 0.297444, -0.480771, 0.136019, 0.616513, 1.199522, -0.355897, -1.104696, -0.103801, -0.091060, -0.417948, -0.919491, 0.368002, 0.459361, -0.486729, 0.573899, 0.000000, -0.712207, 0.156452, -2.346265, -1.011140, -1.039453, 0.756250, 1.080452, 0.024341, -0.002064, -0.127657, -0.389465, 0.637351, -1.497975, -0.639237, -0.210464, 0.000000, 0.742978, 0.874363, 0.291643, 0.259450, 0.512786, -1.072073, 0.317320, 0.122805, 1.533355, -0.814862, 0.341271, -0.080080, 0.319233, -0.872938, 0.048514, -0.000000, 0.628988, 1.039946, 0.813581, 0.228840, -0.088205, -0.540913, -1.104838, 0.759298, -0.450804, -0.078062, -0.678431, -0.574391, -0.188144, -1.229316, 0.581291, 0.000000, -0.413120, 0.483357, 0.423947, -0.119656, -0.356424, 0.445067, -1.025660, -0.615692, 0.021581, 0.203395, 0.828409, -0.904714, -2.903473, -0.905765, -0.007217, -0.000000, -1.699013, 0.391682, -1.557073, 1.417182, 0.029352, -0.312110, -1.120053, 0.210546, -1.222226, 0.292332, 0.885622, -9.040416, 0.639992, -0.038646, 0.611310, 0.000000, -0.603825, -1.373010, -1.680264, 0.849685, -0.122872, 0.236254, 0.569875, 0.049185, -2.286550, -0.683005, 0.678713, -0.825266, -0.766923, 0.906504, -0.074293, 0.000000, 0.072576, -0.372204, 0.607986, 0.207604, 0.573799, -0.090967, 0.259763, 0.763388, 0.125493, -1.668402, -0.040137, 0.476898, 0.489755, 0.591648, 0.141307, 0.000000, 0.214245, 1.312369, -0.606768, -1.376452, 0.659493, 0.133359, -0.115729, -0.029305, -2.914212, -0.121900, -0.624313, -1.033751, -0.028812, 0.003185, -0.788644, 0.000000, 0.098638, 1.187801, -0.003579, 0.122308, 0.813727, -0.164734, 0.349916, -0.239452, -0.539512, -0.383237, -1.259286, -0.353102, -0.009689, -0.265415, 0.227787, -0.000000, -0.610476, -1.249166, -0.832412, 0.543639, 0.373950, 0.376864, -0.296312, 0.340292, -0.077206, 0.896402, -0.718023, 0.100994, -0.348089, -1.071662, -0.430203, 0.000000, 0.736286, -0.779838, 0.551714, -1.264582, -0.576455, 0.087299, 0.276917, -0.255823, 0.096153, -0.341425, 1.687028, 1.612337, 0.382857, -0.184107, 0.200363, -0.000000, -0.801548, 0.027277, -0.785571, 0.094238, 0.493652, 0.929323, 0.196089, 0.903020, -1.910183, 0.316726, 0.227758, -0.626073, 0.255586, 0.027324, -0.436318, 0.000000, 1.163087, 0.890268, 0.530917, 0.135150, 0.386374, -0.769079, 0.672495, -0.404029, -1.042495, 0.136665, -0.299178, 0.613718, 0.369351, 0.633250, 0.615730, -0.000000, 0.280512, 0.358939, 0.095814, -3.553255, 1.004505, -0.370773, -1.047728, 1.028765, 1.033097, -4.106733, 1.736806, -0.282761, -2.986847, 0.713470, 0.487396, 0.000000, -0.583546, -0.541988, -0.146225, 0.494238, 1.158741, 0.858474, -0.043280, 0.850617, -0.067552, 0.812016, 0.445718, 0.336637, -0.373493
};

// Shape: (16,)
static const float B1[16] ALIGN16 = {
    0.450612, 0.460841, -0.014230, -0.022214, -0.015611, 0.416433, 0.615362, 0.026256, 0.123961, 0.637308, 0.206176, -0.499096, -0.519115, 0.143816, 0.095772, -0.202180
};

// Shape: (16, 4)
static const float W2[64] ALIGN16 = {
    -4.237254, -0.075749, 1.534251, -0.328605, -0.335016, 0.101067, -1.198759, 0.843994, -0.000000, -0.000000, -0.000000, 0.000000, 1.508778, 1.050502, 0.367931, -2.373962, 1.553626, -4.367095, 0.449842, 1.352945, 0.644396, 1.165994, -1.218340, -1.093582, -0.902644, -7.783715, 1.447845, 0.838753, -2.216250, 0.638371, 0.168609, 0.846969, 0.805209, -1.220919, -0.625786, 0.844675, 0.802842, 0.563538, 0.559510, -1.322996, -1.212784, 0.422528, -0.285448, 0.348829, -2.417139, 2.374010, 1.750402, -2.389085, -0.694950, 1.378535, 1.452603, -0.521023, 1.395216, -0.324785, -3.145567, 0.534796, -1.969937, -5.640893, 1.930355, 0.578589, -3.231063, -0.929183, 1.662937, -0.473791
};

// Shape: (4,)
static const float B2[4] ALIGN16 = {
    0.698809, -0.199039, -0.824068, 0.591401
};

// Weight & bias pointers per layer
static const float *WEIGHTS[NUM_LAYERS] = { W0, W1, W2 };
static const float *BIASES[NUM_LAYERS]  = { B0, B1, B2 };

#undef ALIGN16
