// Auto-generated MLP weights + pointers for C inference
// Generated from scikit-learn MLPClassifier

#pragma once

#define ALIGN16 __attribute__((aligned(16)))

#define NUM_LAYERS 3

#define NUM_CLASSES 4

static const int LAYER_SIZES[NUM_LAYERS+1] = { 16, 64, 32, 4 };

#define OUTPUT_SIZE 4

// Convenience macros for selecting code paths at compile time
#if OUTPUT_SIZE == 1
    #define IS_BINARY_CLASSIFICATION 1
    #define IS_MULTICLASS_CLASSIFICATION 0
#else
    #define IS_BINARY_CLASSIFICATION 0
    #define IS_MULTICLASS_CLASSIFICATION 1
#endif

// Shape: (16, 64)
static const float W0[1024] ALIGN16 = {
    -2.064712, 0.451165, 1.157402, -0.740241, -0.108060, -3.207188, -3.055814, 1.165067, -0.271960, 2.117322, -0.532775, 1.326350, 3.039913, -0.206775, -0.286335, -2.006742, -0.228875, -0.866013, 0.707771, 0.168338, 1.446133, -2.580110, -3.837897, 0.291822, -0.511601, 0.697206, -0.133620, -2.453158, 2.553875, 1.472791, 0.586516, -1.033290, 1.172470, 1.863681, 0.790891, 1.704772, -0.450489, 0.636471, 1.871379, 2.348090, -0.000000, 0.374416, 1.350735, 0.346123, -0.405799, 0.770641, 2.014783, 0.569831, 1.328320, -0.375701, 2.304047, 1.430867, 2.366942, -0.842162, 0.954568, 1.981350, -2.711263, -0.654673, 0.645782, -0.059766, 0.468873, 1.136673, 0.797967, 2.862401, 0.141934, -0.232339, 0.354762, 0.363795, -0.684679, -0.094739, 0.520763, -0.835978, -0.494167, 0.637257, 0.220990, 0.096339, 0.282896, -0.956846, -0.460157, 0.178198, 0.234763, 0.417179, -1.141727, -0.801438, -0.963743, -0.989295, 0.387320, 0.088245, -0.031089, -0.137953, -0.629789, 0.727081, 0.414690, 0.355226, -0.446435, -0.445803, 0.224026, -0.024538, 0.127482, -0.430768, -0.488761, 0.174720, -0.828270, 0.141152, 0.000000, -1.401959, -0.803254, 1.062789, -0.975905, -0.517127, -0.089801, -1.060581, 0.902260, 0.194224, 0.257760, 0.889412, -0.393090, 0.219981, 0.371818, 0.079755, 0.257596, 0.608806, -0.469489, -0.991638, 0.461247, -0.609207, -0.093606, 0.486138, -1.531200, -0.284951, -0.265163, -0.333242, -0.504378, 0.213446, 0.694212, 0.462653, -0.558606, -0.546667, -0.059311, 0.749516, -0.049996, 1.007534, 0.233023, -0.212672, -0.859304, -0.712820, -1.056868, -0.290480, -0.500947, 0.028027, 0.368474, -1.692584, -0.275835, -0.089340, 1.338929, 0.338694, -1.029525, 0.115011, 0.205449, -0.419724, 0.771069, 0.105903, 0.952902, 0.008809, -0.777992, 0.301507, -0.421287, -0.297161, -0.000000, 0.489775, 0.558211, -1.541244, 0.083270, 0.260128, 0.718495, -0.147751, 0.506364, 0.139725, 0.349324, 0.778987, -0.136250, 1.308739, 0.511261, 0.128000, -0.040591, -0.289387, 1.472275, -0.811599, 0.261189, 0.018737, 0.087054, 0.007652, 0.470339, -0.029178, -0.854859, -0.034182, 1.042175, 0.556237, 0.759495, -0.888731, 0.589873, -0.514547, -0.143818, 0.470369, -0.296620, -0.909620, -0.704562, 0.173461, -0.541013, -0.704139, -0.785602, 0.536575, 0.020266, 0.094756, 0.551146, 0.310021, 0.086642, 0.089557, 0.847263, 0.683720, -0.230843, -0.296781, 0.021700, -0.145262, 0.856756, -0.340600, 0.438165, -0.050833, 1.356632, 0.062285, 0.597878, -0.019435, 0.000000, 0.858901, -0.578562, 0.521709, 0.226548, -0.062606, 0.246423, -0.107408, 0.479321, 0.320332, 0.481282, 0.390749, -0.936053, 0.564436, -0.483827, 0.617629, 0.535764, 0.447457, -1.205337, 0.119331, 1.518370, -0.045502, -0.305713, 1.089155, 1.166937, 0.186517, 0.386806, -0.084268, 0.291833, 0.516947, -0.547227, 0.539071, 0.614347, 0.490572, 0.385081, -0.301601, -0.000694, 0.443201, 0.578783, 0.324656, 0.743085, 0.701668, 0.808501, 0.322298, 0.223700, 0.689076, 0.249769, 1.225264, 0.362387, -0.142158, -0.618607, 0.670779, 0.233632, -0.361282, 0.195213, 0.042473, -0.883123, 0.062678, -0.323207, 0.047763, 0.806593, -0.095151, 0.546606, 0.053580, 0.000000, -0.341890, 0.716634, 0.101527, -0.498886, -0.077679, -0.269521, 0.257825, 0.543821, 0.381518, 0.313986, 0.405314, 0.381251, -0.341661, 0.260532, -0.361991, -0.047818, 0.358861, -0.366155, 0.576894, -0.646149, 0.081220, -0.277221, -0.430901, -0.411256, 0.176777, -0.567393, -0.158196, 0.361515, -0.250179, 1.496602, 0.343043, -0.450714, -1.135349, 0.220241, 2.829416, -1.195371, -1.422828, -0.897143, -0.256510, -0.452838, -1.275012, -0.749851, -1.506854, 0.366209, -1.744532, -0.406967, 0.584562, 0.036635, 0.500241, -0.038737, -1.254829, 0.173203, 1.190772, 0.235829, 2.705339, 0.674501, -1.016073, -1.336046, -1.348870, -1.099308, -0.391653, -1.084619, 1.853563, 0.000000, 0.398403, 1.011120, -0.021306, 1.257952, 0.115846, -0.764710, -0.772571, 0.015092, 0.202074, -1.261325, 0.015092, 1.113051, 0.463166, 0.945936, 2.142071, 0.993004, -3.901486, 0.504853, -0.621941, -0.371130, 0.172717, 0.720053, 4.312062, -0.127995, -0.128863, -0.318747, -0.234262, 0.225753, 0.045099, 0.230228, 0.447359, -0.445424, 0.407505, -0.148184, 0.424727, 0.066943, -0.220461, -0.374689, 0.120029, -0.805005, 0.322451, 0.329652, 0.105117, -0.170944, 0.397265, 0.038164, -1.087912, 0.254529, 0.088085, 0.402400, 0.678999, 0.641206, -0.220733, -0.128085, -0.043510, 0.017396, -0.258716, 0.679482, 0.251434, -0.123056, 0.019310, 0.273248, -0.348811, -0.000000, -0.521090, 1.213564, -0.040717, -0.377390, -0.079263, -2.425161, 0.639106, -1.063207, -0.673478, -0.348218, 0.523927, -0.191326, 0.346947, 0.113426, -0.024654, -0.146758, 0.589771, -0.123777, -0.490508, 0.198133, 0.152814, 0.342527, -0.047485, -0.392242, -0.039528, 0.839987, -0.512558, -1.517672, 0.424983, 0.105304, -0.972889, -2.391547, 0.503131, -2.289248, -0.054578, -0.156417, 0.659711, 1.279638, -0.807268, 0.538334, 0.939011, -0.230165, 0.574605, 0.145470, 1.327171, -0.158227, 0.541293, -1.824819, -2.560502, -0.043419, 0.785166, -0.629688, -1.571972, 0.271817, -0.711360, 0.671884, 0.328769, 0.370057, 0.682500, 0.079876, 1.817749, -0.694417, -1.617628, 0.000000, 0.558486, 1.391973, 1.007295, -0.677104, -2.484601, 0.675539, 0.963559, 0.914029, -2.353985, -0.527556, 1.013899, 0.903022, 0.463708, -0.844228, 0.332136, -0.892731, 1.263562, 0.927119, 0.314725, 1.430973, -1.728305, -3.154763, 0.464650, 0.558182, 0.528035, 0.338746, -0.345457, -0.597934, 0.352258, 0.734191, 0.038643, 0.288792, -0.940762, -0.396400, 0.514923, -0.085144, 0.636061, 0.652971, -0.577741, -0.089312, -0.339189, 0.121113, 0.845393, 0.851036, 0.600735, 0.411673, 0.534197, -0.337619, -0.930676, -0.020631, -0.257255, 0.242016, -0.286785, 0.033738, 0.092568, 0.516627, 0.100666, -0.554500, 0.128324, -0.067063, 0.006467, -0.586809, -0.040302, -0.000000, 0.062469, 0.704090, 0.109328, 0.062380, -0.978855, 0.271559, -0.212553, 0.257100, -0.960157, -0.321298, 0.010056, 0.537553, -0.505074, -0.355758, -0.028688, 0.302759, -1.013584, 0.739115, 0.510010, -0.772264, -0.119791, -0.362445, 0.622503, -0.097045, 0.798669, 0.846007, 0.175766, -0.758592, 0.722291, 0.046450, -0.112911, 0.318087, -1.174536, -0.532915, -0.580740, -0.101973, 0.091688, -0.324535, 0.034252, -0.617870, 0.050588, 0.301393, 0.089963, 0.890344, 0.191808, 0.306722, 0.136888, -0.298038, -0.939945, -0.757456, 0.063701, 0.088227, -0.054920, 0.164849, -0.318123, 0.337117, 0.620844, -0.474547, -0.035754, -0.396206, -0.142921, 0.404130, 0.252098, -0.000000, -0.549642, -0.137977, 0.018877, -0.191367, -0.852517, -0.073032, -0.693589, 0.767686, -1.009611, -0.046940, -0.578916, 0.500818, -0.339887, -0.077789, 0.372623, 0.254966, -0.332109, 0.202520, 0.023603, -0.747190, -0.479500, -0.643287, 0.257016, -0.414937, -0.714258, 0.030760, 0.157231, -0.621749, -0.029249, 0.027377, 0.654384, 0.145570, 0.606977, -0.230447, 0.489286, 0.075129, 1.657511, 0.417216, -0.153062, 0.071132, 0.347609, 0.995292, 0.223276, -0.112542, 0.655741, 0.545598, -0.120404, -0.086824, -0.214804, -0.056492, -1.259968, -0.112854, -0.224623, -0.014967, 0.269894, -2.064634, 0.369160, -0.074910, 1.282632, -0.471540, 0.016793, 0.292416, -0.044820, -0.000000, 0.365687, -0.613378, -0.636184, 0.909930, 0.196634, 0.054356, -0.016987, 0.350833, -0.265300, -0.119503, 0.641538, -0.484503, 0.308631, -1.440004, 0.130685, 0.100324, 0.184765, -0.015239, 0.987527, -0.209100, -0.203662, -0.213529, -0.161892, -0.324771, 0.792110, 0.416822, 0.238100, -0.071567, 0.033663, 0.175145, 1.054862, 0.446646, -1.406698, -0.173840, -0.104238, 0.670822, -0.111731, -0.513359, 0.021763, 0.570942, -0.538267, -0.927710, 0.207559, 1.245497, -0.138908, -0.046055, 1.527952, 0.011310, -0.030537, -1.311557, -0.038092, -0.019010, 0.559084, 0.048883, 0.144238, 0.444721, -0.450714, -0.111230, -0.065164, -1.030150, 0.209502, -0.058944, 0.695994, -0.000000, 1.204247, -0.133267, -0.124110, 0.450493, 0.211854, -0.601846, 0.567273, 0.776461, -0.001095, -0.012934, 0.659974, -0.186584, 0.539872, 0.769868, 0.314467, -0.104002, -0.392291, -1.068111, 0.333074, -0.205209, 0.091563, 0.441337, 0.016352, -0.183541, -0.265340, -0.591111, 0.126912, 0.070107, -0.227594, 0.268367, 0.199269, -0.468938, 0.461818, 0.057649, 0.370840, -0.230549, -0.208542, -0.606954, -0.004131, -0.637070, 0.332644, -0.053723, -0.144137, -0.206215, 0.454299, -0.138814, -0.765719, 0.173177, 0.520279, 0.220841, 0.638379, 0.489988, -0.115668, -0.049697, 0.203880, 0.521327, -0.368906, 0.109802, 0.144886, -0.308293, 0.076912, 0.488593, -0.144047, 0.000000, -0.787584, 1.601675, -0.042584, -0.375865, 0.346387, -1.285162, 0.501757, -0.804767, -0.426294, -0.424645, 0.659540, 0.161630, -0.219522, -0.037118, 0.052034, -0.008688, 0.561960, 0.190510, -0.443193, 0.179441, 0.090214, 0.152631, -0.238768, 0.639509, 0.286954, 0.865891, 1.407747, 0.714063, -0.277581, -0.166375, -0.916174, -1.514248, 0.902314, 0.049750, 0.244706, -0.240027, 0.754256, -0.647179, 1.108787, -0.303214, 1.425514, 0.274168, 0.976878, -0.706822, 0.862632, -0.378352, 0.709240, -1.098075, 0.654446, 0.100263, 0.256330, 0.123290, 0.226424, 0.833260, -0.620201, 0.884907, 0.747184, 0.041241, 0.167968, 1.518573, 1.723389, -0.532358, -1.199782, 0.000000, 1.191090, 0.700821, 0.177444, 0.465056, 0.717458, 0.721960, 0.644437, 1.131463, 0.703511, -0.123326, 1.846022, 0.515637, 1.326454, -0.499386, -1.127687, 0.463305, 1.409379, 0.923688, 1.129803, 1.337113, 0.737200, 0.642034, -0.432925, -0.008632, 0.231699, -1.186515, -3.172698, -0.555350, 0.378232, -0.218083, 0.141978, 0.208155, 1.364645, -1.065896, 0.515628, -0.366921, 0.327821, 1.441905, -1.821386, 2.584042, -1.297153, -0.390247, -0.236129, 0.800047, 0.264349, 0.896685, -1.994265, 0.480881, -1.847230, 0.654620, 0.410594, -1.100075, -2.972482, 0.058498, 0.078086, 0.174240, -1.573316, 0.355495, 0.161138, 0.136915, -2.656444, 0.198963, -0.064097, -0.000000, -0.096161, 0.173451, -0.293469, 0.065714, -1.608260, 0.258805, 0.416519, -0.531826, -1.787564, -1.168190, 0.096617, 1.004889, 0.345003, -0.007729, 0.733866, -0.649830, 0.076811, 0.452812, 0.033847, -1.204282, -3.198411, -2.578403, 0.732405, 0.321773, 0.996917, -0.315951, 0.627955, 0.061872, 0.323434, 0.608882, -0.404707, 0.095403, -0.557946, 0.430542, 0.659445, -0.881133, 0.325974, -0.201886, 0.118448, 0.167624, -0.313998, 0.479610, 0.000618, 0.483258, 0.005752, 0.011381, 0.189184, 0.358410, 0.497390, 0.784895, -0.202453, -0.465400, 0.658928, 0.806902, 0.817942, 0.946841, 0.448083, -0.218342, -0.125122, 0.474308, -0.206406, 0.049345, -0.149275, 0.000000, 1.330158, 1.228690, -0.033914, 1.070191, 0.622075, 0.632246, 0.469240, 0.267435, 0.517883, -0.147755, 0.531673, 1.983543, -0.047906, 0.147559, 0.093753, 0.843068, -0.659250, 0.841377, 0.376940, -0.230977, 1.129553, 0.956351, 0.592079
};

// Shape: (64,)
static const float B0[64] ALIGN16 = {
    -0.927497, 0.255236, -0.049681, -0.915620, -1.577214, -0.556784, -1.076241, 0.434519, -1.151683, -0.199952, -1.400321, 0.539254, 0.316237, -0.169515, 0.104988, -1.530033, -0.366590, -0.253463, -0.560775, 0.106778, 1.164882, -0.237159, -1.200026, -0.240414, -0.987812, -1.636886, -0.149914, -0.615011, 0.933878, -0.093635, -1.079831, -0.229507, 0.323877, 0.748538, -0.462487, 0.022049, -0.500980, 0.892772, 0.404876, 0.566278, -1.026755, 0.418009, 0.089648, -0.839188, -1.087530, -1.014758, -0.537653, -0.348666, -0.979274, -1.460361, 0.889945, -1.518989, 1.688366, -0.552067, 0.244640, 1.230397, -1.240223, -1.048928, 1.110957, -0.318129, -0.010365, -0.050345, -1.127784, 0.496010
};

// Shape: (64, 32)
static const float W1[2048] ALIGN16 = {
    0.902852, -0.160147, 0.358000, -0.102516, 0.011172, 0.622005, 0.101395, 0.327318, 0.191709, 0.000000, 0.387875, -0.810516, 0.432919, 0.906250, -0.066230, 0.113766, -0.489040, -0.160327, 0.451011, 0.687048, -0.745295, 1.169842, -0.331395, 0.046733, -1.779003, 0.848224, 0.759920, 0.143403, 0.577867, -0.007026, -0.921989, 0.927020, -0.424138, -0.216943, -0.530661, -0.320156, 0.234463, 0.515315, 0.763278, 0.059871, 0.118611, 0.000000, 0.280792, -0.257749, -0.144259, -0.263611, 0.408372, -0.182038, 0.790257, -0.122620, -0.129280, 0.166169, -0.427157, 0.309299, -0.418706, 0.021622, -0.111237, -0.224592, -0.654628, 0.514060, -0.212445, -0.153787, 1.117869, 0.342340, -0.165320, 0.013442, -0.122637, -0.066203, 0.080151, 1.001781, -0.543431, -0.427886, 0.350109, 0.000000, 0.177286, -0.726525, -0.367954, -0.224705, 0.572622, 0.326876, -0.329404, 0.305517, 0.321006, -0.668649, 0.368765, 0.109751, -0.378580, -0.188071, -0.284610, -0.540857, -0.345400, -0.033627, 0.443085, -0.165538, 0.011582, -0.258304, -0.414962, 1.258275, 0.336024, -0.370965, 0.193596, 0.674813, -0.248517, -0.147417, 0.593223, 0.000000, 0.461536, -0.828530, -1.862670, 1.177083, 0.406641, 0.019187, -0.262708, 0.034151, 0.311914, 0.034935, -0.522860, 0.535152, -0.002742, 0.445267, 0.303512, 0.957418, 0.188695, -0.374332, 0.283666, -0.469859, -0.196146, 0.420119, 0.686180, 1.026296, 0.091277, 1.017236, 0.419628, -1.407694, 0.180492, 0.045948, 0.211098, -0.000000, 0.138442, -0.246655, 0.556228, 0.179306, -0.190622, -0.701352, 0.909116, 0.500654, -0.998296, 0.486138, -0.313677, 0.204380, -0.149624, -0.113688, 0.659862, 0.998051, 0.289335, -0.934290, 0.218624, -0.490478, -0.625072, 0.157995, 0.319169, 0.272108, 0.207160, -1.053302, -0.227877, 0.181716, -0.201061, -0.179076, -0.183761, 0.000000, -0.171609, 0.040900, -0.761333, 0.036032, -0.281350, 0.400935, -0.266679, -0.151184, 0.610567, 0.445731, 0.040307, 0.973448, -1.318461, -0.230375, -0.169377, -0.422067, 0.489253, -0.631160, -0.819758, -0.169448, -0.551092, -0.007478, 0.435960, -0.228952, 2.052724, -0.305396, 0.439118, -0.199408, -0.917413, 0.654809, -0.819294, 0.000000, -0.003761, 0.442037, -0.161694, 0.177411, -0.067766, 1.143628, 0.287973, 0.513238, -0.029286, 0.472472, 0.150935, 1.729064, -1.327963, 0.866724, 0.422007, 0.494011, -0.614180, -0.660082, -0.742482, 0.155700, -1.282541, 0.343150, 0.190626, 0.199461, -1.798664, 0.272711, -0.001183, -0.556045, -0.458512, -0.792888, -0.300623, -0.000000, -0.849058, 0.661428, -0.030906, 0.161941, -0.292553, 0.152514, 1.040522, 0.001542, 0.224320, 0.010037, 0.118660, -0.683168, -0.491734, -0.241517, 0.036793, -0.157620, 0.554693, -0.449504, 0.334739, 0.498498, 0.240057, 0.144962, 0.660187, 0.013227, 1.114815, 0.485184, -2.110192, -0.066664, -0.047153, -1.506811, -0.516296, -0.000000, 0.340804, 0.780609, 1.093301, -0.041759, 0.415525, -0.651219, 0.855759, 0.662069, 0.210614, 0.141717, 0.938511, 0.451347, 0.083963, 0.542419, 0.169976, 0.123810, 1.181234, -0.029418, 0.666711, -0.051917, -0.633007, -0.013203, -1.045414, -0.673993, -0.314417, 1.013169, 0.056709, 0.304258, 0.356609, 0.408248, 0.485289, 0.000000, -0.105054, 1.323060, 0.539742, -0.539876, -1.346868, -0.145787, -0.333497, 1.179779, -0.920140, 0.767597, 0.205753, -1.597439, 0.228767, -0.148016, -0.338902, -1.086037, -0.595333, -0.592097, 0.888052, 1.039884, 1.306975, 0.145407, 0.457435, 0.252429, 0.053771, 0.840375, 0.041790, -0.754715, 0.573068, -0.695916, -1.311209, -0.000000, -0.192907, 0.290506, -0.341948, 0.199635, -0.200959, 0.167488, 1.063716, 0.554329, -0.898806, 0.231250, -0.022703, 0.523345, -0.127532, 0.535998, -0.282278, 0.626191, -0.404576, 0.203609, -0.504350, -0.538938, 0.046436, 0.804116, -0.171981, -1.025690, 0.229627, -0.106629, 0.299654, -0.349907, -0.265558, 1.056334, 0.208703, -0.000000, -0.487053, 0.357435, 0.064119, 0.100067, -0.564445, -0.084828, -0.572122, 0.278014, -0.001553, -0.996178, 0.008803, 0.365203, -0.136697, 0.384844, 0.623882, -1.227732, -0.274887, 0.305445, 0.981091, 0.617889, 0.022602, -0.008775, -1.080885, 0.809291, -1.516311, 1.720052, 0.576643, 1.318928, 0.632399, -0.149136, 0.194667, 0.000000, -0.127698, 0.570369, 0.614620, -2.169223, 0.722722, 0.542891, -0.789102, 1.249131, 1.212189, -0.123046, -0.551687, -0.880072, 0.428901, -0.428613, -1.064884, 0.543522, 0.494821, -0.275206, -0.167678, 0.367391, -1.042895, -0.108568, 0.284872, 0.498456, 0.455641, -0.322248, 0.079862, -0.129782, -0.556060, 0.217785, -0.379216, 0.000000, -0.271171, -0.154537, 0.301536, 0.066113, -0.187834, 0.611682, -0.422087, 0.347460, -0.267177, -1.572614, 0.077111, -1.117222, 0.515828, -0.068320, 1.335352, -0.069416, 0.500440, -0.986475, 0.803964, 0.299687, 0.067952, 0.215716, -0.615731, -0.899895, 0.596251, 0.515478, 0.731479, -0.332473, -1.053555, -0.133628, 0.055119, 0.000000, 0.192989, -0.199543, -0.760375, 0.361750, 0.110352, 0.567259, -0.184508, 0.639048, -0.420476, -0.606339, 0.551663, -0.039883, -0.125780, 0.001865, -0.536479, -0.331514, -0.145241, 0.101843, 0.312960, 0.096803, -0.403649, -0.282844, -0.250902, 0.781083, -0.579770, -0.435473, -0.280638, 0.438262, 0.244794, -0.678518, -0.111397, -0.000000, 0.053274, 0.612642, -0.668290, -0.033938, 0.028237, 0.120069, -0.260335, -0.519974, -0.197600, 0.285329, -0.258499, 1.039854, -0.268047, 0.587643, 0.044617, 1.024858, 0.312029, -0.324733, -0.986531, -0.757153, -1.269349, 1.026010, -0.031322, -1.799428, 0.489144, 1.125053, -0.416539, -2.098079, -1.790308, 0.161866, 0.388020, -0.000000, -0.462100, -0.127508, 0.398550, 0.386747, -0.082396, -0.754341, 0.582282, 0.445327, -0.114935, 0.228274, -0.255611, -0.320443, 0.318211, -0.197296, -0.249213, 0.190565, 0.096004, 0.759376, -0.207800, 0.028190, -0.020184, 0.196833, 0.426487, -0.058913, -0.119689, 0.145914, 0.534574, 0.468458, 0.209434, 0.022118, 0.877149, 0.000000, 0.215014, -0.142685, -0.306428, 1.379284, -1.475108, -0.446771, 0.387995, 0.207060, -0.078030, 0.354531, -0.245012, 0.550812, -0.308676, -0.296724, -0.017710, 0.545989, -1.534888, 0.572019, 0.374533, 0.627409, -0.090918, 0.185012, 0.100790, -1.354657, 0.091698, 0.695696, 0.052017, 0.699550, 1.242775, 0.196970, 0.365886, -0.000000, 0.258538, -0.850995, 0.573933, 0.267292, -0.126354, -0.005393, 0.647168, 0.442898, 0.845320, -0.071104, -0.677182, 0.150770, 0.772682, 0.217874, 0.012191, 0.609894, -0.309284, 0.461302, -0.211902, 0.202312, 0.524542, 0.628344, -0.422504, -0.549331, -0.496379, 1.040932, 0.228852, 0.751197, 1.008781, 0.802745, -0.059245, -0.000000, 0.077792, -0.330267, -0.083148, -0.574188, -0.345861, -0.381444, -0.112632, 0.689721, 0.102772, 0.709339, -0.424023, -0.550964, 0.538069, -0.120280, 0.157709, -0.196448, 0.360431, 0.098864, 0.066407, 0.099502, 0.603640, 0.542755, -0.051750, -0.823812, -0.305448, -0.299220, 0.421098, -0.057092, -0.179207, -0.287974, -0.412436, 0.000000, -0.388856, 0.291971, 0.036021, -1.340416, -0.493769, -0.143509, 0.476326, -0.327861, -0.199526, -0.114736, -0.274125, -0.162582, 0.071145, -1.059937, 0.722402, -0.311269, -0.430177, -0.214590, 0.482061, 0.240772, -0.447647, 0.156386, -0.055688, 0.886010, -1.392077, -0.622083, -0.372853, 0.652798, 0.081882, 0.027442, 0.435073, 0.000000, -0.134900, 0.193213, -0.422434, 0.260222, -0.417276, -1.538462, -0.206933, 0.021073, -0.443085, 0.382452, -1.002849, 0.118235, -0.609539, -0.114428, 0.158865, -0.227726, -0.733307, -0.422513, -0.370015, 0.193973, -1.075791, 0.280167, 0.864591, 0.182644, 0.387504, -0.864949, -0.338227, -0.014749, -0.603827, 0.057687, -0.934525, -0.000000, -0.304961, 0.890143, -0.778045, 0.568862, 0.509165, 0.307932, -0.562798, -0.440717, 0.615953, 0.922120, -0.369066, 1.512367, -2.656389, 0.848501, -0.149910, 0.413855, 0.885838, -1.486276, -0.808229, -1.090464, -0.906636, 0.032521, -0.386230, 0.834850, -0.046881, -1.180510, 0.224413, 1.267073, 0.685452, -0.545387, 1.432726, 0.000000, 1.387625, -0.068735, -0.555494, -0.755916, -0.249240, -0.655770, -1.036943, -0.217458, -1.085538, -0.969778, -1.112367, 0.584018, -0.799212, -0.549078, -0.923539, -1.604479, 0.881571, 0.218921, 0.400530, 0.360654, 0.245988, -0.418828, 0.425837, -0.047384, 0.134561, 0.734615, -0.301427, 0.269315, 0.110799, -0.739703, -0.746736, -0.000000, -0.253780, 0.251013, 0.330877, 0.550543, -0.498327, 0.133785, 0.550291, 0.125070, 0.573883, 0.108369, -0.066836, 0.299462, 0.298391, 0.706727, -0.481890, 0.283844, 0.239230, 0.480358, 0.100583, -0.078997, 0.238372, -0.411817, 0.118065, 1.489444, -0.426663, -0.520057, 0.520265, 0.212341, 0.501900, 0.668620, -1.039597, 0.000000, 0.096793, 0.898317, -0.344246, 0.161883, 0.011609, -1.159453, 1.917573, -0.253678, 0.095494, -0.707534, -2.044794, 1.169697, -3.747566, 0.126167, 2.185268, 0.245436, -3.295054, -0.298000, -1.766781, -0.789029, -1.617820, 0.317600, 0.012362, -1.275699, 0.056282, -0.064301, 0.460200, -0.659265, -0.759361, 0.503146, 0.687892, -0.000000, 0.037792, -0.433317, 0.591362, 0.650451, -0.115598, 0.459348, -0.070468, 0.189860, 0.693263, 0.572581, 0.007253, 0.250224, 0.414550, -0.165242, 0.349947, -0.032047, -0.115961, -0.237658, 0.105626, -0.104024, 0.012325, -0.028230, 1.071731, -0.252185, 0.302724, 0.533990, 0.060582, -0.190695, 0.428537, -0.385753, -0.500990, 0.000000, -0.370141, 0.286500, -1.255712, 0.432747, -0.713830, 0.227318, -0.492854, -0.001139, -0.836534, 0.950052, -0.789302, 0.649836, -0.195756, 0.227395, -1.042837, -0.011545, 0.243518, 0.862685, -0.513826, 0.319523, -1.001431, 0.120153, -0.510349, 0.645165, -0.593417, -0.117672, 0.379315, 0.391514, 0.100621, -0.110208, -0.010128, 0.000000, -0.198338, -0.035819, 0.039263, 0.052926, -0.244120, -0.523041, -1.268041, -0.134515, 0.218424, -0.515170, -0.831801, -1.243000, 0.807949, 0.123587, -0.439804, 0.043536, 0.042188, -0.103714, 0.671371, 0.217684, -0.443334, -0.218811, -0.787674, 0.766819, -0.404297, -0.025099, -0.005967, -0.111412, 0.529201, -0.592032, 0.238251, 0.000000, 0.037900, -0.581454, -0.662198, 0.564350, 0.014189, 0.159914, 0.111027, -0.711847, 0.273743, -1.281151, -0.753695, 0.024869, -0.012904, -0.186165, 0.421581, 0.231324, -0.454991, -1.083128, 0.093242, -0.817659, 0.016445, 0.273885, 0.000000, 0.000000, -0.000000, -0.005121, 0.015159, 0.026362, -0.180785, 0.442177, 0.199712, 0.000000, 0.085224, -0.000000, 0.000000, 0.000000, 0.192566, -0.042979, 0.175888, 0.028022, 0.043604, -0.000000, -0.238253, -0.000000, 0.130778, 0.000000, -0.130581, -0.000000, -0.000000, -0.035336, 0.116150, 0.087256, 0.068827, -0.055859, 0.276315, -0.710846, 0.742514, 0.978403, 0.045268, -0.743740, -0.991379, 0.215935, 0.903255, 0.000000, 0.322955, 0.314633, 0.899764, 0.422900, 1.633344, 0.331194, 0.385462, 0.013339, 0.407379, -0.888981, 0.156676, -0.050590, -0.107956, 0.476499, 0.153088, 0.139051, 0.514400, 0.195020, 0.596986, 0.154689, -0.473416, -0.002801, 0.699871, -1.401044, -0.281087, -0.634819, 0.327549, 0.712385, 0.404860, 0.435680, 0.883185, -0.000000, 1.038416, -0.542868, 0.089065, 0.491189, 0.075549, 0.347221, 0.298257, -0.294821, -0.087271, -1.029812, 0.199676, 0.304868, -0.071432, 0.440021, -0.905296, 0.396008, 0.039227, 0.027791, -0.459005, -0.000233, 0.518007, 0.093883, 0.110282, 0.373807, 0.177399, 0.496904, 0.254350, 0.837512, -0.196434, -0.500793, 1.162269, -0.000000, -0.203652, -0.250041, 0.301722, 0.104818, 0.001305, 0.176919, -0.040719, -0.025893, -0.717146, 0.231585, 0.569868, -0.900790, 0.226973, -0.451818, -0.262803, -1.097542, 0.267310, 0.520192, 0.542015, 0.114789, 0.151685, -0.229465, 0.401430, -0.515332, -0.010683, 0.497288, -0.303284, -0.455603, 0.554101, 0.038991, 0.410808, 0.000000, 0.090621, -0.514169, 0.645890, -0.017456, 0.099060, -0.178299, 0.013474, 0.369148, 0.053982, 0.626158, -0.900598, -0.778255, -0.201047, 0.127588, 0.106274, 0.034278, -0.019060, -0.424507, 0.029543, 0.314281, -0.139765, -0.000668, -0.987670, -0.428886, -1.077514, 0.384375, 0.339215, 0.510045, 0.148856, 0.083167, -0.253065, -0.000000, -0.004302, 0.226783, -0.209982, -0.273457, -0.516016, -0.734574, 0.071362, 0.828602, -0.351229, 0.299925, 0.775031, -0.858819, 0.208773, -0.443345, 1.140518, -0.571905, 0.789453, -0.471241, -0.645222, -0.165956, -0.224926, -0.112085, -0.105845, 0.145792, 0.750087, -0.073092, 0.286346, 0.008737, 1.186489, 0.691232, 0.654186, 0.000000, 0.202022, -1.263283, 0.283523, -0.385790, 0.481530, 0.122892, 0.906573, 0.646372, 0.046820, 0.392294, -0.415413, 0.449794, -0.393844, -0.652870, -0.288048, 0.581179, -0.072849, 0.467474, 0.000445, 0.082498, -0.556137, 0.387783, 0.394939, 0.736819, 0.014976, -0.337873, 0.418871, 0.275206, 0.420373, -0.138452, 1.078642, 0.000000, 0.140147, -1.939747, -1.661394, 0.277202, -0.151974, 0.209204, -0.770296, 0.407757, 0.160460, 0.291243, -0.124334, -0.280594, -0.115373, -0.648173, 0.422655, -0.301184, -1.626472, -0.540067, 0.526271, 0.596605, 0.160385, -0.074509, 0.039769, -0.273388, -0.548094, 0.558105, -0.071075, -0.804588, -0.126080, -0.756701, -0.620056, 0.000000, -0.575647, -0.453608, 0.100785, -0.310112, 0.443813, -0.451048, 1.085011, -0.049256, -0.330707, -0.484685, -0.404737, -0.568397, 0.380265, -0.251161, -0.018093, -0.685952, -0.247094, 0.272936, 0.116087, 0.462155, -0.038015, -0.738080, -1.021672, -0.834012, -0.523278, 0.452024, 0.113845, -0.466022, -0.621811, -0.930464, 0.194582, 0.000000, -0.323337, 0.059467, 0.148416, -0.777195, -0.142823, 0.160875, -0.627481, 0.193329, 0.299289, -1.359587, -0.190512, -2.059672, 0.260390, -0.166871, -0.669802, 0.597246, 0.556422, -0.137601, 0.234643, -0.516867, 0.476363, -0.349164, 0.000000, -0.000000, -0.000000, 0.000000, 0.000000, 0.000000, 0.000000, 0.000000, -0.000000, -0.000000, -0.000000, -0.000000, 0.000000, 0.000000, -0.000000, -0.000000, -0.000000, 0.000000, -0.000000, -0.000000, 0.000000, 0.000000, 0.000000, -0.000000, -0.000000, -0.000000, 0.000000, -0.000000, -0.000000, -0.000000, 0.000000, 0.000000, 0.079194, 0.132652, -0.031386, 0.235119, -0.476942, 0.907274, -0.414349, 0.148127, 0.401682, 0.000000, 1.055863, -0.777441, -0.417750, 0.101707, 0.165287, 0.721818, 0.188831, 0.033720, -1.228091, 1.773186, -0.181194, -0.322105, 0.125641, -0.905638, 0.223479, 0.497299, -0.088289, -0.067866, 0.288135, 1.035965, 0.651239, -0.329692, -0.881742, -0.014663, 0.019145, -0.308966, -1.138359, -0.349455, -0.561247, 0.165597, -1.285197, -0.000000, -0.154669, -1.074141, 0.047454, -0.482943, -0.399337, -1.793542, -0.037679, -0.013584, 0.065180, 0.094797, 0.858660, -0.331009, -2.001903, -0.837816, -0.021917, -0.236353, 0.210591, 0.222621, 0.342621, 0.198895, 0.083530, -0.196811, 0.622544, 0.004533, 0.532455, 0.232091, 0.374747, 0.572250, 0.121220, -0.359762, -0.006752, 0.000000, 0.427347, -0.084186, 0.098626, 0.028171, 0.083120, 0.975181, 0.022971, 0.237875, 0.255173, -0.019751, 0.038320, 0.247730, 1.092689, 0.215184, -0.143287, 0.492744, -0.947973, 0.102335, 0.347971, 0.186847, -1.147443, -0.482919, 1.722209, 0.445185, 0.684344, -0.008935, -0.061180, -0.027957, -0.325675, -0.581776, -0.253968, 0.000000, 0.317339, 0.219742, 0.135429, 0.855866, 0.695276, -0.069085, -0.179450, -0.322127, -0.442835, -0.132013, 0.141495, -0.034941, 0.189794, 0.091463, -0.387004, -0.000000, 0.474036, 0.090950, -0.230327, -0.198264, -0.390019, -0.000000, -0.539198, 0.489252, -0.299924, -0.172785, -0.319971, 0.563684, 0.406908, 0.886030, -0.137017, 0.000000, 0.112027, 0.828749, 0.141593, -0.219409, 0.355484, -0.475508, 0.406588, -0.163276, -0.408705, -1.997968, -0.623418, 0.549509, 0.404611, 1.096275, 0.278907, 0.069959, -0.713379, 0.243629, -0.684740, -0.296993, 0.151692, -0.238481, -0.746014, 1.173658, -1.592034, -0.802755, 0.784559, 2.049727, 1.102137, 0.830989, 0.668092, -0.000000, 0.088441, -0.481507, 0.096697, -0.993477, -0.538828, -0.374326, -1.376960, 0.008165, -0.937439, -0.790169, -0.034734, -0.254438, 1.352599, -0.037606, -1.274873, -0.161091, 0.244981, 0.636129, 0.438518, 1.053647, 0.001963, -0.214329, -1.137523, -0.487850, -0.122101, 0.474330, -1.911016, -0.404651, 0.333623, 0.406642, 0.465883, -0.000000, 0.158355, -0.611650, -0.000790, -0.253483, 0.352647, 0.018899, 1.229262, 0.340853, 0.446358, 0.130167, -0.653829, 0.055288, 1.692976, -0.419468, 0.372500, -0.447813, -0.007260, 0.153943, 0.355330, 0.294367, 0.346415, 0.123597, 1.088640, 0.473255, 0.650850, -0.510368, -0.219815, 0.191044, 0.728571, 0.712195, 0.178155, 0.000000, 0.256833, -0.224148, -0.066398, 0.472356, -0.174757, -0.375939, -0.348318, -0.844728, 0.075689, -0.077467, -0.014391, 0.733065, 1.739047, -0.685481, 0.002155, 0.000001, -1.750920, 0.273017, 1.242444, 0.774454, 0.499959, -0.071107, 0.771809, 1.046330, 0.410046, 0.786070, 0.091896, 0.275482, 0.653717, -0.376635, -1.421500, 0.000000, -0.948121, 0.533061, 0.164461, 0.526406, 0.733494, -0.130391, 1.049785, 0.335712, -0.281952, 0.395037, -0.521420, 0.757577, -1.468448, 0.733989, 0.160649, 0.823683, -1.738370, 0.201111, -0.923220, -1.168875, -0.018508, 0.521577, 0.121279, 0.165533, 0.285856, 0.052540, -2.956628, -0.015361, 0.505262, -0.469535, 0.095660, 0.000000, 0.042014, -0.124945, 0.439440, 0.280260, -0.193599, -0.149435, 0.466194, 0.358313, -0.412382, 0.297465, 0.429901, -1.242560, 0.621275, -0.492724, -0.429508, -2.865751, -0.024717, -0.022625, 0.459796, 0.517919, 1.010193, -1.826855, 0.250368, -0.429637, -0.662990, 0.114942, 0.524351, -0.133986, -1.051811, 0.807292, 0.198385, 0.000000, 0.200495, -1.235198, 0.073267, -0.030246, 0.237817, -0.136343, -0.513885, 0.456733, 0.002740, 0.423065, -0.003471, 0.052469, 0.432368, -0.100105, -0.272031, -0.560275, -0.218240, 0.610626, 0.660687, 0.902916, 0.522038, -0.169691, -0.818897, -1.669541, -0.344474, -0.385223, 0.372725, 0.139099, -1.115992, 0.179480, 0.337547, -0.000000, 0.744679, -0.894037, -0.366428, -0.396732, 1.565315, 0.608116, 0.627386, -0.488131, 0.019159, 0.012138, 0.715370, 0.293471, 0.601611, -0.440305, -0.716222, -0.494449, -0.779133, -0.375271, -0.950978, -0.338424, 0.639265, 0.084055, 0.554530, -0.121425, 0.538752, -0.015798, -0.047292, 0.521292, 0.347914, 0.841713, 0.611499, 0.000000, -0.048579, 0.134012, 0.098748, -0.360233, 0.472141, 0.178292, -0.355739, 0.620499, 0.759774, 0.419255, -0.333526, -0.101410, 0.005414, -0.354628, 0.366672, 0.000000, -0.050719, -0.186208, 0.508542, 0.458067, -0.065600, 0.000000, -0.540798, -0.692277, -0.242207, -0.748399, -0.003641, -0.892186, -0.110242, -1.072898, -0.603270, 0.000000, -0.132778, -0.010336, 0.779100, -1.995439, -0.418629, 0.003632, 0.202292, 0.889323, 0.364425, -0.299642, 0.771574, -0.441753, 0.031369, -0.044246, 0.210568, 0.076862, 0.306984, 0.531984, -0.453816, -0.257776, 0.303302, -0.024386, -0.642113, -1.100680, 0.217580, 0.096879, -0.154549, -0.250554, -0.165302, -0.526698, -0.709718, 0.000000, -0.154731, -0.410878, -0.445619, -0.632006, -0.131066, 0.264624, -0.770063, -0.397802, 0.041558, -1.019631, -0.028154, -2.436980, 0.487613, 0.033394, 0.469483, -0.272492, 0.198040, -0.090869, -0.061434, -0.017592, 0.823724, -0.388366, -0.350875, 0.705932, 0.841078, -1.509015, -0.317275, 0.068614, 0.275829, 0.249002, 0.283132, 0.000000, 0.449681, -0.354419, 0.012726, 0.308339, 0.363578, 0.549496, 0.390935, -0.264538, 0.969819, -0.014690, 0.292687, 1.818805, -1.139463, 0.294675, 0.611457, 0.326235, -0.182982, -0.745237, -0.351566, -1.033141, -0.217068, -0.003671, 0.248343, -0.314057, -2.809437, 0.363869, 0.487723, 1.074014, -0.475374, -1.393460, 0.823799, 0.000000, -0.255772, -1.187772, 0.265121, 0.283054, -1.776489, 0.601469, 0.716456, 0.530666, 0.273114, 1.081187, -0.422471, -0.336225, 0.374047, -0.686118, -0.302348, 0.107377, -1.549355, 0.449593, 0.125810, -0.187431, -1.002360, 0.111800, -1.230991, -1.928203, -0.019664, -0.411256, 0.262564, -0.228755, -1.156850, 0.559004, -0.140393, 0.000000, -0.162632, 0.061446, -0.929620, -0.982593, 0.178434, -0.132458, -0.298811, -1.225717, 0.277691, 0.194198, -0.037277, -0.501186, 0.322315, 0.034409, 0.076171, -0.561839, 0.019321, -0.746116, 0.421133, 0.122213, -0.043972, -0.126916, 1.249442, 0.260338, -0.350498, 0.465785, -0.293752, 0.252152, 0.703895, -0.164057, 0.219333, 0.000000, 0.471104, 0.114856, -0.224940, 0.508836, 0.372182, -0.180748, -0.321419, -0.458008, -1.279922, 0.124674, 0.086593, 0.039380, 0.317295, -0.384181, -0.811932, -0.185111, 0.044361, 1.095467, -0.238172, 0.228665, 0.386376, -0.014746, 0.287768, -0.006549, 0.382242, -0.893529, 0.325633, 0.286275, 0.467057, 0.418397, -0.774820, 0.000000, 0.324885, -1.422392, -0.521543, -0.119274, 0.448121, -0.383939, 0.019737, 0.787329, 0.435611, 0.709908, -1.789029, 0.219758, 0.416711, 0.176198, 1.032957, -1.375880, -0.737188, -0.174112, -0.273337, 0.597453, 0.390086, -0.310773, -1.380951, 0.793014, -1.001151, -0.498655, 0.661253, 0.289798, 1.265058, 0.722253, 0.082033, -0.000000, 0.262637, 0.340599, -0.253591, -1.483968, -0.067651, -0.378280, 0.011839, -0.536095, -0.801953, -1.350713, -0.047344, 0.527376, -0.099175, 0.347469, 0.336774, 0.387467, -0.179926, 0.051224, -0.169775, -0.098805, 0.122199, 0.189932, -1.279370, 1.499947, 1.408223, -0.147437, 0.438690, 0.371998, 0.677938, 0.473259, -0.605285, 0.000000, 0.085425, 1.355968, -1.256209, -0.364917, 1.143037, -0.841561, 1.961074, -0.686930, 0.528473, -0.195403, -3.416918, 1.854167, -3.455813, 0.424183, 3.094255, 0.248215, -2.432663, 0.556456, -1.617941, -0.685186, -1.103279, 0.279265, -2.877681, -1.142570, -1.518248, -0.214446, -0.625269, -1.456754, -0.035322, 0.410207, -0.190791, 0.000000, -0.173004, 0.326999, 0.375810, -1.055041, -0.905754, 0.504674, -1.502932, 0.227118, 0.138363, -1.720389, -0.640024, -1.376451, 0.179740, -0.335020, 0.856639, -0.681396, -0.343409, 1.081555, 0.810742, 0.474424, -0.214973, -0.800058
};

// Shape: (32,)
static const float B1[32] ALIGN16 = {
    0.139723, 0.048162, -0.006375, -0.081461, 0.696689, -0.224292, -0.168524, 0.770016, 0.159186, -0.117382, 0.583019, 0.025616, 0.675632, 0.176865, 0.663305, 0.838850, -1.291612, 0.685784, 0.197172, -0.933343, 0.726716, -0.909637, 0.924658, -0.323743, -0.951686, -0.160454, 0.989703, -0.502159, 0.526295, 0.471388, 0.616280, -0.523063
};

// Shape: (32, 4)
static const float W2[128] ALIGN16 = {
    0.900469, 0.316106, 0.560906, -1.400570, 1.096828, 0.424000, -1.941975, -0.769579, -2.492336, 1.093915, 1.531892, -0.814585, -2.921576, 0.318926, -1.077499, 0.238244, -0.424898, 0.684217, -3.917310, -0.369542, -0.018036, 0.655278, -1.266562, 0.274409, 0.953345, 0.059795, -1.625600, 0.069960, -1.143573, 0.142675, -2.716764, 0.025147, -0.028426, -1.063202, -1.226371, 0.410006, 0.000000, -0.000000, 0.000000, 0.000000, -2.074976, 0.119247, -0.403961, 0.081841, -0.878480, 0.481718, 0.403713, -0.932537, -2.960878, 0.571922, 1.240170, -0.509797, 1.378029, -0.471578, 0.199962, -1.575874, -2.387560, 0.891394, -0.190535, -0.337838, -1.439758, -0.309904, 0.254901, 0.493106, 0.136881, -2.739496, 0.354258, -0.016202, -2.273724, 0.533333, 0.263709, 0.436114, -2.175091, -0.017983, 0.778063, 0.314423, 0.623193, -2.850118, 0.494146, 0.679336, 0.982316, -4.734280, 1.264772, -0.363452, -0.540004, -3.351741, -0.539344, 2.045723, -0.492788, -4.198224, 0.105038, 0.643617, -0.455120, -0.137806, 0.252358, -0.509414, 0.560877, -2.737506, -0.034251, 0.285506, -1.735206, 0.260125, 3.194320, -1.621664, -0.801810, -5.302732, 1.389275, 0.685588, 0.271186, -0.038278, -1.679031, 0.310583, -0.064654, -1.094812, 0.285052, 0.195449, 0.265621, -0.301963, -0.585569, 0.126108, 0.554331, -0.319888, -1.444653, 0.603082, -1.492298, -0.418475, 2.337537, -0.430012
};

// Shape: (4,)
static const float B2[4] ALIGN16 = {
    -1.655558, -0.075527, -0.633548, 0.797025
};

// Weight & bias pointers per layer
static const float *WEIGHTS[NUM_LAYERS] = { W0, W1, W2 };
static const float *BIASES[NUM_LAYERS]  = { B0, B1, B2 };

#undef ALIGN16
