// Auto-generated MLP weights + pointers for C inference
// Generated from scikit-learn MLPClassifier

#pragma once

#define ALIGN16 __attribute__((aligned(16)))

#define NUM_LAYERS 3

#define NUM_CLASSES 4

static const int LAYER_SIZES[NUM_LAYERS+1] = { 16, 64, 32, 4 };

#define OUTPUT_SIZE 4

// Convenience macros for selecting code paths at compile time
#if OUTPUT_SIZE == 1
    #define IS_BINARY_CLASSIFICATION 1
    #define IS_MULTICLASS_CLASSIFICATION 0
#else
    #define IS_BINARY_CLASSIFICATION 0
    #define IS_MULTICLASS_CLASSIFICATION 1
#endif

// Shape: (16, 64)
static const float W0[1024] ALIGN16 = {
    -1.256699, 0.338735, 1.052651, -0.023315, 0.036581, -1.626813, -1.388535, 0.993860, 0.007024, 0.760627, -1.100464, 0.639739, 1.290158, 0.354486, -0.607604, -1.375298, -0.147767, 0.064132, 0.237766, -0.123675, 0.080050, -1.320948, -1.337465, 0.600410, -0.384577, -0.259156, -0.103213, -0.746460, 1.525338, -0.167050, 1.361477, -0.527274, 0.342000, 0.930969, 0.519920, 0.437319, -0.186804, 1.051438, 0.734707, 0.314513, -0.979069, 0.545899, 0.220827, 0.974405, 0.027841, 0.387784, 0.881951, -0.042146, -0.431848, -0.698862, 1.458194, -0.560582, 1.099025, 0.830831, 0.839436, 0.432207, -1.003930, -1.929022, 0.586803, 0.239168, -0.631012, 0.615166, 0.963571, 0.226502, 0.055642, -0.150332, -0.111200, 0.140558, -0.314839, 0.153335, -0.063558, -0.149330, -0.342365, 0.002521, 0.282078, 0.415844, 0.235827, -0.891654, -0.271708, 0.007120, 0.288504, 0.008419, -0.778805, -0.618556, 0.153902, -0.062061, 0.367561, -0.041712, 0.251288, -0.152596, -0.502337, 0.243052, 0.104870, -0.170772, 0.059620, -0.067631, -0.160722, -0.066946, -0.370694, -0.383692, -0.511834, 0.092146, 0.119838, -0.226877, 0.232511, -0.023391, -0.630113, 0.323084, -0.269426, -0.272413, -0.059565, -0.324296, 0.319666, 0.127412, -0.027377, 0.415970, 0.079395, -0.101272, 0.501590, -0.159146, -0.053056, 0.179595, -0.406544, -0.528193, 0.103933, 0.159649, 0.383412, 0.453762, -0.249362, 0.032021, -0.027206, -0.374854, -0.648998, 0.316290, 0.543026, -0.168665, -0.543811, 0.121610, 0.070983, 0.092043, 0.046935, 0.072909, 0.318168, -0.134995, 0.024991, 0.019724, 0.074414, -0.058786, -1.107397, 0.352716, 0.491293, 0.009993, 0.056466, -0.027085, 0.518561, -0.613293, -0.232947, 0.128994, 0.017576, 0.282334, -0.109575, 0.320394, 0.200635, 0.274883, -0.420677, -0.301886, -0.136148, -0.236679, -0.502181, -0.077721, 0.057817, -0.063414, 0.102052, -0.079866, 0.795027, -0.333281, -0.091344, -0.058252, 0.193064, -0.183909, 0.104459, -0.417848, 0.239108, 0.091128, -0.345241, 0.353873, 0.175609, -0.089015, -0.156891, -0.707703, -0.600137, 0.657326, 0.436939, -0.894861, 0.192486, 0.214563, 0.386265, 0.373529, 0.370277, 0.355843, 0.033044, -0.562477, -0.113925, 0.326796, 0.181671, -0.148984, -0.252499, 0.209546, -0.306229, -0.007672, -0.088093, 0.191168, 0.609257, -0.526354, 0.276202, -0.402064, -0.055376, 0.257330, 0.145496, 0.355710, 0.300966, 0.186559, -0.353149, -0.411890, 0.147274, -0.279208, 0.481482, 0.076652, 0.283741, 0.060405, 0.392118, -0.086005, 0.223856, -0.097228, -0.034863, 0.373262, -0.200289, -0.201301, 0.033958, -0.306079, 0.203400, 0.227523, 0.207713, 0.035336, -0.463629, 0.334484, 0.171983, 0.393011, 0.315718, 0.205381, -0.080724, 0.286407, 0.210159, 0.497060, 0.321428, 0.346423, 0.521488, 0.715539, 0.033838, -0.496063, 0.544952, 0.361172, -0.230959, -0.075793, 0.671771, 0.766583, 0.119654, 0.225500, -0.113808, 0.199514, 0.633298, 0.460956, 0.332301, 0.257905, 0.101448, 0.158634, 0.305609, 0.495519, 0.106643, 0.440864, 0.208720, -0.274163, 0.145909, -0.536417, -0.339764, -0.885931, 0.055550, 0.271850, -0.035218, 0.192435, -1.085256, -0.339068, 0.531355, -0.047262, -0.458208, -0.105624, 0.039420, -0.306085, 0.433864, -0.536373, -0.145048, 0.195475, 0.100459, -0.075885, 0.214276, 0.271313, 0.095806, 0.171771, 0.258392, 0.084269, -0.181032, -0.925418, -0.486084, 0.412607, 0.279181, 0.248371, 0.004832, 0.051768, -0.166059, -0.068015, -0.637281, 0.927028, 0.085002, 0.080294, 0.524076, 0.098018, 0.476683, 0.052631, -0.337154, -0.120883, -0.092285, 1.126414, -0.192429, -0.501061, 0.716200, -0.673306, 0.825076, 0.800042, -0.339856, -0.827311, -0.487400, 1.270837, -0.639458, 0.981388, 0.154388, 0.141765, 0.901079, -0.702728, -0.187520, 0.608170, 1.030258, 2.314038, 0.913372, -0.064222, -0.624402, 0.287037, -0.319367, 1.323915, 0.717351, 0.086420, 0.154290, -0.308332, -0.627200, 0.396518, 0.800581, 0.044079, 0.094969, 0.123460, -1.830680, -0.147732, -0.685873, -0.349819, 0.973429, -0.771164, -0.293678, -0.380080, 0.615324, -0.994661, 0.556797, -0.334506, -0.869727, -0.204004, -0.615974, 1.507292, 0.179466, 0.349912, 0.092476, -0.272993, -0.038631, 0.105178, 0.642653, -0.298079, 0.053891, 0.332332, -0.018601, 0.147156, 0.202641, 0.038869, 0.205795, 0.097890, -0.435837, 0.193109, 0.198663, 0.313813, -0.576162, 0.260901, 0.207041, -0.260108, 0.350859, -0.742305, -0.800397, 0.112292, 0.010192, 0.057775, -0.010840, 0.069630, -0.118306, -0.243327, -0.326640, 0.479641, -0.100610, -0.055877, -0.649270, -0.087579, -0.201428, 0.373462, -0.275694, 0.296102, -0.102387, -0.457453, -0.595144, 0.316277, -0.008965, -0.668117, 0.046494, -0.290708, -0.170832, 0.435317, 0.124358, -0.461306, -0.351074, 0.417273, 0.148987, -0.150803, -0.010760, 0.330157, 0.242267, 0.136496, -0.075158, -0.139461, 0.089606, 0.132966, 0.083142, 0.467696, -0.263566, 0.177849, -0.298856, 0.095488, -0.171210, 0.402299, -0.380918, 0.172747, -0.074910, 0.129090, -0.043629, -0.397700, 0.179857, 0.307507, -0.346514, 0.260577, -0.346137, -0.054655, -0.107042, 0.198737, 0.053277, 0.502649, 0.051852, 0.376045, 0.113842, 0.196749, 0.015614, 0.293550, 0.277312, 0.082207, 0.190206, 0.031583, -0.016790, -0.152089, 0.026049, 0.478324, 0.235308, 0.279275, 0.157203, -0.144973, -0.055236, -0.047690, 0.114307, -0.293781, 0.000100, 0.205726, -0.149824, 0.169304, -0.996964, 0.295647, 0.207501, 0.101069, 0.200158, 0.266870, 0.375752, -0.028440, 0.066889, -0.490700, 0.346329, 0.307710, -0.063089, -0.342763, -0.215565, 0.045452, 0.613057, -0.461861, 0.231721, 0.113172, 0.287619, 0.118827, 0.167161, 0.027911, 0.037812, -0.141146, -0.419686, 0.167280, 0.348510, 0.379391, -0.189217, 0.094405, 0.369115, 0.199805, 0.335458, -0.630411, -0.597908, -0.292330, 0.018173, 0.081859, -0.281485, 0.166179, -0.003037, -0.155198, -0.543482, 0.405062, -0.211411, -0.040348, -0.427001, 0.141853, 0.049951, 0.407745, -0.065697, 0.206897, -0.091964, -0.516895, -0.056107, 0.192380, 0.068751, -0.574320, 0.106228, -0.600034, -0.062476, 0.288517, 0.023058, -0.193910, 0.038846, 0.041355, 0.223675, 0.068300, -0.194934, 0.107868, 0.160715, 0.221302, 0.052141, 0.675393, 0.276783, -0.521568, -0.835760, 0.120885, 0.188864, -0.015282, 0.212879, -0.548070, -0.701688, -0.649221, -0.186998, 0.053323, -0.525128, 0.459819, -0.862904, -0.905770, 0.310229, 0.832505, 0.618519, -0.159252, -0.242271, -0.558261, -0.429517, -0.485874, -0.308630, 0.065296, -0.432329, -0.262452, -0.246251, -0.259009, -0.663524, 0.335631, -0.216458, 0.994401, 0.265109, -0.546888, 0.677229, 1.213424, -0.655225, 0.281968, 0.236535, 0.681406, 0.346846, -0.551128, 0.493036, 1.578249, 0.688971, -0.542740, 0.088596, 0.090786, -0.718372, 0.199885, -0.082688, 0.465717, -0.355911, 0.168747, -1.121544, 0.069847, 0.764442, 0.161209, 0.293968, -0.244546, 0.188515, 0.312553, 0.056434, -0.498523, -0.608847, 0.084643, -0.201799, 0.070088, 0.180052, 0.052132, -0.118248, -0.528905, 0.075148, 0.444200, -0.232282, -0.021862, -0.151911, -0.000737, 0.452329, 0.207280, 0.227618, 0.009300, 0.273813, -0.093316, 0.160733, -0.076993, -0.325733, -0.055550, -0.365629, -0.366938, -0.169324, -0.059434, -0.758149, 0.273214, -0.333719, 0.575326, -0.438718, -0.321114, 0.734267, 0.546784, 0.212787, 0.030229, 0.166817, 0.714372, 2.181669, 0.326630, 0.544628, -0.247426, 0.815106, 0.018985, 0.109154, 0.241038, -0.281117, 0.162976, -0.300122, -0.023148, -0.415649, 0.333472, -0.360240, 0.027969, 0.374068, 0.076257, 0.208545, -0.439146, -0.261595, 0.413894, -0.047850, 0.536832, -0.061620, 0.132967, 0.487477, 0.152191, 0.026400, -0.133033, -0.299826, 0.282606, 0.103829, 0.654774, -0.185979, 0.157428, 0.098263, -0.273072, -0.052093, 0.194067, 0.447543, 0.394126, -0.397495, 0.070163, -0.225378, -0.247278, 0.005781, 0.265990, -0.051559, 0.202798, -0.003360, 0.498616, 0.051606, -0.035056, 0.042793, 0.135588, 0.224873, 0.104988, 0.252908, 0.326682, -0.060943, 0.173761, 0.077302, -0.152504, 0.512820, 0.009779, -0.415828, 0.695881, 0.026457, -0.271109, -0.345108, 0.175079, -0.082618, -0.177883, -0.000892, 0.316209, 0.282964, -0.155841, -0.268803, 0.213791, -0.294537, 0.190189, 0.058853, 0.072933, -0.505061, 0.426262, -0.201172, 0.618198, -0.006941, -0.069226, 0.456400, -0.195430, -0.662446, -0.081215, 0.037936, 0.058141, -0.013576, -0.043180, -0.135252, -0.215615, 0.058842, 0.223342, -0.000006, -0.313996, 0.648493, 0.107056, -0.363621, 0.172735, -0.079313, 0.199691, -0.140168, 0.501577, 0.411367, 0.043233, 0.362236, 0.190717, 0.636506, -0.507096, -0.191882, 0.016653, -0.066576, 0.483969, 0.596674, 0.317800, 0.196598, -0.574060, 0.261907, 0.189907, -0.126449, 0.652956, -0.532753, 0.018512, 0.114855, 0.049139, -0.609924, -0.101152, 0.455514, -0.588974, 0.086921, -0.343087, 0.524410, 0.082371, -0.220050, -0.302109, 0.086281, 0.167917, -0.364976, -0.179734, -0.329227, -0.168434, 0.080599, 0.181312, 0.096033, -0.122601, 0.437044, 0.195000, -0.391315, -0.091448, -0.394838, 0.126082, -0.350444, 0.080578, -0.447841, 0.288704, -0.210338, -0.072711, -0.167729, 0.205681, 0.112078, 0.187037, -0.208925, -0.292543, -0.333342, -0.203124, -0.229158, -0.237695, 0.095461, 0.409478, 0.130729, -0.171788, 0.082262, -0.313906, -0.368966, -0.210649, 0.035826, 0.360044, 0.178311, -0.042111, 0.110382, -0.267746, -0.078388, -0.117294, 0.175241, 0.102204, -0.784185, 0.238555, -0.122634, -0.212698, -0.418168, -0.314494, 0.050201, -0.431326, -0.012587, -0.239329, 0.242751, -0.125180, 0.000833, -0.019776, 0.321910, 0.362460, 0.182459, -0.210026, 0.155795, 0.250525, -0.325566, 0.222370, -0.050310, -0.227218, 0.015880, 0.003166, 0.128475, 0.127188, -0.094263, 0.220826, -0.949767, -0.198649, 0.351840, -0.007602, -0.074161, -1.018448, -0.248793, 0.108462, 0.009431, 0.418799, -0.068508, -1.022779, -0.372670, 0.035665, 0.661637, 0.436219, -0.242389, -0.439173, -0.775118, 0.048080, 0.052147, -1.062707, 0.638856, 0.322207, 0.515251, 0.060598, -0.104095, -0.064870, -0.219209, 0.123628, -0.393709, 0.168284, -0.136188, -0.392299, 0.059099, 1.108665, -0.979815, -0.557442, -0.246937, 0.341830, -0.634154, 0.046952, 0.256471, 0.357516, 0.083192, -0.064520, -0.438123, -0.000267, 0.393761, -1.249208, -0.745301, 0.338295, -0.128294, 0.537957, -0.130328, 0.044027, 0.023078, 0.027367, 0.092709, -0.007252, -0.100078, 0.002705, 0.194410, 0.137478, 0.092117, 0.184527, 0.121253, -0.188742, 0.306463, 0.104657, 0.324697, -0.064083, -0.180159, 0.539522, -0.307040, -0.025270, 0.444641, 0.201683, 0.593286, -0.169149, -0.359110, 0.229906, 0.241496, 0.617853, 0.039589, -0.007285, -0.030754, 0.033030, 0.293929, -0.203184, 0.704137, 0.232693, 0.111881, -0.203184, 0.387548, 0.497585, 1.855542, 0.465846, 0.242739, 0.083781, -0.389083, 0.164345, -0.228050, 0.502100, 0.182590, -0.438528, -0.040200, 0.238180, 0.026264, 0.129856, 0.215263, -0.045838, -0.019768, -0.203226, -0.029607, 0.234944
};

// Shape: (64,)
static const float B0[64] ALIGN16 = {
    -0.496308, 0.037877, 0.327501, 0.049006, -0.125778, -0.034611, -0.218768, 0.384362, -0.711615, -0.252996, -0.729165, 0.371405, 0.425002, 0.294675, -0.432666, -0.484491, -0.130536, -0.016700, 0.250096, 0.298473, 0.089995, -0.063674, -0.571396, -0.061278, -0.264917, -0.690660, -0.044709, -0.260991, 0.566908, 0.429656, 0.610059, -0.037840, 0.425686, 0.308893, -0.092145, 0.270353, 0.134203, 0.454420, 0.383702, -0.001245, -0.488324, 0.386371, -0.095581, -0.533554, -0.337190, -0.045145, -0.130420, 0.056797, -0.468352, -0.703891, 0.548002, -0.536755, 0.433858, 0.079369, 0.227858, 0.322449, -0.047791, -0.689328, 0.211840, -0.085718, -0.180610, 0.206029, 0.216596, 0.103433
};

// Shape: (64, 32)
static const float W1[2048] ALIGN16 = {
    0.550650, 0.044589, 0.415293, 0.645373, 0.505532, -0.243658, -0.445930, -0.729701, 0.084351, -0.126605, -0.144752, -0.039683, -0.340171, 0.415969, 0.113228, 0.700643, 0.792422, 0.225812, -0.126825, 0.460826, -0.024065, 0.156600, 0.297864, -0.028785, -0.434658, -0.371584, 0.294869, 0.307512, 0.365571, -0.127436, 0.411249, -0.947990, -0.231085, 0.845676, -0.949989, -0.249231, 0.108527, -0.070137, -0.423260, 0.192360, 0.501580, -0.931744, 0.567309, -0.049613, -0.375094, -0.247187, 0.055187, -0.540254, -0.860894, -0.501735, 0.146489, -0.334001, 0.067570, -0.136969, 0.257930, -0.162005, -0.436428, -0.014730, -0.575509, 0.366849, -0.170935, 0.165082, -0.407704, 0.104938, -0.204562, 0.072268, 0.370846, 0.446744, -0.021216, 0.421095, 0.269535, -0.176090, -0.009707, -0.083246, 0.002959, 0.336364, 0.041523, 0.027062, 0.289219, 0.163691, -0.247704, 0.065762, 0.097713, 0.405081, 0.033014, -0.410748, -0.123897, -0.089821, 0.186987, 0.024347, 0.074760, 0.057857, 0.066131, 0.239356, -0.046870, -0.259514, -0.102031, -0.181574, 0.289612, 0.079843, -0.113560, -0.001918, -0.299478, -0.080603, -0.341543, -0.001516, -0.257616, 0.190566, 0.698942, 0.085252, -0.028583, -0.037579, 0.353550, -0.546067, -0.575706, -0.211555, -0.000040, -0.113774, 0.168175, 0.008469, 0.180218, 0.486528, 0.087721, -0.315514, 0.303380, 0.221183, -0.059690, -0.222235, 0.074764, 0.019215, 0.687673, 0.380428, 0.646304, -0.139289, 0.266726, 0.119508, -0.567080, 0.289380, -0.095758, 0.255078, 0.667529, 0.160615, 0.402134, 0.191304, 0.187213, 0.057655, -0.218192, -0.669260, -0.007608, -0.112329, 0.002053, 0.100439, 0.271405, -1.347721, 0.646325, 0.363331, 0.653543, 0.192703, -0.237786, -0.860115, 0.778993, 0.424422, 0.222451, -0.149815, -0.136691, -0.186864, -0.213057, -0.030707, -0.263156, 0.250372, -0.281623, 0.217641, -0.155998, 0.760588, -0.025552, -0.087945, -0.059174, -0.183482, -0.102612, 0.416826, -0.029151, 0.125266, -0.125040, 0.432009, 0.231151, -0.633646, 0.065154, -0.310706, -0.536435, 0.036059, -0.768072, -0.229029, 0.216308, 0.806829, -0.007127, -0.407828, -0.188742, -0.370477, -0.713784, -0.895791, -0.240131, -0.218799, -0.120283, 0.194487, -0.373763, 0.335833, 0.654467, -0.495280, -0.027575, 0.000344, -0.018901, -0.053591, -0.103608, 0.321587, -0.614424, 0.670828, -0.524207, -0.212244, -0.409848, 0.045204, -0.656958, -0.570791, -0.833240, 0.071532, -0.163333, -0.094040, 0.449165, 0.215784, 0.340482, 0.106584, 0.311913, -0.514863, -0.371598, -1.275598, 0.126028, 0.085528, 0.577878, 0.087249, 0.052807, -0.065669, -0.064518, 0.011732, 0.042926, -0.040240, -0.015172, 0.043788, 0.133162, -0.021830, -0.133444, 0.583501, -0.430510, -0.254252, 0.447124, 0.198017, 0.166964, -0.196065, 0.615124, -0.203779, 0.261660, 0.035941, -0.271069, -1.161698, 0.057050, 0.003680, -0.533148, -0.349722, -0.893462, 0.285035, -0.123237, -0.017128, -0.083304, 0.050927, 0.826806, -0.412629, 0.207675, 1.784543, -0.012977, -0.404787, 0.135844, 0.627130, -0.089673, 0.198640, 0.713219, -1.244151, 0.171886, 0.770694, -0.460482, 0.601571, 0.022876, -0.822643, 0.098422, 0.383759, -0.600067, -0.493274, 0.095355, 0.200917, 0.009356, 0.840859, -0.356635, -0.464355, 0.417601, -0.401419, -0.421869, 0.258704, 0.946283, -0.247440, 0.082000, 0.190339, 0.049754, -0.029124, 0.561496, -0.081712, 0.196161, -1.194965, 0.622713, 0.425593, 0.088051, 0.228520, 0.542366, -0.058525, 0.748244, 0.391378, 0.017405, 0.110716, -0.004298, -0.660947, -0.280807, -0.048563, -0.508757, 0.203457, -0.529002, 0.420042, -0.283521, 0.250344, -0.274164, 0.216773, 0.876849, 0.203221, 0.269766, 0.624159, -0.003167, 0.641152, -0.583932, 0.358719, -0.341319, 0.129674, 0.221815, -0.939242, 0.023941, -0.443829, 0.014091, -0.432482, -0.219012, -0.761036, 0.359165, 0.086060, -0.642101, 0.143159, 0.263596, 0.114496, 0.292408, 0.817538, 0.384383, 0.156466, 0.252898, -0.464167, 0.033628, 0.584714, -0.398149, 0.637053, -0.193282, -0.304072, -0.022670, 0.058017, 0.000519, -0.035344, 0.425761, 0.248072, 0.256082, -0.131712, -0.013379, 0.311816, -0.198260, -0.410864, 0.299292, 0.321575, -1.147702, -0.764146, -0.005459, 0.664168, 0.545491, 0.539098, 0.495283, -0.280096, 0.109916, -0.289580, -0.138573, 0.213483, -0.315473, -0.281162, -0.088564, -0.162688, -0.285736, 0.134532, -0.008246, -0.326714, 0.127248, -0.079811, 0.239393, -0.750455, -0.524934, 0.253437, -0.748725, 0.096871, 0.209560, 0.457479, -0.933968, -0.088698, -0.161246, 0.338723, -0.964666, 0.524003, 0.188739, 0.198107, 0.669435, -1.037691, 0.222758, -0.221032, 0.126162, -0.709849, -0.072235, 0.304812, -0.435368, 0.310143, 0.427195, -0.600939, 0.018890, -0.064151, 0.150277, -0.029810, 0.131713, 0.256820, -0.023468, 0.013230, 0.072315, -0.011456, 0.149234, 0.308155, 0.474042, 0.046981, 0.086671, 0.240050, -0.302138, -0.628026, -0.285913, 0.116333, 0.380735, 0.629534, -0.313135, 0.065608, -0.776394, 0.251359, 0.039055, 0.303995, 0.691961, 0.253466, 0.472029, -0.070998, 0.001314, -0.886055, 0.081585, 0.403085, 0.212509, 0.021810, 0.443797, 0.073550, 0.047132, -0.222911, 0.259989, 0.062743, 0.374164, 0.104620, 0.066725, 0.094377, 0.803695, -0.282902, -1.145345, -0.668786, -0.508416, -0.409579, -0.324482, -0.287677, -0.293333, 0.134457, -0.372114, -0.014135, 0.506837, -0.372795, -0.036428, 0.416874, -0.006177, 0.247420, 0.085966, 0.276499, -0.317265, -0.422093, 0.345463, 0.488941, 0.171452, -0.558396, 0.165475, 0.265840, 0.223987, 0.060232, 0.278703, 0.259525, -0.552264, 0.157618, -0.301275, 0.215274, -0.247494, 0.183306, 0.332541, 0.253231, -0.029881, 0.304817, 0.129844, 0.380211, 0.359336, 0.406400, 0.295770, -0.018410, -0.003540, 0.254802, -0.323854, 0.380397, -0.031087, 0.000798, -0.043721, -0.205319, -0.148950, -0.098165, 0.148664, -0.426112, 0.455087, 0.487623, -0.045838, -0.348168, 0.171658, 0.145918, 0.390392, 0.336031, 0.287891, 0.288785, 0.194034, 0.144512, -0.383475, 0.388796, -0.227174, 0.139075, 0.278824, 0.195193, -0.257931, -0.270056, -0.039419, 0.009345, -0.750334, 0.182376, -0.113958, -0.268860, 0.188057, -0.051646, 0.164252, 0.003662, 0.407567, 0.111640, -0.335697, 0.272260, -0.590604, 0.333211, -1.447996, 0.870156, 0.146983, 0.220074, 0.473367, -1.028894, 0.817093, -0.161259, -0.186114, -0.453314, -0.171899, 0.185187, -0.230345, 0.177107, 0.574629, -0.625905, 0.006917, -0.151815, 0.470985, 0.058671, 0.279594, 0.258696, -0.099939, 0.053107, -0.010266, -0.458259, 0.000494, 0.260416, -0.036165, 0.390812, -0.242375, -0.014261, -0.162634, 0.683212, -0.603852, -0.236303, 0.199513, -0.269676, 0.374960, -1.019892, -0.222624, 0.304500, -0.067318, -0.404163, -0.847370, 0.169814, -0.135111, 0.160354, -0.001882, -0.086967, 0.674011, -0.186539, -0.079949, -0.455486, -0.515529, -0.246753, -0.256830, -0.624124, 0.369836, 0.508414, 0.580746, -0.165326, 0.095585, 0.357605, 0.904898, -0.309713, -0.375762, 0.192065, -0.345525, 0.176504, -0.290715, 0.153703, 1.104946, 0.288523, -0.007383, 0.151097, -0.904276, -0.049615, -0.315397, 0.150984, -0.000128, -0.798754, -0.056386, -0.163542, -0.485387, -0.173635, -0.017649, 0.601746, 0.896257, -0.360512, 0.028469, 0.424682, 0.391091, 0.160563, -0.330680, -0.079378, -0.372912, -0.513739, -0.495053, 0.370525, -0.206489, 0.255373, -0.214701, -0.089256, 0.296574, 0.382790, -0.121299, -0.225652, 0.614476, -0.862046, -0.028994, 0.309938, -0.033097, 0.145852, -0.186395, 0.172156, -0.032270, 0.107886, 0.564135, 0.028662, -0.566612, -0.189426, -0.938033, 0.009397, 0.545735, 0.360300, -0.305932, -0.349710, 0.473981, -0.664186, -1.043660, -0.799872, 0.000061, 0.189298, -0.593613, 0.088865, -0.228298, 0.517880, -0.321432, 0.017887, 0.512410, -0.358212, -0.898537, 1.152740, -0.007184, 0.262677, -0.492246, 0.550377, -0.947388, -0.321524, 0.323036, -0.471495, -0.692962, -0.853696, -0.032024, -0.144278, -0.364904, 0.080093, -0.355552, 0.154838, 0.176372, 0.028658, 0.342887, 0.379685, -0.126321, 0.528216, 0.228438, 0.187123, -0.582654, -0.467996, 0.333675, -0.131933, 0.050675, 0.058201, -0.041403, -0.649465, -0.007739, -0.488971, -0.317865, -0.315148, 0.444339, -0.044310, 0.141836, 0.338911, -0.074066, 0.239329, 0.586017, 0.006356, 0.476579, 0.092188, 0.076096, 0.260991, 0.256389, 0.241009, -0.017866, -0.085187, 0.452744, 0.669499, -0.120605, -0.105341, -0.199511, 0.246329, 0.112719, 0.200009, 0.276944, 0.374518, -0.382868, 0.117808, 0.004259, 0.188176, -0.265971, 0.012779, -0.034411, -0.431256, 0.231653, 0.283279, 0.031710, -0.144167, 0.002639, 0.079598, 0.187420, 0.559913, -0.081054, -0.323549, 0.159840, -0.565302, 0.011759, -0.301770, 0.134998, -0.761742, -0.315795, 0.315189, 0.658454, 0.139157, 0.055150, -0.366126, 0.029337, -0.603141, 0.096959, 0.116935, -0.005593, 0.307285, -0.308023, 0.456405, 0.124837, 0.043465, -0.012920, -0.439839, 0.845256, -0.678407, -0.089993, -0.127465, -0.088998, -0.314926, 0.477599, 0.149062, -1.416867, -0.840840, 0.539760, -0.904674, 0.197007, 0.021078, -0.220463, 0.274366, 0.215548, -0.039362, -0.112222, 0.194476, -0.278659, 0.230107, 0.616179, -1.061815, 0.025005, -0.200491, -0.024222, 0.316294, -0.179567, 0.108612, 0.434415, -0.944146, 0.930087, -0.043448, -0.015465, -0.345642, 0.228417, -0.330780, 0.321245, 0.215191, 0.505330, -0.342195, -0.623860, -0.433572, -0.377807, -0.385154, -0.068770, -0.716195, 0.323884, 0.022038, -0.736581, -0.036961, -0.074639, -0.507981, -0.393317, 0.551011, -0.004840, -0.097499, 0.188942, 0.323839, 0.293430, 1.047300, 0.160764, 0.377023, 0.606395, 0.115303, -0.325694, 0.035928, -0.422737, -0.333533, 0.379205, 0.097249, -0.055133, 0.563255, 0.664661, -0.516074, 0.062776, 0.096742, 0.385372, 0.120691, 0.949754, -0.381695, -0.100870, 0.204786, -0.346467, 0.163301, -0.533784, -0.377938, -0.114192, -0.003790, 0.064476, -0.072274, -0.441546, 0.258164, -0.309529, -0.219379, 0.591798, 0.021767, -0.005620, -0.184275, -0.135297, 0.219282, -0.195864, 0.257404, 0.226007, 0.188044, -0.262745, -0.552369, -0.001144, -0.045914, 0.068926, 0.181309, -0.153403, 0.022806, 0.138941, -0.136614, 0.170753, 0.401829, -0.105694, -1.329623, -0.054956, -0.702250, -0.058124, -0.128818, 0.373863, 0.208705, 0.714608, -0.329762, -1.502223, 0.162759, -0.162272, -0.009111, -0.617998, -0.094867, 0.092815, 0.005495, -0.118104, 0.520430, 0.677520, 0.361261, -0.042306, 0.110716, 0.367218, 0.327771, -0.080523, -0.430175, 0.511532, -0.055163, -1.529978, 0.373983, -0.148516, -0.496854, -0.017867, -0.334569, 0.003137, -0.176401, -0.187261, 0.144327, -0.210399, 0.136802, -0.384566, 0.306654, 0.200366, 0.182704, 0.543068, -1.672484, 0.053547, 0.161020, -0.504727, -0.466658, 0.207227, 0.474533, -0.125623, 0.505154, -0.163741, 0.202251, 0.258319, -0.117296, -0.632909, 0.552176, 0.725435, -0.834400, 0.703940, -0.616028, 0.041585, -0.475015, -0.642718, 0.183383, 0.002884, 0.056827, 1.221188, -0.009262, 0.176705, 0.774219, -1.188432, -0.858289, -0.001251, -0.056242, 0.352887, -0.303787, -0.112512, 0.155223, 0.426693, 0.242372, -0.020562, -0.060377, 0.405884, 0.214213, 0.682210, 0.152864, 0.016596, -0.202490, 0.105427, -0.032860, -0.366294, -1.182522, -0.044546, -0.299992, -0.305421, 0.233617, -0.141633, 0.136711, 0.208896, 0.059831, 0.436061, 0.167393, 0.008818, 0.031132, -0.749013, 0.661847, -0.202413, -0.121412, -0.174344, 0.926266, -0.031952, 0.046776, 0.540385, -0.289642, 0.412286, -0.285343, -0.876857, -0.204092, 0.055500, -0.020986, -0.538100, 0.344155, 0.480802, 0.514027, 0.027685, 0.540289, 0.273765, -0.717430, 0.231133, 0.246357, -0.189221, 0.359467, -0.645298, 0.670862, 0.444545, -0.463267, -0.349536, -0.507391, 0.776782, 0.973719, -0.895100, -0.378186, -0.457494, 0.344267, 0.210965, 0.136285, 0.126276, 0.420529, 0.585569, -0.259504, 0.207840, 0.409893, 0.425065, 0.357201, -0.193669, -2.512108, -0.025497, -1.619539, 0.211133, 0.164615, 0.179371, 0.306731, 0.380884, -0.166501, 0.287330, 0.408379, 0.181092, -0.081342, -1.681874, -1.463050, -0.149523, 0.227163, 0.000354, 0.129950, 1.149263, -0.630155, 0.265968, -0.123742, 0.228377, -1.476418, 0.084269, -1.089583, -1.042746, -0.109195, -1.038615, -0.672436, -0.045840, 0.259521, -0.043117, 0.137366, 0.122412, -1.712403, 0.181291, -0.279992, 0.065146, -0.171777, -0.067687, -0.175025, 0.146122, 0.094721, 0.294147, -0.717406, 0.250149, 0.495634, 0.439223, -0.463671, -0.261047, 0.191764, -0.382796, -0.079958, -0.438468, -0.000042, 0.244609, -0.007282, -0.153273, 0.152130, 0.106266, -0.167426, -0.078684, -0.292145, -0.027107, -0.050125, 0.339077, 0.067823, 0.157365, 0.318231, 0.149987, 0.461027, -0.072184, -0.095459, -0.005803, 0.043630, -0.369341, -0.183005, 0.295569, -0.153188, -0.267782, 0.122702, 0.447484, -0.369413, -0.106284, 0.319182, 0.245554, -0.169303, 0.030537, -0.332132, 0.231566, -0.020737, -1.078655, 0.208816, -0.165924, -0.409905, 0.025183, 0.007658, -0.206713, -0.323318, -0.083240, 0.229588, -0.287195, -0.198944, 0.370837, 0.124508, -0.375886, -0.270408, -0.305758, -0.188968, -0.952891, -0.407180, 0.697919, -0.147191, 0.756203, -0.206021, 0.004322, -0.766425, 0.390268, -0.934923, -0.776846, -0.555600, -0.446505, -0.523823, -0.025035, -0.701135, 0.124277, 0.243565, -0.007583, -0.171440, 0.340881, -0.748928, 0.820685, 0.217856, -0.986344, 0.523335, -0.416779, 0.173534, 0.154485, -0.148331, -0.210072, 0.027346, -0.069957, -0.067673, 0.004193, -0.166654, 0.301761, -0.530821, 0.117529, -0.030880, 0.105163, -0.020837, 0.206537, -0.006694, -0.001587, 0.644706, -0.153851, 1.177089, 0.181705, 0.009692, -0.000133, -0.170154, -0.011831, 0.040570, -0.456004, -0.144698, 0.027864, -0.221549, -0.056035, -0.053076, -0.272965, 0.366911, 0.344052, 0.332558, 0.266645, 0.372622, 0.535680, 0.002686, -0.010578, -0.132652, -0.490801, 0.182718, -0.087742, 0.324588, 0.185382, 0.540137, 0.146610, 0.116911, 0.176513, 0.108955, 0.094214, 0.270107, -0.001476, 0.225615, -0.599468, 0.016193, 0.093859, -0.519711, 0.342527, -0.009063, 0.304121, -0.522803, -0.208845, -0.611283, -0.614287, -0.646079, 0.199017, 0.235947, -0.710932, 0.268584, -0.077316, -0.390482, 0.701519, -0.317018, 0.306650, -0.969703, 0.065838, -0.639166, -0.220730, 0.155464, -0.750775, 0.072129, -0.077463, 0.000840, -0.041448, -0.124081, 0.198013, -0.233446, -0.015657, 0.681283, 0.116225, 0.622601, -0.472884, 0.451949, 0.047671, 0.346607, 0.113733, 0.063911, -0.367114, -0.318651, 0.319495, 0.253781, 0.037073, -0.176073, 0.304432, -0.584098, 0.049046, -0.028765, -0.640210, -0.154965, -0.390863, -0.399020, -0.323187, -0.245046, 0.086926, 0.490101, 0.012916, 0.195374, 0.154638, -0.227806, 0.110711, 0.335309, 0.034321, 0.082828, 0.208167, 0.229712, 0.285350, 0.484451, -0.511290, -0.767514, -0.563187, -0.434161, 0.186203, 0.560607, -0.186444, -0.284918, 0.082496, -0.123560, 0.798301, -0.591493, -0.705644, -0.914427, -0.498943, 0.145369, -0.131580, 0.634946, 0.436606, 0.084810, 0.004491, 0.230544, 0.173009, -0.840635, 0.128519, -0.196275, -0.968808, 0.208520, -0.207545, 0.588262, -0.037396, -0.130258, -0.000000, -0.005428, 0.002644, 0.973899, -0.000000, 1.134516, -1.192198, -0.138800, 0.243372, -0.557233, 1.100647, 0.124303, 0.294565, -0.000000, 0.013361, 1.466908, -0.000000, 1.379565, 1.797550, -0.011713, 0.000000, -0.131227, 0.242461, -0.000000, -0.967280, -0.081899, -0.206082, -0.108927, 0.308562, 0.054180, 0.214875, -0.283534, -0.562239, 0.252715, -0.151206, 0.584018, -0.790459, 0.573189, 0.199013, 0.194528, 0.403929, -1.306798, 0.943888, 0.104479, 0.014759, -0.478572, 0.154222, 0.339657, -0.292218, 0.080896, 0.589646, -0.488547, 0.018177, -0.489205, -0.082809, -0.221322, 0.319267, 0.283233, -0.153768, 0.256925, 0.216090, -0.495194, 0.087685, -0.131865, -0.490953, 0.096220, -1.350282, -0.186561, -2.168778, 0.355654, 0.338770, 0.018045, 0.654360, -0.009168, 0.248154, -0.036521, -0.303225, -1.379912, -1.314615, 0.025297, -0.408680, 0.026625, 0.667523, 0.090082, 0.132603, -0.037669, 0.330440, -0.436282, 0.325248, 0.314086, -0.401155, 0.202500, -1.659838, 0.411189, 0.759083, -0.000000, -0.537568, -4.154890, -3.791969, 0.305354, -0.591314, -0.062227, 0.655649, -6.509632, 0.078336, -0.188468, 0.150226, -8.833168, 0.105287, -0.085326, -5.536531, 0.278078, 0.728763, -2.367239, 0.255119, 0.208453, -0.061132, 0.190747, 0.045843, -8.179110, 0.067902, -9.543594, 0.636402, -0.169968, 0.194774, 0.467913, 0.346593, 0.326105, -0.005231, 0.915125, -0.699346, 0.009097, 0.699119, -0.210905, -0.814144, -0.936741, -0.247385, -0.105024, -0.301945, -0.314778, -0.091431, 0.291280, 0.234799, 0.223826, -0.131513, -0.034512, -0.318804, 1.176472, -0.001207, 0.435164, 0.685412, -0.091133, 0.044246, -0.180343, -0.963041, 0.481511, 0.201965, -0.504991, 0.353396, -0.371293, 0.279202, 0.599279, 0.072417, -0.030812, 0.287223, 0.145987, -0.854756, -0.146472, 0.013443, -0.505144, -0.282762, 0.377314, -0.142546, 0.350506, 0.360599, -0.052016, 0.533348, -0.007578, 0.114375, 0.212663, -0.026656, 0.262490, -0.639176, 0.356555, -0.507582, 0.031214, -0.443911, -0.412249, 0.126610, -0.845681, -0.087670, -0.557598, -0.363725, 0.015800, 0.374893, 0.364132, -0.328631, 0.271896, 0.482645, -0.325817, 0.440728, -0.150628, 0.305735, 0.256575, 0.217897, 0.132699, -0.342647, 0.088311, 0.131853, 0.347076, -0.062715, 0.261839, -0.057253, 0.005956, 0.400547, -0.222348, -0.067334, -0.406048, -0.364624, -0.047779, -0.070383, 0.703624, 0.355527, -0.411798, 0.216626, 0.343769, 0.429502, 0.193603, -0.204625, -0.232454, -0.696712, -0.496969, -0.280052, -0.222596, -0.048568, 0.076497, 0.068129, 0.371322, 0.528838, 0.335654, 0.078435, 0.009223, 0.361885, 0.430872, -0.000007, 0.500989, -0.096384, -0.070027, 0.498141, 0.197545, -0.286041, -0.109208, 0.444040, -0.082033, -0.505273, -0.002220, -0.790630, -0.271110, 0.253361, -0.128580, -0.455853, 0.512069, 0.576326, 0.177882, -0.119313, 0.256180, 0.359735, 0.291186, -0.327532, -0.289181, 0.282278, -0.000159, -0.740913, 0.359966, -0.055726, -1.061411, -0.023838, -0.219542, -0.266771, -0.407340, -0.196466, -0.210932, -0.215230, -0.072082, -0.083523, 0.470014, 0.740206, 0.034175, 0.109032, -0.380027, 0.535010, 0.462567, 0.480059, 0.480917, 0.422330, 0.202848, 0.468577, -0.545691, 0.407136, -0.222007, 0.245001, -0.209937, 0.247102, 0.383793, 0.701171, 0.551462, -0.081851, 0.382164, 0.039428, -0.046265, 0.306952, -0.030500, -0.070838, 0.426443, -0.188316, 0.744697, 0.601248, 0.319427, 0.417046, -0.042474, -0.245990, -0.960365, -0.917882, -0.393636, -0.981341, -0.143392, -0.005571, 0.500832, 0.163823, 0.560718, 0.134125, -0.117728, 0.088477, -0.939101, -0.328513, 0.250800, -0.123066, 0.029299, -0.128970, -0.281094, -0.080708, -0.954015, 0.427405, -0.073210, 0.119149, -0.616501, 0.040714, 0.777142, -0.873796, 0.185038, 0.500009, -0.528683, -0.335047, -0.650702, 0.337589, 0.738176, -0.831162, 0.123048, -0.189714, 0.338584, 0.231933, -0.225737, -0.209701, -0.220463, 0.244199, -0.402638, 0.184605, 0.326170, 0.171401, 0.195191, 0.009546, -1.523202, -0.033637, -0.795136, 0.487564, 0.138918, 0.289821, 0.201037, 0.279974, 0.180512, -0.307596, 0.000850, 0.432327, 0.153568, 0.409317, 0.084623, -0.079526, -0.599226, 0.050998, 0.123084, -0.426126, -0.116482, -0.111847, -0.088532, -0.135690, 0.091526, 0.195777, 0.555551, -0.211452, -0.190556, 0.288531, -0.467483, -0.474180, -0.374590, -0.000886, -0.416172, -0.163524, 0.343621, 0.282933, 0.035124, 0.499190, -0.321680, 0.038755, -0.013908, -0.345026, -0.344083, 0.895236, 0.830799, -0.249151, 0.142619, 0.339735, -0.356140, -1.157445, -0.527092, -0.267743, 0.381918, -0.385406, 0.049472, -0.430807, 0.759734, 0.169533, 0.340244, 0.505177, 0.032065, -0.080624, 0.913362, -0.005529, 0.474802, -0.273126, 0.179368, -0.355353, -0.925755, 0.345687, -0.219318, -0.249905, -0.668823, -0.444190, -0.709359, -0.212377, -0.151424, 0.379030, 0.139021, -0.487708, 0.377478, 0.678762, 0.186848, 0.174536, 0.273999, 0.385066, 0.218941, 0.010933, -0.128277, -0.096024, 0.246364, 0.082631, 0.215939, 0.111573, -0.507945, 0.035962, -0.422973, 0.100381, -0.053223, 0.467049, -1.586188, 0.551630, -0.085136, -0.083349, 0.382823, 0.016252, 0.246341, 0.219884, -0.155309, 0.030287, 0.283159, 0.394380, -0.246590, -0.097075, 0.125941, 0.060439, -0.227339, -0.386182, 0.001120, -0.046780, 0.013891, -0.346486, 0.034881, 0.015608, -0.130695, 0.025319, 0.109614, -0.006288, -0.136052, -0.029265, 0.327122, 0.127557, 0.085319, -0.072515, 0.460444, 0.082686, -0.121278, 0.283894, 0.094946, -0.086212, -0.330553, 0.125871, -0.058281, 0.334105, -0.314433, -0.707104, -0.376057, -0.169030, -0.323231, -0.272218, -0.098969, -0.104961, -0.233691, -0.099757, -0.115863, -0.614529, 0.058794, 0.098631, 0.309203, -0.003812, 0.083285, -0.195606, -0.010529, 0.216934, -0.328135, -0.510230, 0.298615, 0.163625, -0.048201, -0.509872, 0.124353, -0.352502, 0.655258, -0.429809, -0.259766, 0.558227, 0.507627, 0.252872, -0.294884, 0.293117, -0.027346, 0.127271, -0.167824, 0.105641, -0.178567, 0.168145, 0.137147, -2.759382, 0.018383, -0.441188, 0.032827, -0.012651, -0.139124, 0.165159, 0.025111, -0.025003, 0.040371, -0.852815, 0.354323, 0.197456, -0.253159, 0.227827, -0.326178, -0.319581, 0.189369, -0.217204, 0.053836, 0.531792, 0.397838, 0.150845, -0.375416, 0.422681, 0.226902, 0.134420, -0.660962, 0.504205, -0.060066, -0.062427, -0.061525, -1.256628, -0.018823, -0.259817, 0.371633, -0.004315, 0.286396, 0.200670, -0.152260, 0.364618, 0.131066, -0.988143, 0.209466, 0.222916, 0.084465, 0.403519, -0.405450, 0.025613, -0.974379, -0.238203, -0.542886, -1.907629, 0.079170, 0.297429, -0.201157, 0.301222, 0.392816, 0.084145, 0.441951, -0.061562, -0.628677, -1.268583, -0.150479, 0.028720, -0.126245, 0.068434, -0.540878, -0.061234, -0.260082, 0.317242, -0.071954, 0.661843, 0.288625, 0.204106, 0.268470, -0.445435, 0.145750, -0.189436, -0.525969
};

// Shape: (32,)
static const float B1[32] ALIGN16 = {
    0.138186, 0.133816, 0.215679, 0.019737, -0.030024, 0.552731, 0.284924, 0.068480, 0.239776, -0.121739, 0.548464, 0.152359, 0.453123, 0.068084, 0.078407, 0.089904, 0.096817, 0.188168, -0.031376, -0.237175, -0.228014, -0.408032, 0.391351, -0.107824, -0.050273, -0.144597, 0.067339, 0.187210, 0.083501, 0.124492, 0.470117, 0.117311
};

// Shape: (32, 4)
static const float W2[128] ALIGN16 = {
    0.467678, -0.233712, 0.807690, -1.278156, 0.602742, 0.564461, -1.529038, -0.811693, -0.992656, 0.548534, 0.655833, -0.044153, -1.193459, -0.136634, -0.038268, -0.080918, 1.127632, -0.682388, -2.276092, 0.374067, 0.155944, 0.681513, -1.405435, 0.859472, 1.044462, -3.972309, 0.772864, -0.043370, 0.509605, 1.150446, -2.281585, -0.385051, 0.480193, 0.077677, -1.020049, 0.369554, -2.389670, 0.161572, 0.770711, 0.089945, -0.056481, 0.180585, -0.824345, 0.397601, -1.525442, 0.903039, 0.037803, -1.040303, -0.891307, -0.941793, 0.678519, 0.305610, 0.420201, -0.230968, -0.052019, -1.167663, -1.129715, 1.056932, -0.225217, -0.530904, -0.785787, 0.014258, 0.075683, 0.057021, -0.896708, -2.085042, 1.013239, -0.094992, -1.007311, 0.559270, 0.135852, 0.183313, -0.825567, -0.075941, -1.137859, 0.411949, 1.083824, -3.199217, -0.574791, 0.956520, -0.247896, -0.050031, -0.058183, -0.093418, 0.112979, -0.433696, -1.480361, 0.152869, 0.430330, -0.557839, -0.500726, 0.373903, -0.489427, 0.718386, 0.139296, -1.255061, 0.550539, -0.478937, -0.416262, 0.041421, -0.754688, 1.625758, -3.487702, -1.608846, 0.043912, -0.976315, 0.867372, 0.151720, 0.405081, 0.274416, -0.976589, 0.405796, -0.736129, -0.813392, 0.797259, 0.592161, 0.339912, -1.956518, 0.091867, 0.352384, 0.623580, -0.085693, -1.865076, 0.693725, -0.045010, 0.271831, 0.624497, -0.509097
};

// Shape: (4,)
static const float B2[4] ALIGN16 = {
    -0.326832, -0.330630, -0.134514, 0.416473
};

// Weight & bias pointers per layer
static const float *WEIGHTS[NUM_LAYERS] = { W0, W1, W2 };
static const float *BIASES[NUM_LAYERS]  = { B0, B1, B2 };

#undef ALIGN16
