// Auto-generated MLP weights + pointers for C inference
// Generated from scikit-learn MLPClassifier

#pragma once

#define ALIGN16 __attribute__((aligned(16)))

#define NUM_LAYERS 3

static const int LAYER_SIZES[NUM_LAYERS+1] = { 16, 64, 32, 4 };

// Shape: (16, 64)
static const float W0[1024] ALIGN16 = {
    -0.263796, 1.957099, -0.150317, 0.390377, -0.871405, -0.863861, -0.089996, 3.701043, -0.165998, 0.120764, -0.662848, 0.191209, 0.610872, 0.514965, -0.806834, -0.558950, 0.739170, -0.905287, -0.143232, 0.281745, 0.701047, -0.404721, -0.077907, -0.008967, 0.258265, -0.031378, -2.491456, 0.092525, 1.468625, -1.434585, 1.128939, -0.918329, 0.233033, 1.288208, 1.961105, 0.007798, -0.226517, -4.190909, -0.097440, 0.024960, 0.042514, -0.053095, -2.001912, 1.085949, -1.491299, 0.388579, -3.954885, -0.280871, 1.290445, 0.583053, 0.962950, 0.171128, 1.522966, 0.028289, 0.767219, 1.133795, 0.521787, -0.041930, -3.707155, 0.831555, -2.114212, 0.000000, 1.235789, -0.222762, -0.199386, 0.253597, 0.098493, -0.428846, -0.011773, 0.429622, 1.176365, -0.397038, -0.462784, -0.487904, 0.803613, -0.105482, 0.422892, -0.546639, -0.809671, 0.140112, 0.365126, 0.142750, -0.235800, -1.211763, 0.375464, 0.147384, 0.287672, 0.192750, 0.064944, -0.144732, 0.034139, 0.047599, -0.231673, 0.062318, 0.370508, -0.022768, -0.401671, 0.074549, -0.031552, -1.813895, -0.333116, -0.018162, 0.389693, 0.696679, -0.104223, -0.366474, 0.031845, 0.273312, -0.084183, -0.318486, -0.319204, -0.763520, 0.170677, 0.315833, 0.300221, 0.368185, 0.514989, -2.194346, 0.199929, 0.633554, 0.062410, 1.068054, -0.145784, -1.548579, -0.382164, -0.000000, 0.233802, 0.522150, 0.272257, 0.071084, 0.292398, 0.728278, -0.441153, 0.198823, 0.656078, 0.524328, 0.516496, 0.942586, -0.735430, 0.602567, 1.440454, -0.149166, -0.408021, -0.393890, -0.063680, 0.849225, 0.739721, 0.361618, -0.009075, 0.426491, 0.188756, -0.344966, -0.600523, 0.028025, 0.676940, -0.094965, 0.017819, 0.432908, 0.974487, 0.838250, 0.449718, 0.118890, 0.307224, -0.451791, -0.642695, 0.796530, -0.049693, 0.258586, -1.254969, 0.062751, 0.278904, -0.121595, 0.755719, 0.790564, 0.766946, -0.799955, 0.011169, -0.220529, -0.104264, -0.096915, -0.271218, 0.421530, 0.545819, 0.997358, 1.019041, -0.237318, 0.596339, 0.084569, -0.193108, -0.000000, -1.174358, 1.346696, 0.650184, -1.068918, -0.676204, -0.197341, -0.241331, 1.486004, -0.184145, -0.300028, 0.377054, -0.472540, -1.347893, 0.323735, -1.619098, -0.053757, -0.354343, 0.570459, -1.001997, -3.672969, -0.150395, -0.364764, 0.581545, -0.889343, 0.016052, -0.334325, 0.206545, -0.301681, 1.649730, 0.390363, 0.604898, 0.851428, -1.490324, 1.821493, -0.095749, -0.278366, 0.619510, -0.237019, 0.327261, -0.072212, -0.036434, 0.704449, 0.164858, 0.754658, -1.446263, -0.574435, -1.162662, -0.302099, -0.665578, -0.389485, -2.304745, 0.165281, 0.057876, -1.440537, 0.201910, -0.162447, -1.646004, 2.466982, 0.561833, -0.439932, -1.563654, -0.880860, -0.469900, -0.000000, -1.815742, -0.142532, 0.312476, -0.105756, -0.017260, -1.105021, 0.221190, 0.202461, -0.236569, 0.085135, -0.250003, 0.492965, -0.006103, -0.147562, 0.024289, 0.238973, 0.968646, 0.132473, -0.029760, 0.091244, -0.463003, 0.458868, -0.027148, 0.211646, 0.182902, 0.033515, 0.820932, -0.422812, -0.052079, -0.620568, 0.201131, -0.352810, -0.085877, -0.453664, -1.292545, -0.189551, -0.039103, -0.124880, 0.147053, -0.145913, -0.227346, 0.069038, -0.006437, -0.677314, -0.000910, -0.337671, -0.649751, 0.265248, 0.082764, -0.063818, 0.130897, 0.383521, 0.125960, -0.337641, 0.249679, -0.113698, -0.100708, -0.028364, -1.328838, 0.414485, 0.129892, 0.216378, -0.322166, -0.000000, -0.233290, -0.205886, -0.223991, 0.138746, 0.179328, -0.021711, 0.225787, 0.162916, 0.377190, 0.447750, -1.030139, 0.393113, -0.763731, 0.313229, -1.124928, -0.926849, -0.134424, 0.156464, 0.567200, 0.609039, -0.782323, -1.005314, -0.868344, -0.095149, 0.042697, -0.044221, -0.204256, 0.054833, 0.315755, 0.376943, 0.084172, 0.179893, -0.214748, 0.836538, -0.043197, -0.182140, -0.696215, 0.068659, -1.104103, -0.056042, 0.163406, 0.501419, 0.033022, -0.645115, 0.220106, 0.527249, 0.185174, -0.027928, 0.255838, 0.616000, 0.026279, -0.214983, -0.597278, -0.087590, -1.106696, -0.287481, -0.538235, -0.077261, -0.192935, -0.769370, 0.467082, -0.035069, -0.310902, 0.000000, -0.012320, 0.579972, 0.322022, 0.034354, -0.236729, -1.671738, 0.310047, 0.186790, 0.154958, 0.076448, -0.834812, 0.433553, -0.154488, 0.216589, 0.044948, 0.217501, 0.830788, -0.248489, -0.484002, 0.086424, -0.487746, 0.503249, -0.211827, 0.322376, -0.044540, -0.405624, 0.843774, -0.518965, 0.009172, 0.195976, 0.368224, -0.022688, 0.035893, -0.517753, -1.960074, -0.454938, 0.425621, 0.298725, 0.310569, 0.187642, -0.630224, 0.107489, -0.140234, -0.587327, -0.117565, 0.178013, -0.401625, -0.912737, -0.012085, 0.021522, 0.079466, -0.233825, -0.242385, -0.099957, -0.375251, 0.030504, 0.020830, 0.141267, -0.956162, 0.501200, -0.059158, -0.043709, -0.070204, 0.000000, 0.298723, 0.181593, 0.245025, 0.073826, 0.469321, 0.615948, -0.252360, 0.060489, 0.089363, 0.219955, -0.412555, -0.308725, -0.405546, 0.134341, -0.708915, -0.283776, 0.034003, 0.604483, 0.660565, 0.150267, -0.323011, -0.161400, 0.067295, 0.087811, -0.147939, 0.559754, -0.118155, 0.624508, -0.384561, 0.270887, -0.584092, 0.229785, 0.575022, -0.296763, 0.705791, 0.496679, 0.180995, 0.343944, -0.050235, 0.614804, -0.202421, 0.158479, 0.584418, 0.143049, 0.110036, 0.121139, 0.211178, -0.283161, 0.321126, 0.038155, -0.046212, -0.115126, 0.255457, 0.952225, -0.234573, 0.566265, -0.010413, -0.352711, 0.650778, -0.342185, 0.384581, 0.921907, 0.942327, 0.000000, 0.483100, -0.922733, -0.289303, 0.019656, -0.078963, -0.724240, 0.299565, 0.684907, -0.159731, -0.170547, 0.768411, 0.352235, 1.122402, -0.437943, 1.252470, 0.013598, -0.063769, 0.188702, -1.657121, 0.284243, 1.147690, 1.711067, 1.426268, 0.159486, 0.213583, 0.486634, 0.401147, 1.336905, 0.275320, -0.305150, 0.498974, 0.342605, -0.204597, 0.308107, -0.551181, 0.291550, 0.011517, 0.964408, 0.418830, 0.210305, -0.343104, 0.766726, 0.311837, 0.661814, -0.150333, -0.106083, -0.214166, 0.318978, 0.593809, 0.442715, -0.379187, 0.028831, 0.028032, -0.943078, 0.032259, 0.351714, -0.124983, -0.275611, 0.059495, -0.151149, -0.250404, -0.777684, -0.505873, -0.000000, -0.218429, 1.178261, -0.003915, 0.357508, 0.178360, -0.059481, 0.228585, 0.261053, -0.008699, -0.094949, 1.288223, -1.092267, 1.176433, -0.253796, 0.175894, 0.063324, 0.009546, 1.024703, 0.066431, 0.090144, 0.846809, 0.404032, 0.166053, -1.938727, -0.190735, -0.369065, 0.216554, -0.368901, -0.135073, -0.791019, 0.113102, -0.335602, -1.170163, -0.433951, 0.267334, 0.065014, -0.553883, 1.174755, 1.274843, -0.131163, 0.066765, -0.747490, 0.324545, 0.155981, 0.331256, 0.675607, -0.035920, -0.309881, 0.223364, -0.232947, 0.277915, -0.027363, 0.066337, -0.213085, -0.936578, 0.046413, 0.957523, -0.098710, 0.020835, 0.157883, -0.009487, -0.086441, 0.368179, 0.000000, 0.534526, -0.591786, -0.200368, -0.274851, -0.705022, 0.207644, -0.052474, -0.199843, 1.177523, 0.389513, 0.080339, 0.179076, 0.058839, -0.474203, 0.151833, 0.524370, -0.719825, 0.490795, -0.252763, -0.429257, 0.494859, -0.507301, 0.348649, 1.155051, -0.208906, -0.758514, -0.346615, -0.323703, -0.043052, 0.298952, 0.017232, 0.001373, -0.292872, 0.648647, 0.695474, -0.276360, 0.407633, 0.929312, 0.025060, 0.687160, 0.355224, 0.638441, -0.027411, 0.386910, -0.380863, -0.135018, 0.976044, -0.218606, 0.575349, 0.334544, 0.069612, -0.429744, -0.072132, 0.400938, 1.996536, 0.082275, -0.508126, -0.004170, 0.047079, 0.348841, 0.083515, -0.200861, 1.002968, 0.000000, -0.649958, -0.131785, 0.336087, -0.187515, 0.181621, 0.362388, 0.340923, 0.786788, 0.285104, -0.316061, 0.512030, 0.042310, -0.646546, 0.129791, 0.570043, 1.969713, 0.428467, 0.995935, 0.179258, -0.631236, 0.132481, 0.279501, 0.870747, -0.125781, 0.519089, 0.535418, 0.286481, -0.103288, 0.729548, 0.863187, 0.541415, 0.927532, -0.090412, 0.879796, 0.465590, 0.348118, 0.605223, -0.001021, 0.740490, 0.244388, 0.906319, 0.176570, -0.230978, 0.827598, 0.031499, -0.720025, -0.030216, 1.942063, 0.134445, -0.246728, -0.352276, 0.452933, 0.451811, -0.415647, 1.490873, 0.241405, -0.264529, 0.176534, 0.275784, 0.089586, 0.118355, 0.185953, 0.137893, 0.000000, -0.316657, 0.258625, 0.126885, 0.038315, -2.509697, 0.564647, -1.673077, 0.325034, 0.796875, -0.311154, 0.141480, 1.185949, -1.267969, 0.421805, 0.575595, 1.342505, 0.250658, 0.913565, 0.026983, 0.620867, -0.385153, -0.312779, -0.618242, 1.390540, -2.772008, -2.316317, 0.294135, 0.452526, -0.185719, 1.720237, 0.389541, -1.369533, -0.308611, 1.535201, -0.059640, -3.122648, 0.146831, 1.463198, -0.058058, 1.152280, 1.788117, 1.415788, 0.459388, -0.009303, -0.200652, 1.455880, -0.625778, 0.557658, 1.059018, 2.592396, 0.213596, -2.859774, -2.140549, 0.150597, 1.549284, -1.661940, 0.005847, -0.546682, -1.295603, 1.047414, 0.807610, 0.395818, -0.680787, -0.000000, -0.582492, 1.072555, 0.074045, -0.353581, 0.473680, 0.010554, 0.609137, 0.890662, 0.438967, 0.118320, 0.392873, 0.777495, -0.616766, 0.876688, 0.601333, 2.348547, 0.716298, 1.855537, 0.692113, 1.460364, -0.055567, 0.146707, -0.054185, 0.350426, 0.282840, 0.337181, 0.186273, 0.219962, 0.563190, 1.414405, 0.815966, -0.086401, 0.477205, 0.432065, 0.054089, 0.058581, -0.088681, 0.045030, 0.187013, 0.378558, 1.343858, 0.528006, 0.214107, -0.140306, 1.043869, 0.297723, 0.203727, 3.894008, 0.115101, -0.153646, 0.099213, 0.569186, 0.041696, -0.538427, 0.307554, -0.210622, 0.040898, -0.765107, 0.271193, 0.050502, 0.798632, 0.466642, -0.243709, -0.000000, -0.218505, 0.519553, 0.455443, 0.158121, -2.448242, -1.696987, -2.154586, 0.316821, -0.384385, 0.336160, 0.656898, 0.323448, 0.083806, 0.004999, -0.005239, 0.011378, 0.285126, -1.569747, 0.311633, -0.150289, -0.958379, -0.010242, 0.292848, -0.067817, -3.017332, -1.850968, 0.062800, -0.037091, 0.359534, 0.067914, -0.860018, -1.388309, -1.042974, 0.187475, -0.418496, -2.160665, -1.098472, 1.001713, -0.070243, 0.627411, -0.162033, 0.441587, -1.037108, 1.352638, -1.712113, 0.263677, -0.306039, 0.293754, 0.555308, 0.750507, -1.704025, -2.764762, -3.295948, 0.074027, 0.819672, 0.143137, 0.389931, -0.115945, -1.157154, -0.179920, 0.098457, 0.250874, 0.034219, -0.000027, 0.034448, 0.471839, -0.642156, -0.111677, -0.406021, 0.202922, 0.182496, -0.599342, 1.298527, 0.110473, -0.120979, -0.311602, 0.402313, -0.039345, 0.062384, -0.222565, -0.810824, 0.475152, -0.361921, -0.486891, 0.451670, -0.091250, 0.377189, 0.654186, -0.317070, -0.635323, -0.624461, -0.429312, -0.151373, -0.195932, -0.591241, 0.419551, 0.076642, 0.359771, 0.816818, -0.214684, -0.988065, -0.087436, 0.005638, 0.020034, 0.095762, 0.525518, -0.248113, 0.521752, 0.502250, -0.047652, 0.545227, 0.124234, 0.251589, 0.342574, 0.026841, 0.015064, -0.075987, 0.166094, 1.121046, -0.183278, -0.313429, 0.063052, 0.136544, -0.290958, 0.423396, -0.341812, 0.069514, 0.000003, 0.481904, 0.181526
};

// Shape: (64,)
static const float B0[64] ALIGN16 = {
    -0.296277, 0.253191, -0.798746, 0.290893, -1.163120, -0.213096, -0.979664, 0.659720, -0.564533, -0.815598, -1.950194, 0.029654, -0.257599, -0.456430, -1.687914, -0.529738, -0.484928, -1.155582, -0.430538, 0.385030, 1.476485, -0.242412, -1.429687, -1.257749, -1.006700, -0.639819, -0.714247, -0.401969, 0.930610, -0.708595, -0.359609, 0.201245, -0.090325, -0.113640, 0.465766, 0.336644, 0.135669, -0.323698, 0.165054, -0.373216, -0.350342, 0.737770, -1.265257, -0.181002, -0.266857, -1.093497, -0.752780, 0.478859, -1.155799, -1.320324, -0.649913, -0.482324, 0.800598, 0.404746, -0.559974, 1.080137, 0.583964, -0.586844, -0.931780, 0.101324, -0.531422, -1.073325, -0.649404, -0.330168
};

// Shape: (64, 32)
static const float W1[2048] ALIGN16 = {
    0.047685, 0.430905, -0.221341, 0.095657, -0.013285, 0.093707, 0.138527, -0.346442, 0.000000, -0.291396, 0.018271, 0.514929, 0.488666, 0.185072, 0.447922, 0.497673, 0.272376, 0.089457, 0.410925, -0.006894, 0.258167, 0.087474, -0.198645, 0.219242, 0.277428, -0.143324, 0.339457, 0.379515, -0.309214, 0.098816, 0.063394, -0.114891, -0.406744, 0.161015, 0.745292, -0.524766, -0.294433, -0.198429, -0.710143, -0.069658, 0.000000, 0.170976, 0.109256, 0.268341, -1.004527, -0.506135, 0.274134, -0.146291, 0.348006, 0.290383, 1.226450, 0.042124, 0.088395, 0.166285, 0.249055, 0.216104, -0.061010, 0.092775, 0.454309, 0.183534, -0.139701, -0.273467, 0.311944, -0.766322, 0.338078, 0.558788, 0.270649, -0.531345, 0.566599, 0.522255, 1.158171, -0.219082, -0.000000, -0.422643, 0.730667, 0.775892, -0.259270, -0.017551, 0.627305, -0.232030, -0.667505, -0.143642, 0.758897, 1.021595, 0.134483, 0.549585, 0.164947, 0.113557, 0.337050, 1.055059, -0.126420, 0.609687, 0.287716, -2.734669, 1.170276, 0.978393, -0.372192, -0.227570, 0.032061, 0.461582, -1.067914, 0.686033, -0.021796, 1.234607, -0.000000, -0.067684, -0.374831, 0.269458, -0.046656, 1.554474, 0.084779, -0.405310, -0.275115, 0.359476, -0.479539, -0.425112, -2.842125, -1.475348, 0.188927, 0.534904, -0.505637, 0.357189, 0.079761, -0.343823, -0.166401, 0.553075, 0.707456, -3.775778, -0.153824, 0.232007, -0.064881, 0.453997, -0.098534, 0.140575, 0.793496, 0.144919, -0.000000, -0.028305, 0.653520, 0.712116, 0.259425, 0.445455, 0.687816, -0.406690, -0.767199, 0.277900, 0.264172, 0.160636, 0.193346, -0.072400, 0.322510, -0.328279, -0.479883, -0.235323, -0.363321, 0.331446, -0.126989, -0.321787, 0.724768, -0.175185, 0.063066, -0.048713, 0.444474, 0.118792, -0.409587, -0.323220, 0.376212, 0.003356, 0.000000, -0.082666, -0.741713, -0.091854, 0.186280, 0.375778, 0.097664, 1.060962, 0.084011, 0.476361, -0.597756, -0.765139, 0.143855, -0.330203, 0.003848, 0.034232, -1.237450, -0.096600, 0.355198, 0.131008, -0.331036, 0.701848, -0.213166, 0.032573, 0.109877, -0.213626, -0.207263, 0.016925, -0.137067, 0.081966, -0.633841, 0.702822, 0.000000, -0.041271, -0.241164, -2.734524, 0.492532, 0.133439, -0.016848, 0.079533, -0.404761, -0.139128, 0.076664, 0.124040, -0.044056, -1.496045, -0.052913, 0.298981, -0.020658, 0.380233, 0.527146, -0.364320, 0.441363, 0.067423, 0.809355, -0.335981, -0.976117, 0.025082, 0.224375, 0.234771, -2.154603, -0.091287, -2.548554, 0.130360, -0.000000, 0.576735, 0.036131, -0.107196, -0.788442, -1.535625, -0.339365, -0.332733, 0.617375, 0.142270, 0.608903, -0.892991, -0.028148, 0.675640, 0.089463, -1.227736, -1.358073, 0.188866, 2.079082, -0.114525, 0.687243, 0.645069, 0.642333, -1.581029, 0.390836, 0.324499, 0.261637, 0.588060, 0.059262, 0.467258, 0.256904, -0.022574, -0.000000, 0.694962, -0.078559, 0.005805, 0.302052, -0.329908, 0.571645, -0.348506, -0.468883, -0.401749, -0.561827, -0.372472, 0.340927, -0.771934, 1.105802, -0.228806, 0.088060, 0.025635, -0.021910, -0.016720, -0.537135, 0.045086, 0.223021, 0.407708, -0.045555, -0.064761, -0.306721, 0.006845, 0.019411, 0.775790, -0.283817, -0.078166, 0.000000, 0.265073, 0.182634, 1.310374, 0.091708, -0.034655, 0.339784, -0.026292, -0.349363, -0.149806, 0.335528, -0.375858, 0.462344, 0.727088, -0.257128, 0.244430, -1.010478, 0.600115, 0.318192, 0.471302, -0.512204, 0.367817, 0.493068, 0.021801, 0.487035, 0.124234, 0.289348, -0.294232, -0.451973, -0.774354, -0.413571, -0.988930, -0.000000, 0.071471, -0.149447, 1.234038, -0.540514, -0.534240, -0.300624, -0.412621, 0.189837, 0.105307, 0.147671, -1.304259, -1.373473, 0.004332, 0.268568, 0.358745, -0.465175, 0.222666, 0.526747, -0.058738, 0.227783, 0.138469, -0.206865, 0.318727, 0.289231, 0.303774, -0.085874, -0.358218, 0.171435, 0.109237, 0.200797, 0.341657, 0.000000, -0.386113, -0.198508, 0.399229, 0.172796, 0.191756, -0.037229, 0.081777, 0.718487, 0.440820, 0.152740, -0.123785, 0.140655, 0.169961, -0.363142, 0.598133, -0.140929, 0.105016, 0.427466, 0.319363, 0.667776, -0.532772, 0.166832, -0.153388, -0.728604, -0.247473, 0.007388, 0.858568, -0.503697, -0.254283, 0.426967, 0.161688, -0.000000, -0.363981, 0.044786, -1.248082, -0.414637, -0.435440, -0.212626, 0.882177, -0.542325, -0.045108, -0.176484, 1.023440, -0.227030, -0.322934, 0.464527, 0.067353, 1.765356, 0.076542, 1.056956, 0.035657, 0.964363, 0.033666, 0.537530, 0.578967, -0.775553, -0.384630, 0.463432, 1.469715, -1.480877, -0.097901, -0.430604, 0.314559, 0.000000, 1.425734, -0.260459, 0.181506, 0.375171, -0.069503, -1.633793, 0.984932, 0.694722, -0.048518, 0.025821, 0.090117, -0.022051, 0.100250, 0.009489, -0.000000, 0.000000, -0.000000, -0.268759, 0.072768, 0.063036, 0.169291, -0.000000, -1.010266, -0.580790, 1.006497, -0.342091, 0.357822, 0.030438, 0.516903, -0.310223, -0.018998, 0.000000, -0.008220, 0.583691, -0.911310, 0.221363, 0.905880, 2.209963, -0.321464, -0.371154, 0.272059, 0.077738, 1.010227, -1.542201, 0.584583, 0.580140, -0.887397, 2.201934, 0.211641, -0.469687, -0.821499, -0.024877, 0.121699, -1.766965, -0.471414, -0.397572, -0.556273, 0.401546, 0.870807, -0.086656, -0.028297, -0.015347, 0.975886, 0.000000, -0.324730, 0.131498, 0.347688, 0.976534, 0.217189, -0.807799, 0.650748, -0.126307, 0.472408, -0.136393, 0.050219, -0.008615, -0.605621, 0.631617, -0.840662, 0.023777, -0.097770, 0.326936, 0.494729, 0.917133, 0.695746, 0.508388, -0.091866, 0.039292, 0.502248, -0.672101, 0.397695, 0.012029, -0.324180, 0.004763, 0.694941, 0.000000, 0.422575, 0.538584, -0.274537, -1.068606, -0.073725, -0.462420, 1.033711, 0.702863, -0.036704, 0.288942, 0.395201, 0.334807, 0.318865, -0.311182, 0.796762, -0.194494, 0.270219, 0.895036, 0.641545, 0.290562, -0.371308, 0.648004, 0.485158, 0.119657, -1.053411, 0.553497, 0.243196, 0.158575, -1.322296, 0.550302, -0.087309, -0.000000, 1.102331, 0.209771, 0.617284, -2.592000, 0.663190, -0.427763, -0.194599, -0.261266, 0.280893, 0.310158, 1.337441, 0.788775, 0.694881, 0.283820, 0.296333, 1.226624, -0.166308, 0.143498, -0.145818, 0.364870, 0.121552, 1.137047, -0.281894, -0.004698, 0.196828, 1.032962, 0.320612, 0.415838, -0.248901, -0.418311, -0.516925, 0.000000, 0.759943, -0.156164, -0.133938, -0.343329, 0.577355, 0.389931, -0.196209, -0.579978, -0.373603, -0.445139, -1.271046, -0.276246, -0.091361, 0.544506, -0.535867, -0.041452, 0.027724, -0.218974, 0.328834, 0.000990, 0.175128, -0.526605, 0.403079, -0.983696, 0.198139, -0.626171, 0.613760, -0.297431, 0.518182, -0.566493, 0.380036, 0.000000, 0.643253, 0.263659, 0.531163, 0.362782, 0.276572, 0.358969, 0.699284, 0.800953, -0.142846, 0.385799, -0.528404, -0.402864, -0.504195, -0.298644, -1.357784, 0.428461, 0.135878, 0.698317, -0.028569, 1.099463, 0.392805, -0.793802, -0.204772, -0.923366, -0.137548, -0.868674, -0.092065, 0.089353, -0.069801, -0.597184, -0.306923, 0.000000, -0.077124, -0.280824, -0.363976, 0.376440, -0.442721, 0.199648, 0.039882, -0.736356, -0.584920, -0.752656, -0.475992, -0.135110, 0.167791, 0.154426, 0.363830, -1.404271, -0.539241, 0.280985, 0.353752, 0.041771, 0.402108, -0.970599, -0.411095, 0.549645, 0.013728, 0.248458, -0.179261, 0.077133, 0.354168, 0.035597, 0.016537, 0.000000, -0.093859, -0.119419, -0.255579, 0.586876, 0.116174, 0.010401, -0.411119, -0.525689, 0.379403, 0.051875, -0.316047, -0.524212, -1.093238, -0.936163, -0.433654, -0.415536, -0.440758, 0.067897, 0.612812, -0.660916, -0.196291, 0.247400, 0.292279, -0.687612, 2.247089, 0.369870, -0.425638, 0.499072, 1.879802, 0.420704, -0.799328, 0.000000, -2.958926, 0.892486, 0.623987, -0.524502, 0.617573, 1.302821, -2.719152, -2.236702, 0.032011, -0.615560, 1.734562, -1.350254, -2.120837, 0.006075, -0.293348, -0.622028, 1.085068, -2.438921, 0.375600, 0.020987, -3.909846, 1.175651, 1.626298, 0.428450, -0.625925, -1.679051, -0.265394, 0.100913, -0.992905, 0.202328, -0.455285, -0.000000, -0.038710, 0.282888, 0.615659, -0.623406, -0.541616, -0.188229, -0.976668, -1.222424, -0.733952, 0.382345, 0.815724, -0.192054, -0.105607, -0.605715, -1.372743, 0.420867, 0.183839, -0.798429, 0.332245, 0.561447, -2.112998, 0.191025, -0.006662, 0.624580, -0.132979, 0.065254, 0.089748, -0.294562, -0.185438, -0.932786, -0.200585, -0.000000, 0.374576, 0.282950, 0.656661, 0.706937, 0.509179, 0.389954, 0.190313, 0.353064, 0.062073, 0.478307, 0.314941, 0.338638, 0.390117, 0.131034, -1.453752, 0.884419, -0.908878, -0.816948, -1.827864, -0.346785, 0.507497, -0.604154, -0.500046, -0.375477, 0.001610, -1.120882, -0.462852, 0.333279, -0.589326, 0.033925, 0.314392, -0.000000, 0.328342, -0.148748, 0.252112, 0.220228, -0.185204, -0.178152, -1.121770, 0.151702, -0.270443, 0.560887, -0.056509, -0.030966, -0.066245, 0.145499, -0.111079, 0.141686, -0.000178, -0.198416, 0.001373, 0.365596, 0.370111, -2.647371, -0.000000, 0.286898, 0.315355, 1.173630, 0.214090, 0.391824, 0.420789, 0.783423, -0.603459, -0.000000, -0.237615, -0.287754, 0.288448, 0.432587, 0.272249, 0.468710, 0.450870, 0.170293, 0.756701, -1.195715, -1.034011, 0.311229, -0.947530, 0.072437, 0.345773, 0.125410, 0.156949, -0.368779, 0.221349, -0.216642, 1.243143, -0.745403, 0.076015, -0.158924, -0.057098, 0.264757, 0.075706, -0.288775, -0.180394, -0.482250, 0.245732, -0.000000, 0.018787, 0.000000, 0.251751, -0.234652, -0.069053, -1.620253, 0.286429, 0.429152, -0.183973, -0.290756, 0.082959, -0.031186, 0.353923, -0.432105, -0.041032, -0.000000, -0.011748, 1.063810, 0.075037, 0.236082, -0.047472, 0.009409, 0.005655, -0.851816, -0.029864, 0.065816, 0.464687, -0.474739, 0.237503, -0.674555, -0.163011, 0.000000, -0.155392, 0.046279, 0.308601, 0.504293, -0.900815, -0.188307, 0.173756, 0.056657, -0.775343, -0.085949, -0.759513, -0.450901, 0.173923, 0.054299, 0.317097, -0.443192, -0.220685, 0.586842, 0.559546, -0.318190, -0.304065, -0.302058, -1.136631, 0.323024, 0.517523, 0.126517, -0.336394, 1.173814, 0.009372, 0.653875, -0.740956, 0.000000, -1.572197, -0.080269, 0.460236, 0.531122, 0.471600, 0.604551, -0.216838, 0.302358, 0.485783, 0.043323, 0.171831, -0.258783, -0.106004, -0.426928, -0.315867, 0.026412, 0.427259, -0.500883, 0.262553, 0.184746, -0.041280, 0.040503, 1.655551, -0.898747, -0.569766, -0.411438, 0.014692, -0.210922, 1.081858, 0.523295, -0.159452, 0.000000, 0.496049, -0.700875, 0.430621, -0.789118, -0.177919, -1.212333, -0.100985, 0.044236, -0.123968, 0.124075, 0.396309, 0.568302, -0.949074, -0.810820, -0.367409, 0.840094, -0.380270, 0.021702, -0.355060, 0.168831, -0.556821, 0.094153, 0.081750, -1.294745, 0.074629, 0.266058, -0.078645, -0.100863, -0.036124, -0.309540, 0.084537, -0.000000, -1.181410, 0.000000, -0.468867, 0.433628, -0.330556, 0.697469, -0.730296, -0.482238, 1.020871, -1.276113, -1.083534, -0.074876, 0.280073, -1.095057, 0.536803, -1.048639, 0.112818, 0.007203, -0.159542, 0.180527, 0.078104, -0.173801, 0.213842, 0.547754, 0.239126, -0.635935, -0.259547, -0.412540, 0.966958, -0.074953, 1.280886, 0.000000, 0.069961, 0.177374, 0.217327, 0.475791, 0.223555, 0.394840, -0.215109, -0.901886, -0.433203, -0.484494, -0.679151, -1.914228, -2.263088, 0.149658, -0.060494, -0.383596, 0.209171, 0.216344, -0.061039, -0.340077, 0.579119, 0.553195, -1.356401, -0.150154, 0.398727, -0.565029, -0.416346, 0.713356, 0.613908, -1.151990, -0.168532, -0.000000, 0.095323, -0.942867, -0.602448, 0.600423, -0.453646, 0.134393, 0.861243, 1.099738, -0.161897, 0.790746, 0.063894, -1.106516, 0.037250, 0.617797, -0.988680, -0.323034, -8.563419, 0.820915, 0.562229, 0.345620, -0.543774, 0.048023, 0.955072, -0.353592, 0.173884, -0.266524, -0.239408, 0.378485, 0.072503, -0.078951, 0.106404, -0.000000, 0.298828, 0.121616, 0.613694, 0.305036, -0.014633, -0.080198, -0.015473, -0.511627, -0.347444, -1.200461, -0.160946, -0.532999, 0.060322, -0.129760, -0.442484, -0.325888, -0.440349, -2.431290, -0.156785, -0.584395, -0.149080, -0.128693, -0.309049, -0.264270, 0.857270, 0.118871, 0.163375, 0.289472, 0.654313, 0.472459, -1.023996, 0.000000, -0.408215, 0.136137, 0.070472, -0.357540, -1.116331, 0.548015, -0.657753, 0.019640, -0.260550, 0.117285, 0.144975, -0.681427, -0.805451, 0.722163, -0.829186, 0.352217, 0.950528, 0.442685, 0.184347, -0.047661, -0.453821, -0.745988, -0.028488, 0.385117, 0.202253, -0.049205, 0.411907, 0.204416, 0.629386, -0.132731, -0.157010, -0.000000, 0.110078, 0.209207, 0.565994, 1.152429, -0.146315, 0.580516, 0.515392, -0.349456, 0.370630, 0.162809, -0.656817, 0.026086, -0.268571, 1.304691, -0.371097, -0.470702, -0.072249, -0.208206, -0.171239, 0.771758, 0.237719, -0.067793, 0.322743, 0.202929, -1.009084, 0.475561, -0.139304, 1.732268, -1.088592, 1.742033, -0.574715, 0.000000, -0.290411, -1.304829, 0.222522, -0.058415, 0.918442, -0.645371, -0.226948, -0.517418, 0.044204, -0.778810, 0.323616, 0.054784, -0.885754, -1.076922, -0.251170, 0.396848, -0.637717, -1.532274, -0.268481, -0.784198, -0.283188, -2.172797, -0.917205, 0.002234, 0.481862, 0.369059, 0.530029, -0.734715, 0.740902, -0.397419, 1.000286, -0.000000, 1.116704, -0.073790, -1.189188, 0.095668, -0.183184, -0.374087, 0.478041, 1.655900, -0.246395, -0.037629, 0.259414, -0.272136, -0.018541, 0.624215, -0.081610, 0.018714, -0.081092, -0.292975, 0.061505, 0.067475, 0.572672, 0.269893, -0.110645, -0.715230, -0.335962, 0.339341, -0.080817, -0.431879, -0.332994, -0.093153, 0.546131, -0.000000, -0.322487, -0.048365, -0.383075, -0.894231, 0.193445, 0.194655, 0.362562, -0.412684, -0.018494, -0.473902, 0.471766, -0.240778, 0.071567, -0.118814, -0.402907, 0.097561, -0.013162, 0.353815, -0.004055, -0.101055, -0.274437, 0.305851, -1.144391, -1.707468, -0.229433, -0.962610, 0.057510, 0.179058, -0.258500, -0.184922, -0.507783, 0.000000, 0.296730, -0.183805, -0.090614, 0.020966, -0.943389, 0.159824, 0.190365, 0.109307, 0.527301, -0.012090, 0.557853, 0.184530, -0.289525, -0.219256, 0.216438, -0.994673, 0.165540, -0.019683, -0.233686, 0.140797, 0.162948, -0.787331, -0.074568, 0.662008, -0.720422, -0.387872, -0.000719, -0.073956, -0.152480, -0.610826, 0.838122, 0.000000, 0.150417, -0.215890, -0.205318, 0.434174, -0.081890, -0.068222, 0.304994, -0.217515, -0.122562, -0.325231, -0.749867, 0.082746, 0.227878, -0.158028, -0.553748, -1.133217, -0.005195, 0.047079, -0.322620, 0.284874, 0.172326, -0.333696, 1.247485, -0.021048, -0.237775, 0.760943, 0.626865, 0.433508, -0.650836, 1.062252, 0.034431, -0.000000, 0.760221, 0.082043, 1.214868, -1.424950, 0.905078, 0.079124, 0.183055, -0.240272, -0.034763, -0.826761, 0.551116, 0.232385, -0.986390, 0.267769, 0.198749, 0.636565, -0.128827, -0.192661, 0.276689, -0.780873, 0.057937, 0.439090, -0.659541, -1.056987, -0.376151, 0.437594, -0.071618, -0.608945, -0.425777, -0.518590, 0.723516, 0.000000, -0.125781, -0.057970, -0.268959, -0.447713, -0.181512, -0.106101, -0.181451, -0.635652, 0.280143, 0.099784, -0.743605, 0.026335, 0.108941, -0.235951, -0.680391, 0.329018, 0.526375, 0.386785, -0.377257, 0.488982, -0.535568, 0.302733, 0.515667, 0.644167, -0.847551, 1.003594, 0.921206, -0.154847, -0.040291, 0.731588, 0.870397, -0.000000, 0.444479, -0.825909, 0.212316, -0.134228, 0.948273, -0.687595, 0.551737, 0.107580, 0.595837, -0.285944, 0.357876, -0.137827, 0.012414, -0.190318, 0.285018, 0.216092, 0.006422, -0.200099, -3.002121, -0.597852, 0.073853, -0.600738, 0.718858, -0.222652, 0.113985, 0.106373, 1.538476, -0.014172, 1.652178, -0.048187, 0.737652, -0.000000, 0.200820, -0.000070, -1.619006, -0.010797, -0.063426, -0.004691, 0.179522, -0.044724, -0.018173, 0.016887, -0.000013, -0.000004, -0.308373, 0.216175, -0.000000, 0.000014, 0.000000, -0.076455, 0.029961, 0.015403, 0.106442, -0.000000, -0.000037, -0.143195, -0.608855, 0.182471, -0.282869, 1.920930, -1.028584, 1.612839, -0.862894, -0.000000, -0.195109, -0.702412, 0.516520, -0.929626, 0.967587, -0.298880, -0.366831, -0.994850, -0.037913, -1.348310, 0.418079, 0.291854, -1.412411, -0.896327, 0.188801, 1.257937, -0.324624, -1.230613, -0.064087, -1.254720, -0.017938, -2.010146, 0.220490, -0.216047, 0.824338, -1.190031, -0.152843, -0.301080, -0.035828, -1.056769, -0.640930, -0.000000, -0.247632, -0.076976, -0.817992, -0.378896, 0.082894, 0.027167, 0.224199, 0.756103, 0.681972, 0.513511, -0.883700, -0.046120, 0.376053, -0.026107, -0.287569, -1.315728, -0.736864, 0.429373, 0.136592, -0.262179, 0.150636, -1.124912, -0.049550, 0.426220, 0.178972, -0.293768, 0.302752, -0.122601, 0.296907, 0.455711, 0.090324, -0.000000, 0.568850, 0.673241, -1.354819, 0.233196, 0.096717, 0.134872, 0.254229, -0.177910, 0.515814, 0.204356, 0.095576, -0.135595, -0.464373, 0.467621, -0.331543, -0.066134, 0.051859, 0.302893, -1.560663, -0.506740, -0.255200, 0.657102, 0.247721, -0.121120, 0.705900, 0.824457, 0.423647, -0.188003, 0.539746, -0.760336, 0.435279, 0.000000, -0.975402, 0.759808, 0.068664, -0.663428, -0.441080, 1.073100, -0.992790, -2.558508, 0.367962, -1.289604, 1.667161, -2.337425, -0.886262, -0.035519, -1.005983, 2.009493, 0.065439, -2.123714, -0.201683, -0.423877, -2.179262, -0.034765, 2.096743, -2.133360, 0.540196, 0.142033, -0.034069, -0.463172, 0.750218, -0.244300, -0.047604, -0.000000, -0.333732, 0.733000, 0.497446, 0.310343, 0.136760, 0.311441, -0.203052, -1.126881, 0.140132, -0.560314, 0.305638, -1.822961, -0.515627, 0.133506, -1.481455, -1.242326, 0.295371, -1.284426, -0.165018, 0.007265, -1.228888, 0.236471, -0.140076, 0.685871, 0.128645, -0.684653, -0.152072, -0.360398, 0.098743, -0.290215, 0.318376, 0.000000, 0.421769, -0.392999, 0.088033, -0.074750, 0.087093, 0.005887, 0.877535, 0.254005, -1.161360, 0.196152, -0.344164, 0.073978, -0.508823, 0.778091, 0.030435, 0.171544, 0.207081, -0.249560, 0.336176, -0.568123, -0.538036, 0.746616, 0.374859, 0.046749, -0.631036, -0.005254, 0.076458, -1.205965, 0.799593, -0.338345, -0.307714, 0.000000, 0.193080, 0.148263, -1.088410, -0.418635, -0.317553, -0.943817, -0.166410, 0.241547, -0.305848, -0.211276, -0.186605, -0.266560, 0.197763, 0.260279, -0.306604, 0.228274, -0.351910, -1.142063, -0.306077, -0.480149, 0.005382, -0.715561, 0.163837, -0.852316, 0.260866, 0.187295, 0.289035, -0.026018, 1.190681, -0.146194, -0.340585, 0.000000, -0.303588, 0.319152, 0.141142, -0.488445, -0.998040, 1.073672, -0.095183, -0.136069, 0.427329, 0.233939, 0.413226, -2.096639, -2.418853, 0.251332, -0.032207, 0.250795, 0.271347, -0.229264, -1.478578, 0.373497, 0.215869, 0.189562, -2.687569, -0.103640, 0.342539, -0.305691, 0.629332, 0.170492, -0.163933, -0.348731, -1.082231, 0.000000, 0.894833, 0.206245, 0.052786, 0.321236, -0.094302, 0.334895, -0.257377, 0.310280, -0.100135, 0.506139, 0.075339, 0.456204, 0.182348, 1.361766, -0.192411, -0.167158, 0.262240, 0.562605, 0.489255, 0.524794, -0.468100, 0.468087, 0.547450, 0.236541, -0.046103, -0.062556, -0.537603, -0.078148, 0.055812, -0.549946, -0.139371, -0.000000, -0.020368, -0.472187, -0.225362, 1.303181, -0.520319, 0.402228, 0.799482, 1.555005, 0.159942, 1.140491, -0.685396, 0.157832, 0.219003, 0.068938, 0.526485, -1.384792, 0.123372, 0.887661, -0.028502, 0.678637, -0.428889, -0.362755, -0.423043, 0.871207, -0.137984, 0.222825, -0.481848, -1.371528, 0.140145, -0.046811, -0.279468, -0.000000, -0.190058, -0.894712, 0.143829, 0.615534, 0.196852, -0.306885, 0.268117, 0.123059, 0.455617, 0.015530, -0.526682, 1.283859, 0.357902, -0.237538, 0.365725, -0.145686, -1.602674, 0.461140, -1.101387, -0.506829, -0.136184, -0.826950, -0.464266, 0.730887, -0.175829, -0.501593, -0.052323, 0.354157, -0.217931, 0.231825, -0.571557, 0.000000, 0.506047, 0.647983, -0.501957, 0.451005, 0.200111, -1.383952, 0.153036, 0.643375, 0.284759, 0.635210, -0.025799, 0.258491, 0.563446, 0.932680, -0.168417, -0.127361, -0.618070, 0.474576, -2.256386, -0.977566, 0.107629, -0.234049, 0.307738, 0.541546, -0.611041, 0.093721, 0.101046, 1.370962, -1.385243, 1.432421, -0.054178, -0.000000, 0.226086, -0.989894, 0.293494, -0.440123, 1.169857, -0.650464, -0.144314, -1.016151, -0.137450, -0.505576, 1.245694, 0.646451, 0.170488, -0.877072, 0.260472, 1.226511, -0.712136, -1.021853, -0.101874, -0.942115, -0.278469, -0.549344, -1.334006, 0.048201, -0.128258, -0.926085, 0.068740, 0.174963, -0.013643, -0.139889, 0.686600, 0.000000, 0.305702, -0.246931, 0.303073, -0.221344, -0.938293, 0.544564, 0.064418, -0.000094, -0.460555, -0.082186, 0.059487, -1.838643, -0.793657, 0.030199, -1.085300, 0.387090, 0.067482, 0.244607, 0.306149, 0.529643, -0.180394, -0.093879, -0.753340, 0.839878, -0.199233, -1.151891, 0.316248, 0.608031, -0.278047, 1.260765, 0.623759, 0.000000, 1.013731, -0.409306, 0.660973, 0.513892, -0.140417, 0.142064, 1.549551, -0.195921, -1.399691, 0.101862, -0.077229, 0.521276, 0.415349, 0.042408, -0.972115, -0.899567, -0.080480, 0.043225, 0.578221, -0.126764, -0.053637, -0.345580, 0.574902, -0.000000, -0.000000, -0.000000, -0.000000, 0.000000, 0.000000, -0.000000, -0.000000, 0.000000, 0.000000, 0.000000, 0.000000, 0.000000, -0.000000, 0.000000, 0.000000, -0.000000, 0.000000, -0.000000, 0.000000, 0.000000, -0.000000, 0.000000, -0.000000, -0.000000, -0.000000, 0.000000, 0.000000, 0.000000, 0.000000, -0.000000, -0.000000, 0.006586, -0.029031, -0.346353, -0.229944, -0.487912, 0.143140, -0.408479, 0.167165, -0.000000, 0.687056, 0.203364, -0.658769, -0.231130, -0.299918, 0.518021, 0.393298, -0.669274, 0.158450, 0.833678, -0.660550, 0.185440, 0.597607, 0.139412, 0.540856, -0.904341, -0.177115, -1.118173, -0.307182, 0.352969, 0.663296, -0.165877, 0.404726, -1.020640, -0.391209, 1.060676, -0.015854, 0.036393, 0.442752, 0.410338, -0.386034, 0.000000, -0.794729, -0.012336, -0.340162, -0.721560, -0.449889, -0.304281, -0.368707, -0.516546, 0.243477, -0.722840, 0.173338, 0.493529, 1.440626, -0.014465, 0.429705, 0.454468, 0.164885, 0.064281, 0.064748, 1.017702, 0.344740, 0.054500, -0.060115
};

// Shape: (32,)
static const float B1[32] ALIGN16 = {
    0.896579, 0.316081, 0.510332, -0.255429, 0.084835, 0.330053, 0.490092, -1.037637, -0.254445, 0.823594, -0.217874, 0.232809, 0.852593, -0.029763, -0.364187, 1.302258, 1.573527, 0.304013, 0.594540, -0.444521, 1.070626, 0.096040, -0.046284, 0.166286, -0.271018, -0.256346, 1.005958, -0.055718, 0.259591, 0.878834, -0.379686, -0.432854
};

// Shape: (32, 4)
static const float W2[128] ALIGN16 = {
    0.126951, 0.516718, 0.866580, -0.497744, -0.469936, -0.198758, -1.022950, -0.244580, -2.304116, -0.153833, 0.614156, 0.691206, -1.666075, -0.223141, -0.538904, -0.116418, 0.133400, 0.253502, -3.458296, 0.419115, 0.059263, 0.376170, -0.765296, 0.395884, 0.303960, 0.623235, -4.453970, 0.249132, 0.300063, 0.130975, -1.534582, 0.071455, -0.000000, -0.000000, 0.000000, 0.000000, -1.758932, -0.778559, 0.528607, 0.387021, 0.273369, 1.152614, -1.196616, -0.691010, 0.704670, 0.241838, 1.089398, -0.905250, 0.329065, -2.031328, 0.349152, 0.314826, -0.346694, 0.007418, -2.598399, -0.035480, -0.418499, 0.484083, -1.299714, 0.101985, -1.447829, -1.673371, 0.232097, 0.171750, -1.259352, -4.821238, 0.184166, -0.028325, -1.973348, 0.299667, 0.202068, 0.286797, -4.405632, -0.278624, 0.317384, 0.358708, 1.355929, -0.226658, -2.720432, 0.555422, 1.735344, -0.040159, 1.126808, -1.509529, -0.117083, 0.558136, 0.526958, -0.911352, -1.660597, 0.493287, -0.471591, 0.010587, -0.254003, 1.376981, -0.321538, -0.831983, 1.673375, -2.938699, -0.014599, 0.571470, -0.630067, 3.338318, -0.280430, -3.059868, 0.968942, -2.499161, 0.486265, 0.317964, -0.238340, 2.871437, -2.223963, -0.825521, -0.096782, -1.249060, 0.304331, 0.274891, 0.638107, -5.460798, -0.463048, 0.554769, -1.407229, -0.511266, -2.042353, 1.817610, 0.249912, -0.553489, 2.632064, -3.880494
};

// Shape: (4,)
static const float B2[4] ALIGN16 = {
    0.965239, -0.766884, -0.339672, 0.569445
};

// Weight & bias pointers per layer
static const float *WEIGHTS[NUM_LAYERS] = { W0, W1, W2 };
static const float *BIASES[NUM_LAYERS]  = { B0, B1, B2 };

#undef ALIGN16
