// Auto-generated MLP weights + pointers for C inference
// Generated from scikit-learn MLPClassifier

#pragma once

#define ALIGN16 __attribute__((aligned(16)))

#define NUM_LAYERS 3

#define NUM_CLASSES 4

static const int LAYER_SIZES[NUM_LAYERS+1] = { 27, 64, 32, 4 };

#define OUTPUT_SIZE 4

// Convenience macros for selecting code paths at compile time
#if OUTPUT_SIZE == 1
    #define IS_BINARY_CLASSIFICATION 1
    #define IS_MULTICLASS_CLASSIFICATION 0
#else
    #define IS_BINARY_CLASSIFICATION 0
    #define IS_MULTICLASS_CLASSIFICATION 1
#endif

// Shape: (27, 64)
static const float W0[1728] ALIGN16 = {
    0.028188, -0.088647, 0.468285, -0.169559, 0.013074, -0.319474, -0.520174, 0.006392, -0.516805, -0.042451, 0.020548, 1.163137, 0.088415, -0.311641, -0.302280, -0.113476, -0.327498, 0.050205, -0.254472, 0.339089, -0.132473, -0.894846, -0.260437, 0.225153, 0.187382, 0.313801, -0.054558, -0.642660, 0.000680, -0.519102, 0.251872, -0.604551, -0.087037, 0.419085, 0.435280, -0.150497, 0.038727, 0.369251, -0.097535, -0.091843, -0.626508, -0.876094, -0.827612, 0.553654, -0.736546, -0.116565, 0.187773, -0.716193, 0.310882, -1.188593, 0.418805, -0.239586, 0.028123, 0.482520, -0.027483, 0.338021, -0.712275, -0.276133, -0.226538, -0.154717, -0.195376, -0.136452, -0.224112, 0.002265, -0.921296, 3.359311, -2.133848, 0.508325, -1.002236, 1.711753, 0.450888, -0.457485, -0.910612, 0.085407, 0.698779, -0.191196, -0.389133, -0.341170, 0.198276, 0.253628, -0.129596, -0.239508, -1.178886, -2.735253, -0.175826, -0.883352, 0.586361, 0.005324, -0.400821, 0.591653, -1.046332, 1.903496, -0.084979, -0.555427, -0.076874, -0.655215, -0.171769, -0.175972, -0.989704, -0.534923, -1.462881, 0.359347, -0.691738, -0.302861, 0.194135, -0.365609, -1.981078, 0.259110, -1.059979, -1.326902, -0.070779, -2.236052, 2.409939, -0.337744, 0.241830, 2.565839, 0.338996, 0.103659, 0.667592, -1.334681, 0.436754, 0.850140, 0.134734, -2.032774, -0.812254, 0.547307, -0.737492, 1.075872, 0.355450, -0.694013, 1.262039, -0.727226, -0.045781, -0.678734, 1.030775, 0.142317, 0.609284, 0.878653, 0.483360, 0.451144, 0.660314, 0.329271, 0.751330, 0.203360, 0.785256, 0.422242, 0.412368, 0.889769, -0.069212, -0.993897, 0.734107, 0.358958, 0.454991, 0.497238, 0.630344, -1.066596, 1.151813, -0.134208, 0.328445, 0.959068, 0.336671, 0.518376, 0.753270, -0.364456, 0.106272, 1.035568, 0.481064, 0.320614, 0.197173, 1.542139, 0.278147, 0.044955, 0.344807, -0.469683, 0.904825, 0.964584, -0.244799, 0.758789, 0.476004, -0.757632, -0.524397, -0.631829, -0.525771, 1.183008, -0.715427, -0.044023, 0.642683, 0.663028, 0.209515, 0.401649, 0.648502, 0.671144, -0.107954, 0.582512, -0.073020, 0.025863, 0.423054, 0.145176, 0.605596, 0.794813, 0.713945, 0.177639, 0.245666, 0.018193, 0.264208, 0.313199, -0.253643, 0.323406, 0.467366, 0.167524, 0.309659, -0.591491, 0.136887, -0.183194, 0.313377, 0.123380, -0.382227, 0.638353, 0.236217, 0.751271, 0.277412, 0.077193, -0.205834, 0.261156, -0.204857, -0.170446, 0.354364, 0.061353, -0.261702, -0.019863, 0.128846, 0.340058, 0.033409, 1.260728, -0.646056, 0.614811, -0.031562, -0.754027, 0.681749, -0.296340, 0.771240, 0.374812, 0.594784, 0.227279, -0.560514, 0.309586, 0.314509, -0.104975, 0.671684, 0.108232, 0.397030, -0.346619, 0.281552, 0.403647, 0.104842, 0.435700, 1.994911, 0.320582, -0.498709, -0.723430, 1.031018, 2.980206, 0.602246, 0.585568, 0.100211, 0.039667, -0.055718, 1.030017, -1.251506, 0.566939, 0.672119, 0.421830, 0.337906, -0.812455, 0.949057, -2.255554, 1.878212, -0.295455, 0.713573, -0.254978, 2.124696, -0.295971, -0.160727, -0.834640, 0.655398, -0.525043, -2.307570, 0.448628, 1.533919, 1.612076, -2.933622, -1.601260, 2.084276, 2.344118, -0.343078, 0.280849, -0.377510, 0.115447, 0.881519, -1.190742, -0.386299, -1.261319, 1.340731, -0.001168, -1.107941, 0.520053, -2.319931, 0.545193, 3.407974, 0.062446, -2.139314, 0.947872, 0.388739, 1.628844, 0.489442, 1.224364, -0.153483, 0.121250, -0.768618, -1.001802, 0.000862, 0.014906, 0.020145, 0.002147, 0.036185, -0.043936, 0.018023, 0.035586, 0.019021, 0.038549, 0.025434, -0.009648, 0.015522, 0.016114, 0.031242, 0.231253, 0.007956, -0.007402, 0.055741, 0.003132, -0.022097, 0.013023, 0.010050, -0.011762, 0.031742, 0.084300, 0.007641, 0.008562, 0.068485, 0.036953, 0.021610, 0.005325, 0.005023, 0.012036, 0.033537, 0.040758, 0.035283, -0.022507, -0.013228, 0.007422, 0.021795, 0.006816, 0.033132, 0.018742, 0.019688, 0.001640, 0.008377, 0.030026, 0.023120, 0.021177, 0.042319, -0.043488, -0.054029, 0.102234, 0.014793, 0.013501, -0.035410, -0.081072, 0.045054, 0.058583, 0.033602, 0.058248, -0.000989, 0.003261, 0.499115, 0.150486, 0.125906, 0.069662, 0.261546, 0.772220, 0.468360, -0.112473, -0.001640, -0.336444, -0.428659, 0.388695, -0.488212, -0.009723, 0.493507, -0.350517, 0.213855, -0.845882, -0.103247, -0.085620, 0.475865, -0.033260, 0.189123, 0.163498, 0.423732, -0.754014, 0.253975, 0.092793, -0.045768, 0.006335, -0.276985, 0.370332, 0.833902, 0.240385, -0.527752, -0.107912, 0.348369, 0.702769, 0.176809, -0.045919, -0.005535, 0.001671, 0.216951, -0.367138, 0.364784, 0.200229, -0.056357, 0.340864, -0.838564, 0.108781, -1.220873, 0.111524, 0.894251, 0.148361, -1.228506, -0.101905, 0.065380, 1.053077, -0.094799, 0.169889, -0.008935, -0.399985, -0.565075, 0.083406, -0.198156, -0.351470, 0.097418, -0.350412, -0.083676, 0.104574, -0.071759, -0.213904, -0.070021, -0.226651, -0.564154, 0.241205, -0.999882, 0.231518, -0.073732, 0.119445, 0.505436, -1.670991, -0.666597, -0.307090, 0.083330, 0.035455, -0.098418, 0.142860, -0.396215, 0.217566, 0.224662, 0.214641, -0.087913, -0.235601, 0.482263, 0.173566, 0.111359, 0.124757, 0.312721, -0.284483, -0.190973, -0.417415, 0.145997, -0.059141, -0.061956, 0.001756, -0.056865, -0.299905, 0.021607, 0.068333, -0.114347, -0.077390, -1.600861, 0.108377, -2.528352, 0.011076, -0.036664, -0.142579, -1.438615, -0.574819, 0.208329, 0.008264, 0.066009, 0.061679, 0.027116, 0.125700, -0.624910, -0.028250, 0.298958, 0.644467, 0.460429, -1.085892, 0.442995, 0.070140, 0.227886, -0.683109, -0.140649, 0.145336, 0.223885, 0.244587, 0.766493, -0.392773, -0.207985, -0.205484, -0.854616, 0.337296, 1.088268, 0.712004, 0.214710, -0.120195, 0.626956, 1.324824, 0.255583, -0.049849, -1.285468, -0.047816, 0.375353, 0.706042, 0.235834, 0.588945, 0.035793, -0.607161, 0.372412, 0.140647, -0.218960, 0.338558, 0.290221, 1.126933, 0.975569, 0.234435, 0.631972, 0.066751, -0.681251, -0.181854, 0.873167, 0.517809, 0.846082, 0.528814, 0.541578, 0.014084, -0.261644, 0.790179, 0.171753, -0.153430, 0.474751, 0.004826, 0.236033, 0.409649, 0.434341, 0.149675, 0.552701, 0.902041, -0.990621, 0.026182, -0.646307, 0.447573, -0.659895, 0.756411, 0.343012, -0.631812, -0.325534, 0.177750, 0.057930, -0.392394, -0.770716, -0.441795, -0.708969, 0.562860, -0.647996, -0.331289, -1.068737, -0.236535, 0.503288, 0.408051, 1.103337, -1.266282, -0.389219, 0.328687, -0.155339, 0.283175, -0.104633, -1.160592, -0.442192, 0.634092, -0.351207, 0.461946, -0.447163, 0.424308, 0.010232, -1.084720, 0.085230, 0.148935, -0.106134, 0.079071, 0.191718, 0.116639, -0.758789, 0.572940, 0.115639, -0.617284, -0.055241, -0.213592, 0.082638, 0.355212, -0.545460, 0.202777, 0.171224, 0.189382, -0.283225, -0.452509, -0.398547, 0.031022, -0.558429, 0.488255, 0.338607, -0.033250, -0.881821, -0.183850, -0.610578, 0.520290, 1.419784, 0.116399, -0.308493, 0.662368, 0.145911, -1.679825, -2.237229, 0.899947, -0.293544, 0.471899, -0.180394, -2.077913, 0.350547, -1.420385, 0.594417, 0.373619, -0.538471, 0.679753, -0.865272, 0.577282, -1.949329, -1.876936, 0.939809, 0.330426, -2.708981, 0.284449, -0.134857, -0.172721, -0.900739, -0.015537, -0.324547, 0.184785, -0.931160, 0.402474, 0.434991, -0.342014, -0.233204, -0.097181, -0.043800, -0.445357, 0.374741, 0.497320, 0.723445, -0.799234, 0.287795, -0.939241, 0.324804, 0.393467, 0.096474, -0.047434, -0.000437, -2.042937, 0.217698, 0.313005, -0.134049, -0.175263, -0.094820, -2.524843, -0.426189, 0.139949, -0.442450, -0.028133, -0.240474, 0.216798, -0.329190, 0.026348, -0.113287, -0.096731, -0.159863, -0.572470, -0.200101, 0.393916, -0.043550, -0.000109, -0.280596, -0.167390, 0.170800, -0.671886, -0.860789, 0.103969, 0.399637, 0.228698, -0.003086, -0.369225, -0.464716, -0.537719, -0.315338, 0.123533, 0.497582, -0.683287, -0.405256, -0.149439, -0.075581, 0.859472, 0.001323, -0.224546, 0.081629, -0.309060, -0.044351, -0.289272, -0.422055, 0.237611, 0.219327, -0.364162, -0.024174, 0.293348, -0.476426, 0.337433, -0.326201, -0.071630, -0.276943, 0.846778, -0.032316, -0.365426, 0.331222, 0.737854, -0.035921, 0.029563, -0.411205, 0.184399, 0.216334, -0.368686, 0.146163, 0.212205, 0.086131, 0.045082, -0.365662, -0.026601, -1.786737, -0.236509, 0.585472, -1.255757, -0.216053, -0.245052, 0.336184, -0.050668, 0.191643, -0.915326, 0.236797, -0.032791, -0.762571, 0.356872, 0.360350, 0.157058, -0.087799, -0.211675, -1.215173, -0.390976, -0.346987, -0.238174, -0.917342, 0.044250, -0.215744, 0.441732, 0.358690, 0.185000, 0.206737, -0.751078, 0.231011, 0.171125, -0.093331, 0.243235, 0.351810, 0.413265, -0.076768, -0.175023, 0.182997, 0.368154, -0.078313, 0.085725, 0.362250, 0.244193, 0.226015, 0.253495, -0.262325, -0.249667, 0.288134, -0.846518, 0.042738, -0.827738, 0.145396, 0.477252, -1.648785, -0.095817, 0.325226, -0.456133, -1.191259, -0.374509, -0.402299, -0.321234, 0.161266, 0.225916, 0.597269, -0.695439, 0.425538, 0.361222, 0.172517, 0.702636, 0.468691, 0.089148, 0.110595, 0.095540, -0.043890, 1.005541, 0.143255, 0.119715, 0.098029, 0.342449, -0.525068, 0.251961, 0.065497, 0.027700, 0.064288, 0.630943, 0.149645, 0.081051, 0.319808, 0.339259, 0.298480, 0.142059, -0.340192, -0.035356, 0.285185, 0.215790, 0.163582, 0.091564, -0.170320, 0.123064, 0.230048, 0.030698, -0.206744, 0.483532, 0.016757, -0.040943, 0.010026, 0.132297, 0.164892, -0.149366, 0.275959, -0.411023, -0.278395, 0.049250, 0.295431, -0.201361, -0.495467, -0.874495, 0.785880, 0.123937, 0.194475, 0.354806, 0.671322, 0.051570, -0.256237, -0.009062, 0.037386, 0.137971, 0.335792, -0.682761, 0.208144, 0.251905, 0.232749, 0.610713, 0.683609, 0.310439, 0.089621, 0.112472, 0.047979, 0.690656, 0.252381, 0.006542, 0.178029, 0.177004, -0.582991, 0.054925, 0.158904, 0.013012, 0.294648, 0.745504, 0.269990, 0.229306, 0.217017, 0.162799, 0.201298, 0.223872, -0.339346, 0.090229, 0.275412, 0.317275, 0.208783, -0.113263, -0.234737, 0.092446, 0.013369, 0.005051, -0.236253, 0.556825, -0.105841, 0.125491, 0.020208, 0.364686, 0.123170, -0.363252, 0.227877, -0.228445, -0.257196, 0.139727, 0.223799, -0.044509, -0.470753, -0.601745, 0.618440, -0.140668, 0.157315, 0.177215, 0.489343, 0.108556, -0.088767, 0.248642, 0.071185, 0.306623, -0.006069, -0.099199, 0.268115, -0.100709, -0.005911, 0.179831, 0.458968, 0.577403, -0.009970, 0.050214, -0.209948, 0.280420, 0.298194, -0.297166, -0.271447, 0.012654, -0.282349, -0.035505, -0.023426, -0.237161, 0.422603, 0.653951, 0.278829, 0.115348, 0.211671, -0.023411, 0.064912, 0.372832, -0.293810, 0.356047, -0.090019, 0.058858, 0.180652, -0.270121, 0.032797, -0.069390, 0.018264, -0.048266, -0.127528, 0.414881, 0.105224, 0.114669, -0.171240, 0.275104, 0.023856, -0.443436, 0.059581, -0.045936, -0.074525, -0.301202, 0.093402, 0.038330, -0.515307, -0.274350, 0.622688, -0.399082, 0.001006, 0.223152, 0.632856, 0.052976, 0.083018, -0.442479, 0.315494, 0.918390, 0.258087, 0.245653, 0.671840, 0.139716, -0.054938, 0.242426, -0.331846, 0.516326, 0.646886, 0.135073, -0.319962, 0.023519, -0.121359, 0.615772, -1.271998, 0.512228, 0.277530, 0.874803, -0.437994, -0.449751, 0.110822, -0.100683, 0.719644, 0.039403, 1.033559, -0.309227, 0.371303, -0.267949, 0.041161, 0.372657, -0.066649, 0.258604, 0.605218, 0.684698, 0.564743, 0.048723, 0.247270, -0.231625, -0.026106, 0.126919, 0.405810, 0.816306, -0.572838, 0.397260, -0.498119, -0.152617, -0.010987, -0.032772, -0.133379, 0.334367, -0.046256, 0.465656, 0.280510, -0.391196, -0.337390, 0.403047, 0.142010, 0.005937, -0.080832, -0.080999, 0.125358, -0.120770, -0.224458, -0.216067, 0.283365, -0.293938, 0.124453, -0.022426, -0.158430, -0.042413, 0.022657, -0.418431, -1.205327, 0.383215, 0.727271, -0.092289, 1.101880, -0.115426, 0.502369, 0.455565, 0.126581, -0.980052, 0.662055, 0.413239, -0.226750, 0.095553, -0.144391, 0.583230, -1.255141, 1.182875, -0.104020, -0.496246, 0.133518, 0.855329, 0.434251, 0.409799, -0.293015, -0.281459, -0.397166, 0.206397, -0.756101, 0.097194, 0.073075, 0.188069, 0.044560, -0.593920, 0.310243, -0.176171, 0.699956, 0.508561, -0.072938, -0.201163, 0.054839, -0.230986, 0.693550, -0.239173, 0.468109, 0.659676, 1.315382, -0.289549, 0.594185, 0.572677, 0.256127, 0.179466, 0.180808, 0.115962, 0.183013, 0.370494, -0.000559, 0.099644, 0.322833, -0.182490, 0.082035, 0.013994, 0.373665, 0.596641, -0.208607, 0.164572, 0.129872, 0.510971, 0.182013, -0.264415, -0.161061, 0.146995, -0.288511, -0.226680, 0.167180, -0.094936, 0.448821, 0.461531, 0.297178, 0.055479, 0.580508, -0.107009, 0.106723, 0.467334, -0.355066, 0.470302, 0.165182, 0.026270, 0.027798, -0.061307, -0.258904, -0.029236, 0.051831, -0.036279, -0.268505, 0.484380, 0.192953, 0.239493, -0.136710, 0.097539, 0.124567, -0.512521, -0.099803, -0.321478, -0.233423, -0.096159, 0.034369, -0.095381, -0.519780, -0.174875, 0.498471, -0.216454, -0.121133, 0.425079, 0.495842, -0.084187, 0.009623, 0.485760, -0.161325, 0.144669, 0.541933, 0.065087, 0.187615, 0.229063, 0.177838, -0.527785, -0.277124, -0.144909, 0.044971, 0.136932, 0.217571, -0.515097, 0.129008, -0.331347, 0.329713, 0.204067, 0.142604, 0.197736, -0.353768, -0.049713, -0.447219, -1.087931, 0.128801, 0.245731, -1.480488, 0.385342, -0.140428, -0.094676, 0.170686, 0.027408, -0.300809, 0.055980, 0.031981, 0.406753, -0.027908, 0.068392, -0.154844, 0.141060, 0.051732, 0.007353, 0.210742, 0.171674, -0.018827, -0.024612, 0.515853, 0.044898, -0.050662, 0.230336, 0.648820, -0.004642, 0.167931, -0.177992, -0.043626, 0.662277, -0.315235, -0.043587, 0.184085, -1.470391, -0.358965, 0.161017, -0.035541, -0.009791, -0.125434, -0.068418, -0.089265, 0.068493, 0.202066, 0.619940, 0.088751, -0.207735, -0.089131, -0.805021, -0.137527, 0.399252, 0.650340, -0.123634, 0.343708, -0.648781, 0.875302, 0.008936, -0.414155, 0.705626, -0.062538, -0.590748, -0.052822, 0.266591, 0.547965, 0.183150, -0.061035, -0.083747, -0.109411, 0.387454, 0.064272, 0.194822, 0.085254, -0.053499, 0.219070, 0.270001, -0.557420, -0.941343, -0.868379, -0.385858, 0.858969, 0.052669, 1.291920, 0.367132, -0.091387, 0.429083, -0.162703, 0.305716, -0.123762, -0.209073, 0.088092, -0.091129, 0.518454, 0.020557, -0.349091, -0.115232, -0.020169, -0.058920, -1.882681, -0.081976, 0.504002, 0.301239, 0.384812, -0.779473, 1.200376, -1.953925, 0.040308, -1.015244, 0.410359, -0.189315, -0.028409, -1.248899, -1.967173, 0.762173, 0.373527, 0.516659, 0.525377, -2.889091, 0.369389, -0.938375, 0.480298, 1.487867, 0.129173, -0.171561, 0.661368, 0.372627, 0.076352, -2.165830, 0.445323, -1.466703, 0.955449, 0.071925, 0.150367, 0.801090, 0.139546, 0.580609, 0.121282, -0.959812, -0.391534, 0.790453, 1.395319, 0.341059, 0.374092, 1.178688, 0.742038, -1.268734, 1.190997, 0.458819, 0.225677, 0.704072, -0.435453, 0.356140, 0.250610, 0.536020, -0.515100, -2.779521, -0.712534, 1.006419, 0.266020, 0.587138, -0.269801, 0.878795, 0.401904, -1.776221, 0.558830, 0.810605, -0.243106, 0.400699, -0.083248, -0.132549, -0.185191, -0.681252, 0.062538, 0.917117, -0.061286, -0.638783, -0.672774, 0.005355, -0.151526, 0.245331, -0.467775, -0.745746, 0.312886, -0.173012, -0.582128, 0.117632, 0.227791, 0.545287, 0.305904, -0.166240, -0.256936, -0.308835, 0.257761, -0.042899, 0.151537, -0.440934, -0.390010, -0.037710, 0.121037, -0.142493, -0.249937, -0.019273, 0.083660, -0.734291, -0.337328, -0.131835, 0.320331, 0.783630, 0.156223, -0.107120, 0.456609, 0.424121, -0.022494, 0.401246, 0.484919, 0.284345, 0.223531, 0.820167, -0.677950, -0.476098, 0.071841, 0.018764, 1.097908, 0.090440, 0.157705, -0.045226, 1.063589, -0.289644, 0.190696, 0.437738, 0.448311, -0.162747, -0.165002, -0.029293, -0.900703, -0.037214, 0.759301, -0.542872, 0.053237, -0.480295, 0.272065, -0.213098, 0.004989, -0.621086, 0.286641, 0.051386, 0.044292, 0.149738, 0.179185, 0.128208, -0.418876, -0.554080, -1.006614, -0.008051, -0.124178, -0.287587, -0.347462, 0.169879, -0.343949, 0.523790, 0.034461, -0.192814, -0.086065, -0.632250, 0.179903, 0.136560, -0.042865, 0.272318, 0.315629, 0.287619, 0.205446, -0.428569, -0.306097, -0.043963, 0.211856, 0.120109, 0.142819, 0.394227, 0.017827, 0.304037, -0.206303, -0.699990, 0.185455, -0.483674, -0.116142, -0.470536, 0.077948, 0.140396, -1.310605, -0.044218, 0.319075, -0.559496, -1.013649, -0.480070, -0.393913, -0.156379, 0.082925, 0.263424, 0.543252, -0.797704, 0.415687, 0.271674, 0.429401, 0.641271, 0.713474, 0.009259, 0.083569, 0.125312, 0.182437, 0.817675, 0.176200, 0.213712, 0.154818, 0.174603, -0.406283, 0.108346, 0.252059, 0.194490, 0.178336, 0.528145, 0.208973, 0.139870, 0.339553, 0.333148, 0.343248, 0.065093, -0.269166, -0.066513, 0.466673, 0.214416, 0.124594, 0.056513, -0.204046, 0.093114, 0.079035, 0.059120, -0.052560, 0.591524, -0.102399, -0.112000, 0.088038, 0.204448, 0.418316, -0.272029, 0.468738, -0.348538, -0.432824, 0.252400, 0.310811, 0.071441, -0.489889, -0.928031, 0.786394, 0.052928, 0.097409, 0.224920, 0.505379, 0.169156, -0.324157, -0.249361, 0.096909, 0.212442, 0.335600, -0.565494, 0.214840, 0.346157, 0.226393, 0.565388, 0.731746, 0.288187, 0.182814, 0.096519, 0.022517, 0.880972, 0.204864, 0.113174, 0.218424, 0.303150, -0.546055, -0.118190, 0.134996, 0.217592, 0.077231, 0.782523, 0.061189, 0.190869, 0.068977, 0.301568, 0.383495, 0.170931, -0.324165, 0.171260, 0.664623, 0.205575, 0.044964, -0.235148, -0.043923, 0.219973, 0.181693, 0.016112, -0.095318, 0.594323, -0.124466, 0.129469, -0.013166, 0.387573, 0.327810, -0.171985, 0.226667, -0.367677, -0.506133, 0.080200, 0.053538, 0.059983, -0.418845, -0.872410, 0.622006, -0.079372, 0.174855, 0.369561, 0.730414, 0.087747, 0.220235, 0.182684, 0.058851, 0.433270, -0.064512, -0.005986, 0.137599, 0.047398, 0.085264, 0.305615, 0.581206, 0.491762, -0.187029, 0.093773, -0.150116, 0.592993, 0.248669, 0.030332, -0.210552, 0.091891, -0.494623, -0.003566, 0.242219, -0.124228, 0.329767, 0.810805, 0.086612, 0.083433, 0.342222, -0.191125, 0.057493, 0.198045, -0.457475, 0.197284, 0.370562, 0.187556, 0.194413, -0.307111, -0.196636, -0.053913, 0.072385, -0.112946, -0.163865, 0.365723, 0.060476, 0.116230, -0.247893, 0.044745, 0.188637, -0.440747, -0.013527, -0.180224, -0.540121, -0.157462, 0.254138, -0.229019, -0.544338, -0.596688, 0.409083, -0.362764, 0.000066, 0.156309, 0.486567, 0.053967
};

// Shape: (64,)
static const float B0[64] ALIGN16 = {
    0.570584, 0.526351, -0.736885, -0.229724, -0.654018, 0.773823, -1.022167, -0.184201, 0.030163, -0.874740, -0.778831, 0.110301, -0.567880, -0.016984, 0.276364, -1.219828, -0.063103, -0.643747, -1.145982, -0.672771, 0.793367, -0.607630, 0.225601, -0.675425, -0.275525, -0.667388, -0.148355, 0.075152, 0.286957, -0.595393, -1.115504, -0.280697, 0.460735, 0.464362, -1.099050, -0.818472, 0.302916, 0.105460, 0.420562, -0.509025, -0.960799, -0.015238, 0.130644, -0.768080, 0.355534, -0.100773, 0.099610, -0.189174, -0.281550, 0.437790, -0.836720, 0.965881, 0.431897, -0.493354, -0.263916, 0.185463, 0.886533, 1.179075, -0.682114, 0.173231, -0.251202, -0.411867, -0.511488, -0.229710
};

// Shape: (64, 32)
static const float W1[2048] ALIGN16 = {
    0.692379, 0.674961, 0.109820, -0.944426, 0.060410, -0.301867, -0.230956, -0.914768, -0.050792, -0.253462, -0.518696, 0.857533, 0.000000, 0.374375, -0.467095, -0.203871, -0.069568, 0.446331, 0.032090, 0.728022, 0.456328, -0.019093, 0.186068, 0.102315, 0.380459, -0.168143, -0.204737, 0.319117, 0.937727, 0.114734, -0.048639, -0.229664, 0.199382, 0.509590, -0.178924, 0.606731, -0.099602, 0.393568, 0.127260, 0.575969, -0.120615, -1.269220, 0.981826, 0.916816, 0.000000, -1.348220, -0.968221, -0.085633, -0.325303, -0.993608, 0.562264, 0.051532, 0.240949, -0.903764, -0.151346, 0.266319, -0.551999, 0.195485, -0.030600, 0.077079, 0.389375, 0.162564, 0.259075, 0.240188, -1.538194, 0.113065, 0.129902, 0.372737, -0.330782, 0.106322, -0.089485, -1.699399, -0.238456, 0.688257, -0.697490, -0.679996, -0.000000, 0.795883, -0.188590, -0.333141, -0.478323, -0.182479, -1.027487, -0.722465, -0.158611, 0.208749, 0.287619, -0.051232, -0.267478, -0.494139, 0.213516, -0.034201, -0.213468, -0.735417, -0.061889, -0.000000, -0.342317, 0.517967, 0.316864, 0.740352, 0.066371, -0.173076, -0.408502, 0.911941, 0.460700, -1.169917, 0.655464, 0.082686, 0.000000, -0.339352, 0.755638, -0.017688, -0.320139, -1.203136, 0.833309, -0.011580, -0.023776, -0.158313, 0.001726, 0.619209, 0.400788, -0.856711, -0.168087, 0.059686, 0.394539, -0.307305, 0.099820, -0.004875, 0.455153, -0.160186, 0.307736, 0.242095, 1.202748, 0.007015, 0.746020, -0.930369, -0.350164, -0.136991, 0.087475, 0.138182, -0.000000, 1.014713, 0.048583, 0.436674, -2.410948, -0.439193, 0.172817, -2.047583, 0.108234, 0.273911, 0.369662, 0.167416, -0.070141, 0.196914, 0.879116, -0.094694, -1.475409, 0.133424, 0.715132, -0.967967, 0.518896, 0.654850, 0.134974, -0.548837, -0.951478, 0.269603, 0.448795, 0.820016, -1.473367, -1.265993, 0.193829, 0.897744, 0.000000, -0.754737, -2.371923, 0.159313, -0.476836, -0.191766, 0.441945, 0.385650, -0.070122, -0.661994, 0.578017, 0.572061, -0.732671, 0.016291, 0.511121, 0.610673, -0.362603, -0.064069, 0.503749, -0.032650, 0.673046, -0.446613, -1.016334, 0.000000, -0.041987, 0.505389, 0.608049, 0.025964, -1.328862, 0.308794, -0.209064, 0.344153, 0.000000, 0.971026, 1.113036, 0.334700, 0.163794, 0.000000, -0.395963, 0.539194, 0.504504, -0.569681, 0.999369, -1.868326, -0.182966, 0.591721, -0.108748, -0.865199, 0.347456, 0.234684, 0.353596, -0.544881, -0.688457, -0.030077, -0.262516, 0.072543, 0.670721, 0.046898, 0.939876, -0.520720, 0.905097, -0.998359, 0.281667, 0.016133, -0.000000, 0.013216, -0.093889, 0.002363, -1.201597, 0.533838, 0.149725, 0.446005, -0.077084, -0.191351, 0.273811, 0.251535, 0.206102, 0.482318, 0.375828, -0.383802, -0.077244, 0.078770, 0.074728, -0.987926, 1.519534, -0.695183, -0.769143, 0.085515, 0.350388, 0.279863, 0.127438, -0.732265, -0.628846, 0.349761, 1.168130, 0.489440, 0.000000, 0.196187, 0.071928, 0.123798, -0.017567, -1.281647, -0.073565, 0.510950, -0.627943, -0.677871, 0.082438, 0.623135, 0.156446, 0.347392, 0.810813, -0.828193, -1.755473, 0.412604, 0.530245, -0.457364, 0.245969, -0.790721, 0.100241, 0.243692, -0.204829, -0.255360, -0.668152, -0.874938, -0.098387, 0.485268, -0.061921, -0.124311, 0.000000, -0.332307, 0.168532, 0.147553, 0.363671, 0.046339, -0.859233, -0.195901, 0.346794, 0.182307, -0.094144, 0.023746, 0.234916, -0.736561, 0.626697, 0.026253, 0.286049, 0.402904, -0.397897, -0.004908, 0.612060, 0.040695, 0.645843, -0.464063, -1.983474, -0.426657, 0.079710, -0.070064, 1.230380, -0.154282, -0.114499, -0.381249, 0.000000, -0.102460, 1.367317, -0.166547, -0.393199, 0.085155, -0.293412, 0.156190, 0.303964, 0.477933, -0.135027, 1.081152, -0.180997, 0.271531, 0.819304, 0.312879, 0.076851, 0.418871, -1.042713, 0.425700, 0.391836, 0.197121, -0.605886, -0.076417, -0.681658, 0.045175, 0.365361, -1.135621, -0.423140, -0.930811, -1.209107, -0.357848, 0.000000, -0.822821, -0.245561, 0.254273, -1.253150, -0.355658, -0.177616, 0.517815, -0.118261, -0.161498, -0.365361, -0.445397, -1.021106, 0.525197, 0.120930, -0.741050, -0.461054, -0.297010, -0.102552, -0.688528, -0.120636, 0.241777, -1.347224, 0.285998, 0.025276, -0.177477, 0.656320, -0.348655, 0.772430, 0.488405, 0.883299, -0.098658, -0.000000, 0.168687, 0.454026, -0.171941, 0.180981, 0.351702, 0.425329, 0.340342, -0.419135, 0.319350, 0.241449, 0.199094, -0.024028, 1.104085, -1.009481, -0.489702, 0.328228, 0.287703, 0.070284, -0.085068, -0.571435, -0.274931, 0.185741, 0.007256, 0.544228, 0.241665, 0.362540, -0.730251, 0.347338, -0.592231, 0.261292, 0.209540, 0.000000, -0.090341, -0.485220, 0.081257, -0.031887, -0.158485, 0.717632, -0.042205, -0.195972, -0.429152, 0.145706, -0.377651, -0.009867, 0.320251, 0.267311, -0.380356, -0.433143, 0.049141, 0.161900, -0.691874, 0.775273, 0.048732, -0.197429, 0.019365, -0.015565, 0.178986, 0.144973, 0.654146, -0.283151, -0.011104, -0.457718, 0.015422, -0.000000, -0.011421, 0.208661, -0.499268, 0.449029, -0.337386, 0.011706, 0.611938, -0.583226, 0.201798, 0.166208, 0.305775, 0.027051, 0.382608, -0.087841, 0.380637, -0.498741, 0.334711, -0.042185, -0.237141, -0.964343, -0.692822, 0.237922, 1.237599, -0.192570, -5.594803, -1.352993, -0.500663, -0.177207, 1.345835, 0.693051, -2.678840, 0.000000, -2.395213, 2.179965, -2.235131, 0.739242, -0.390939, -2.425537, -0.351865, -0.905642, -0.521143, -5.324630, 1.274945, 1.592022, -1.269222, -1.403095, -0.017944, -1.220719, 0.769778, -4.135098, 0.585344, -0.251056, -0.344865, -0.300183, -0.387763, -0.139101, 0.078116, 0.334635, -0.124299, 0.313527, 0.000000, 1.106993, 0.816051, 0.000000, 0.052890, 0.025088, -0.164153, 0.329185, -1.785146, 0.554299, 0.279968, -0.369876, -0.289700, -0.075987, -0.615987, 0.100433, 0.296075, -0.540551, -0.656947, -0.160918, 0.079521, -0.001982, -0.594677, -0.187261, 0.024524, 0.647338, 0.538109, 0.098514, 0.019340, -0.611143, 0.068222, 0.672695, 0.311124, 0.050315, -0.447873, 0.000000, 0.039401, 0.601852, 0.039918, -0.083961, 0.606337, -0.101777, -0.202249, 0.908133, 0.333227, 0.332506, 0.302671, -0.253696, -0.481793, 0.109222, 0.316276, 0.827892, -0.077418, -0.393558, -0.146782, -0.083448, -0.180566, 0.558642, 1.031370, 0.512236, 0.523176, -0.586653, 0.115964, -0.000183, 0.156158, -0.116137, 0.653009, 0.000000, 1.508709, 2.093147, -0.320422, 0.608899, 0.070848, -0.535494, 0.147082, 1.137542, -0.661566, 0.379021, -0.670073, -0.702836, -0.401600, 0.285278, 0.422104, -2.017640, -0.017259, -0.091775, 0.332625, -1.557393, -0.016166, -0.551904, 0.422037, -0.142452, -0.087803, -0.364138, -1.402093, -0.481784, 1.343301, 0.347344, -1.157369, 0.000000, 0.206623, 0.344759, -0.906272, 0.521861, -1.117746, -0.584575, -0.908421, -1.649414, -0.830001, -0.690115, -0.784069, -0.483421, 0.140341, -0.366781, -0.015103, -0.207354, -0.747579, -0.202119, -0.041320, 0.049502, 0.582521, 1.132577, -0.764695, 1.007615, -0.108386, -0.089971, -0.087630, -0.236876, -0.553330, -0.249212, 0.820116, -0.000000, -0.618753, -0.699247, -0.170499, 0.537363, 0.247539, -0.094508, 0.133496, 0.213337, -0.245846, -0.033833, -0.722591, 0.693568, -0.520101, -0.374251, 0.653055, 0.382995, 0.004898, 0.073278, 0.147690, -0.303619, -0.683083, -1.511395, 0.219663, 0.142712, -0.290189, 0.194312, 0.380038, 0.378134, -0.518641, 0.317805, 0.115900, -0.000000, -1.432223, 0.175348, 0.266948, -0.994800, -2.344599, 0.374863, -0.404472, 0.411539, -0.886113, 0.186427, 0.445930, 0.334372, -0.011008, -0.438550, -0.364841, 0.092373, -1.061701, 0.313794, -0.000010, 0.481939, -0.723024, 0.602357, -0.024840, -0.315740, 0.224087, 0.025353, -0.191559, 0.085162, -0.435977, -0.168244, -0.064951, 0.000000, -0.136678, 0.036163, 1.134595, -1.199779, 0.273463, -1.511256, 0.680480, 0.366026, 0.319443, 0.016576, -0.178767, -0.927735, 0.084649, 0.591243, 0.743500, 0.477540, -0.072288, 0.022481, 0.209757, -0.224812, 0.632646, 0.062411, 0.383357, -0.231199, 0.068947, -0.046919, -0.284342, -0.456871, -0.165401, -0.134603, -0.115743, 0.000000, 0.513268, 0.355036, -0.003548, -0.387613, -0.153446, -0.543956, 0.469642, -0.402876, 0.513748, -0.580817, 0.164632, -0.649922, 0.469485, -0.413430, 0.203824, 0.604252, 0.190112, 0.303582, -0.155942, 0.479547, 0.680513, 0.132839, -0.320653, -0.377255, -0.005760, 0.040314, -1.234862, -0.033245, -0.105792, -0.571132, 0.986349, 0.000000, 0.266922, -0.608218, 0.445022, -0.436303, 0.827309, -0.279011, 0.616345, 0.590252, 0.891944, 0.613624, 0.491071, 0.389862, -0.319406, -0.423980, 0.782637, 0.488098, 0.168538, 0.230444, 0.040754, 0.468955, -0.047682, -1.629224, 0.278544, -0.857390, -2.000302, -0.767145, 0.000510, 0.754875, -0.108208, -0.167606, -0.650663, -0.000000, -1.095954, -0.110041, -0.344549, 0.104049, 0.288996, -1.540324, -0.313388, -0.346402, 0.456256, -0.503177, 0.153721, -0.112501, -0.241951, 0.270407, -1.140164, 0.662527, 0.535094, -1.597231, -0.381271, -1.472991, -0.764255, 0.424024, 0.176939, 0.079334, 0.158121, 0.351711, -0.009793, 0.022104, -2.075072, 0.377103, -0.249154, 0.000000, -0.002751, -0.197293, 0.415646, -0.579598, -0.417571, 0.306102, 0.206844, -0.098745, -0.621940, 0.370556, 0.305824, -0.205936, -0.209407, 0.151257, 0.200911, -0.246391, -1.489357, 0.281670, -0.000000, -0.014286, 0.451742, -0.852785, 0.145975, -0.372290, 0.021594, -0.449282, 0.548521, 0.144023, -1.284965, 0.010923, 0.204443, -0.000000, -1.031928, 0.336896, -0.331483, 0.367902, -0.541594, 0.785756, 0.055214, 0.225696, -0.236349, -0.489278, 0.536357, -0.275764, -0.143111, -0.471129, -0.586083, 0.073827, 0.008849, -0.443445, -0.103593, 0.483585, -0.290465, -0.275637, -1.690701, -2.029562, -0.277460, 0.574441, -1.208672, -0.061833, 0.086471, -0.602619, -0.246230, 0.000000, -0.234441, -0.820838, 0.253027, 0.243256, 2.108554, 0.264247, 0.485840, -0.034304, 1.138248, 1.292269, 0.404013, -2.325460, 0.976250, 0.438006, -0.776123, 0.217309, 1.321963, -1.188004, -0.853291, -0.087167, -0.077409, -0.583502, 0.144935, -1.752794, 0.181980, 0.058013, 0.450884, -0.505166, -0.314232, 0.393095, 0.521588, -0.000000, 0.393799, 0.671654, -0.089273, -0.114747, -1.177215, 0.824618, -1.174335, -0.258702, 0.373167, -0.095071, -0.027045, -0.237288, 0.100647, -0.008031, -0.838369, -0.130651, -0.329307, 0.766298, -0.113757, -1.299038, -0.060234, -0.370888, 0.226759, -0.268521, -0.211912, -0.588208, -0.056086, -0.372779, 0.548720, 0.338445, -0.705383, 0.000000, 0.274715, 0.236131, -0.534177, 0.092935, -0.124865, -0.797538, -0.890963, -0.366724, -0.169013, -0.437937, -0.208498, -0.132842, -0.881114, -0.169708, -0.025463, 0.032740, -0.423846, 0.286644, -0.008874, 0.340585, -0.179513, -0.405718, -0.080037, 0.070875, 0.668476, 0.233003, -0.021745, -0.538769, 0.272001, -0.172192, -0.263654, -0.000000, 0.438268, -0.418836, 0.397076, 0.397537, 0.472854, 0.501997, 0.111057, 0.146730, 0.027452, -0.094257, -0.349300, 0.256047, 0.022663, 0.400492, -0.577750, 0.183016, -0.197524, 0.007721, -0.394901, 0.322072, 0.141598, 0.489656, -0.636231, 0.327206, -0.073271, -0.111308, -0.079002, 0.048881, -0.437769, -0.438313, 0.550983, 0.000000, 0.096919, -0.205065, -0.295908, -0.394980, 0.499230, 0.231497, 0.464205, 0.373126, 0.307166, 0.165360, 0.332527, 0.366854, -0.245679, -0.130568, 0.852860, 0.173539, 0.392866, 0.358304, 0.040147, 0.295753, -0.167434, 0.418250, -0.338308, -0.395524, 0.375361, -0.642800, -0.551238, 0.060767, -0.909893, -0.377608, -0.101937, 0.000000, -0.287689, -0.045965, 0.252469, -0.252092, 0.627494, -2.699049, 0.688315, -0.008845, 0.029031, 0.705130, -0.160679, 0.073256, -0.715345, -0.255362, 0.351700, -0.048725, -0.260415, -0.183881, -0.082580, -1.228382, 0.497185, -0.447370, 0.413224, -0.621107, 0.203737, -0.244394, -0.422396, 0.911717, 1.791057, -0.065419, -1.178949, -0.000000, 1.146219, 0.795199, -0.895775, 0.449034, -0.170674, -1.121907, -1.229398, -2.508816, 0.273729, -1.086958, 0.205647, -0.025031, -0.370577, -0.090902, -0.000002, -0.263819, -0.252164, 0.383519, -0.029286, 0.420556, 0.143141, -1.761618, 0.560452, -0.280712, 0.044533, 0.079547, 0.234001, 0.101225, 0.116995, 0.183745, -0.554541, -0.000000, 0.216735, 0.144564, 0.376968, 0.126540, -0.553637, 0.109135, -0.268627, 0.016203, 0.099971, 0.133760, -0.008647, -0.144527, 0.101815, -0.227589, -0.108338, 0.365947, -0.351244, 0.297186, -0.042075, 0.162631, 1.251111, 0.269507, -0.858126, 0.419103, 0.002336, 0.478048, 0.068136, -0.605027, 0.040029, -0.478602, 0.196457, 0.000000, 0.475653, -1.289682, 0.062818, -0.446859, 0.572267, 0.554949, 0.072619, 0.382928, 0.295887, 0.271513, 0.222094, 0.706503, -0.158232, -0.690219, 0.356059, 0.361589, 0.730439, -0.174649, -0.030365, 0.022339, -0.882196, 0.765098, -0.106160, -1.264289, 0.299506, -0.559349, -0.842467, -0.407056, 1.350267, -0.254141, 0.778303, 0.000000, 1.654857, -0.546601, 0.825372, 1.001525, -0.224705, 0.052540, 0.798134, 0.247239, -0.507058, 0.254155, -0.383477, -0.433545, -0.112024, -0.009436, 0.638643, -1.182695, -0.246035, -0.077530, 0.191323, 0.460630, -0.755593, 0.530105, -0.568714, -0.285635, -0.468684, 0.104317, -0.157180, 0.096409, 0.814338, -0.807395, 0.437045, 0.000000, -0.000894, -0.039748, 0.430682, 0.483077, -0.568684, 0.259687, -0.226397, 0.006050, 0.819658, -0.000950, -0.158672, 0.332748, 0.110883, 0.080169, -0.644936, 0.341308, -0.222106, -0.391897, -0.432284, -0.763375, 0.192276, 0.235763, 0.144908, -0.012158, 0.086912, 0.061500, 0.587019, 0.393410, -0.125699, -0.934865, 0.030139, 0.000000, 0.042352, -0.239436, 0.170619, 0.453617, -0.361770, -0.366571, 0.321476, 0.260371, -1.390090, -0.020267, -0.843463, 0.165329, -0.107696, -0.494159, -0.335210, 0.608559, -0.647963, 0.111195, 0.199614, -0.531606, 0.183738, -0.429960, -0.152967, 1.004780, -0.033313, 0.316261, 0.883764, -0.025209, 0.515801, 0.175608, -0.402718, 0.000000, 0.382157, -0.033927, 0.046478, 0.639915, -1.198508, -0.058536, 0.133981, -2.141307, -0.377141, -0.094884, 0.116609, 0.439609, 0.036022, -0.292933, -0.575792, 0.577999, -0.111940, 0.121489, -0.423963, 0.576780, 0.858293, -2.110694, 0.001529, -0.022568, 0.363179, 0.423940, 0.602575, 0.058075, 0.195243, -0.013510, 0.798683, 0.000000, 0.639214, 0.024849, 0.089451, 0.208705, -0.252909, 0.274794, 0.327599, 0.588636, -0.007916, 0.638645, -0.460855, 0.989550, 1.071670, -0.149624, -0.826948, -0.250978, 0.343271, -0.058744, -0.441546, 0.225886, -0.419646, 0.262603, -0.306191, -0.650352, 0.114028, -0.101557, 0.316979, -0.586349, -0.750675, 0.124550, -0.093419, 0.000000, -0.189527, -0.441732, 0.206480, -0.189519, -0.250353, -0.026052, -0.167169, 0.133262, -1.620045, 0.231329, -0.397782, -0.479204, -0.324826, 0.250277, -0.074193, -1.301400, -0.057361, -0.075685, -0.167974, 0.410449, 0.761350, -0.505810, 0.140984, 0.091237, -0.074755, 0.294154, 0.211768, 0.337386, 0.434985, 0.608603, 0.134672, 0.000000, -0.145824, 0.564248, -0.490209, 0.013464, 0.135380, -0.086911, -0.253999, -0.199361, 0.052818, -0.004590, 0.828543, 0.775513, 0.414444, -0.588405, -0.027257, -0.056941, 0.152469, -0.342830, -0.030645, 0.014393, -1.039490, -0.954434, 0.355859, -0.880418, -0.082550, 0.270306, 0.437967, -0.128924, 0.133762, -0.984163, 0.097029, -0.000000, -1.087514, -0.874881, -0.677788, 0.423430, -0.661381, 0.299775, 0.451875, 0.367709, -0.602423, 0.018778, 0.322417, 0.282949, 0.531987, -0.192561, -0.400999, -0.297656, 0.111279, -0.309540, -0.000007, -0.043038, -0.365206, -1.894842, -0.594998, -0.033849, -0.544791, 0.356753, -0.378426, -0.133752, 0.021143, 0.025478, -0.604053, -0.000000, 0.268478, 0.384837, -0.103521, -0.171129, -1.134888, 0.331478, -0.288048, -0.078585, 0.067304, -0.120014, 0.244148, -0.144183, -0.161493, -0.604323, -1.332198, 0.094033, -0.194460, -0.378466, -0.123407, 0.563558, -0.055532, 0.199419, 0.117831, -0.024428, 0.176487, 0.072811, -0.910045, 0.807637, -0.157622, -0.840072, 0.053361, 0.000000, 0.354038, 0.394368, -0.035668, -0.419803, -0.410709, -0.218387, 0.878735, 0.473543, -0.333038, 0.255365, -0.382509, -0.065451, 0.291351, 0.293737, -0.084831, 0.378195, -0.249900, 0.510164, 0.226245, 0.611827, -1.400178, -0.317009, -0.093808, -1.114936, -0.226214, 0.130667, -0.840304, 0.213928, 0.278505, -0.606893, -1.209185, 0.000000, 0.026612, 0.237336, 0.412904, 0.218651, -0.923722, -0.310973, 0.360602, 0.182402, 0.778341, 0.676922, -0.490172, -0.738777, 0.057858, 0.186011, -0.721703, 0.145254, -0.411162, -0.017732, -0.433218, -0.002037, 0.298274, -0.434155, 0.788361, -0.315004, 0.468600, -0.133191, 0.204216, 0.647714, -1.268679, 0.446417, 0.412356, -0.000000, -0.161812, 0.315135, -0.209975, -0.650059, -1.097174, -0.334523, 0.236461, -0.538051, -1.845569, -0.727408, 0.201588, -0.380528, 0.451716, -0.204038, -0.413119, 0.372769, -0.159947, 0.445089, 0.200628, 0.600357, -0.323151, 0.367261, -0.159759, -0.924139, 0.207571, -0.016077, -0.265725, -0.158214, -0.747544, 0.352968, 0.158672, -0.000000, 0.480224, 0.062938, -0.246153, -0.107923, 0.790084, 0.037658, 0.162611, -0.179928, -0.501376, 0.197209, -0.037862, -0.246316, 0.168490, -0.105749, -0.060958, -0.260992, -0.094554, -0.445294, 0.368563, -0.707975, 0.017385, -0.037238, 0.211300, -0.302528, 0.125548, -0.416253, -0.066501, 0.425662, 0.416891, 1.049110, -0.996382, 0.000000, 0.071184, 0.833295, 0.714892, -0.719847, 0.173663, -0.908379, -0.647314, -1.363605, 0.319630, -0.985995, 0.024089, -0.305048, 0.235244, -0.753341, -0.000007, -0.064243, -0.564932, 0.462463, 0.000000, 0.033357, -0.048629, 0.036214, -0.076330, 0.497162, -0.131946, -0.350869, -0.129789, -0.284250, 0.169889, -0.572553, 0.478292, 0.000000, -0.169974, -1.282863, 0.106071, -0.517921, -2.273125, -0.150423, 0.152557, -0.273414, -0.826465, -0.444821, -0.319769, -0.309761, -0.236373, 0.104066, -0.056249, -0.079075, -0.402769, -0.114360, -0.022866, 0.541349, 0.870715, 0.387642, -1.027401, -1.402136, -0.145367, 0.768853, 0.359449, -1.867822, 0.672640, -0.736993, 1.026346, -0.000000, 1.002271, -1.252516, 0.169427, 0.007478, 0.017135, 0.056926, 0.535195, 0.255824, -0.867200, 0.822616, 0.856327, 0.249794, 0.294956, 0.065620, 0.761267, -0.182123, 0.086112, 0.319752, 0.036526, -0.266893, 0.999480, -0.902481, 0.271194, 1.170218, -1.575710, 0.599916, 0.430749, 0.299428, 0.467524, 0.339524, 0.203552, -0.000000, 0.493282, 0.482507, 0.026249, 0.701386, 0.338821, 1.082668, -0.054135, 0.597777, -0.293315, -0.104848, -5.007006, 0.489625, 0.274707, 0.126660, -1.032461, -0.766655, -0.271933, -0.614821, -0.763793, -0.098138, 0.165820, -1.190204, 0.529042, 0.341962, 0.352756, -0.626970, 0.470141, 0.994680, 0.222003, 0.088907, 0.428654, -0.000000, -0.523402, 0.152272, -0.527597, 0.209343, -0.083670, 0.290179, -0.158866, -1.301500, 0.222478, -0.792290, 0.657635, 0.313941, -0.412084, -0.510792, -0.655183, -0.220233, 0.206791, 0.462153, -0.055529, 0.592194, -0.257938, 0.438869, -0.917155, 0.480258, 0.115996, 0.130506, -1.084108, -0.124154, 0.340962, -1.077712, 0.214372, -0.000000, 0.581083, -0.134169, 0.802120, -0.101637, 0.613844, -1.321955, 1.042783, -0.101684, 0.287870, 0.895362, -0.261309, 0.109431, -0.174611, 0.387964, 0.012579, 0.654431, -0.249273, -0.563912, -0.890632, -0.081602, 0.306925, 0.625169, -0.644700, 0.153691, -0.535504, 0.097000, -0.009781, 0.128753, -0.763594, 0.221614, 0.397414, -0.000000, -0.555576, -0.193900, -0.257278, 0.078015, 0.256428, -0.155748, -0.114602, 0.123452, -1.124657, -0.081867, -0.740770, 0.593940, 0.289604, 0.271844, 0.137065, -0.120567, -0.100928, -0.401498, 0.239026, 0.085435, -0.178204, 0.768960, -0.960797, -0.794768, -0.369669, -0.258896, 0.618730, -1.045710, -0.726385, -0.357581, 0.672746, -0.000000, -0.136530, -0.878048, -0.323435, 0.818735, -1.009107, -0.314414, 0.591010, 0.678804, -0.870062, -0.017407, -0.212642, -0.494741, 0.444482, 0.524723, 0.772251, -0.090470, 0.211099, 0.138088, 0.140568, 0.461065, -0.627871, -0.073156, 0.048771, -1.437358, 0.180182, 0.133602, 0.190717, -1.435855, -0.794931, 0.199115, 0.191006, 0.000000, -0.370155, -0.621536, 0.439209, -1.879233, 0.498844, 1.270402, -1.960912, 0.380334, 0.352079, 0.361183, 0.034201, -0.077031, 0.538661, 0.506094, 0.050056, -2.320304, 0.414499, 0.878383, -0.260936, -0.008027, -0.205384, 0.818430, 0.048091, -0.145196, 0.360342, 0.111345, -1.539435, 0.103211, -0.350803, 0.732755, 0.280701, 0.000000, 0.495471, -0.433895, 0.237330, 0.314273, -0.250714, 0.318465, 0.103481, 0.344089, -0.370339, 0.389140, -0.222358, 0.196167, -0.039164, -0.168025, 0.260288, -0.098319, -0.176504, -0.498276, 0.001276, -0.062506, 0.480635, 0.694418, -0.470961, -1.481555, 0.179482, -0.200786, -0.195653, -2.568408, -0.187810, 1.009564, -0.519311, 0.000000, 0.403114, 0.166610, -0.268506, 0.579569, -0.535458, -0.233326, -0.196496, -0.246932, -1.041572, -0.624794, 0.356525, 0.315238, 0.181801, 0.152219, -2.239172, 0.144389, 0.435620, -0.151692, -0.911151, 0.948193, -0.454634, 0.180809, 0.293878, -0.930412, -1.320476, -0.715169, 0.142283, -0.217771, -0.166277, -0.660982, -0.600228, 0.000000, -0.905955, -0.247889, 0.119785, -0.121325, 0.693840, -1.735108, -0.377045, 0.196689, 0.408316, -0.013103, -0.361278, -0.028822, -0.312307, 0.231275, 0.587139, 0.943035, 0.754000, -0.946298, -0.169309, -0.033600, 0.094259, -0.586734, 0.866086, 0.180756, -0.017302, -0.270512, 0.225773, 0.368299, 0.752330, -0.029304, -0.103476, 0.000000, 0.055298, -0.564782, 0.461480, 0.097858, 0.054289, -0.414835, -0.487728, -1.639036, 0.858524, 0.096129, 0.169497, -0.274616, 0.770607, 0.443054, -0.276126, -0.447855, 0.227445, 0.596269, 0.000000, 0.066805, -0.520684, -0.123586, -0.154428, -0.255864, 0.464629, -0.360548, 0.224834, -0.096823, 0.287652, 0.544800, -0.086427, -0.000000, -0.310884, 0.402657, -0.014700, -0.908823, 0.188006, -0.416290, 0.285277, -0.707825, -1.366658, -0.346700, -0.671327, 0.114069, 0.288199, 0.033164, 0.026792, 0.051955, 0.016948, 0.334204, 0.060602
};

// Shape: (32,)
static const float B1[32] ALIGN16 = {
    0.706024, 0.359496, 0.487421, -0.218495, 0.251430, 0.515244, 0.436230, 0.207574, 0.168458, -0.463641, -0.159202, -0.116610, -0.047701, 0.040293, -0.272594, 0.059762, 0.135492, 0.189311, 0.706958, 0.459561, 0.129613, -0.022887, 0.390638, 0.086782, -0.206236, 0.366289, 0.329162, -0.222942, -0.330402, 0.177216, 0.261381, -0.633333
};

// Shape: (32, 4)
static const float W2[128] ALIGN16 = {
    -0.623409, 0.364852, -1.073661, 0.234271, -1.895147, 0.453755, 0.612743, -0.178937, 0.921904, -0.246778, 1.180363, -1.016607, -0.006957, 0.957528, 0.232573, -0.311885, -1.165205, 0.248639, 3.306520, -1.856339, -0.020119, -5.435557, 0.027751, 3.957777, -0.813747, 0.232236, 0.361626, 0.250256, -1.030270, -2.061539, 0.974286, -0.296712, 0.656004, -0.180859, 0.982781, -1.534438, 1.357067, -2.006844, -1.386073, 0.553591, -3.065855, 0.565809, 0.357219, 0.435394, 0.397061, -1.885766, 0.210185, 0.594960, -0.000000, -0.000000, -0.000000, 0.000000, -0.532687, -2.060549, 0.142138, 1.229673, 0.302503, -2.371554, 0.783459, -0.141976, 0.165953, -0.559224, -0.448340, 0.368851, 0.725300, -0.170963, -2.177381, -0.049864, 1.176366, 1.104292, -1.688125, -0.863746, 0.304308, -2.774613, 0.661626, 0.017828, 0.042652, 0.152485, -1.443214, 0.205950, 0.495564, -1.198658, -1.597636, 0.849068, 2.036257, 0.696785, -1.007294, -2.246608, -0.320339, -0.585887, -1.027719, 0.940354, -2.012419, 1.618738, -3.570943, -1.055403, -1.368802, -0.552235, 0.893745, -0.027415, -0.501234, 0.282153, -0.223343, 0.395339, 0.390031, 0.182572, -0.720537, 0.084535, 0.324605, 1.372071, -0.192195, -0.948336, 0.407724, 1.218861, -1.899394, 0.062422, -0.438341, 0.412628, -0.641420, -0.099970, -0.287855, -3.320610, -0.343402, 1.077196, 0.736480, -0.088216, -0.000059, -0.747052
};

// Shape: (4,)
static const float B2[4] ALIGN16 = {
    -1.139648, 0.555193, -0.426833, 0.067236
};

// Weight & bias pointers per layer
static const float *WEIGHTS[NUM_LAYERS] = { W0, W1, W2 };
static const float *BIASES[NUM_LAYERS]  = { B0, B1, B2 };

#undef ALIGN16
