// Auto-generated MLP weights + pointers for C inference
// Generated from scikit-learn MLPClassifier

#pragma once

#define ALIGN16 __attribute__((aligned(16)))

#define NUM_LAYERS 3

#define NUM_CLASSES 4

static const int LAYER_SIZES[NUM_LAYERS+1] = { 16, 64, 32, 4 };

#define OUTPUT_SIZE 4

// Convenience macros for selecting code paths at compile time
#if OUTPUT_SIZE == 1
    #define IS_BINARY_CLASSIFICATION 1
    #define IS_MULTICLASS_CLASSIFICATION 0
#else
    #define IS_BINARY_CLASSIFICATION 0
    #define IS_MULTICLASS_CLASSIFICATION 1
#endif

// Shape: (16, 64)
static const float W0[1024] ALIGN16 = {
    -1.020265, 0.362281, 1.232197, -0.207994, -0.184137, -1.607818, -1.630202, 0.809074, -0.177096, 1.171653, -0.684533, 0.748909, 1.835475, 0.066767, -0.089261, -1.038718, -0.268056, -0.443972, 0.217029, -0.064523, 0.038596, -1.506708, -1.860084, 0.311411, -0.660546, 0.333509, -0.089937, -1.072091, 1.190713, 0.795476, 0.663540, -0.450456, 0.491419, 1.292690, 1.064042, 0.467166, -0.175010, 0.447686, 0.973837, 1.061362, -0.618958, 0.223190, 0.103316, -0.196430, -0.298470, 0.340260, 1.089989, 0.008645, 0.654322, -0.600074, 1.474848, -0.036571, 1.158932, 0.237724, 0.485763, 1.093792, -0.786253, -0.916059, 0.018643, -0.256405, 0.455156, 0.253290, 0.331687, 1.457780, -0.054952, -0.230124, 0.135750, 0.184146, -0.420722, 0.223886, 0.307505, -0.277685, -0.506946, 0.334265, 0.240422, 0.229455, 0.364127, -0.503776, -0.448292, 0.048297, -0.033528, 0.332185, -0.591353, -0.557135, -0.132848, -0.519020, 0.111596, 0.204147, 0.355804, -0.065259, -0.358953, 0.495136, 0.074872, 0.181804, 0.054024, -0.051333, -0.156026, -0.027521, -0.130250, -0.389970, -0.313184, 0.078585, -0.320315, 0.170681, 0.130734, -0.545482, -0.071161, 0.415600, -0.362330, -0.339149, -0.291875, -0.417064, 0.376863, 0.164228, 0.203724, 0.205482, -0.197950, 0.178238, 0.569333, 0.097844, 0.254178, 0.369582, -0.136926, -0.137352, 0.054959, -0.274557, 0.006400, 0.287373, -0.788844, 0.247268, -0.218337, -0.038946, -0.318679, 0.206218, 0.610053, 0.012860, -0.313425, -0.316803, 0.020743, 0.375873, 0.085268, 0.404660, 0.164369, -0.053718, -0.088459, -0.468411, -0.049234, -0.184552, -0.501519, -0.115787, 0.315549, -0.863704, -0.209770, -0.220916, 0.537106, 0.052249, -0.382970, 0.224555, -0.211749, -0.226912, 0.215467, 0.060352, 0.299501, 0.084972, -0.273114, 0.372801, -0.276936, -0.295705, -0.206471, 0.329750, 0.107265, -0.750078, 0.075705, 0.191765, 0.711625, -0.329589, 0.052728, 0.049731, 0.129749, -0.093387, -0.072315, 0.169952, 0.395920, 0.236201, -0.160101, -0.061860, 0.243566, -0.310941, 0.175931, 0.063305, -0.017994, 0.018546, 0.309625, -0.012986, 0.049287, -0.119181, 0.587934, 0.446331, 0.515944, -0.138661, 0.447219, -0.599639, -0.070597, 0.271835, -0.186772, -0.129405, -0.838402, 0.018437, -0.733949, -0.392796, 0.048185, 0.261401, -0.015659, -0.132277, 0.404951, 0.185601, -0.046373, 0.118140, 0.306718, 0.260643, -0.149671, 0.038891, -0.057173, -0.063948, 0.408863, -0.344499, 0.452876, -0.125124, 0.563272, 0.150005, 0.278926, -0.056251, 0.065919, 0.316292, -0.499194, 0.402090, 0.218630, -0.171657, 0.035028, -0.158715, 0.154010, 0.287285, 0.477291, -0.047658, -0.593657, 0.511278, -0.258341, 0.534643, 0.281454, 0.321277, -0.317678, -0.025462, 0.789610, -0.134244, -0.204238, 0.535052, 0.668122, -0.177056, 0.076894, -0.037772, 0.161497, 0.447031, -0.353446, 0.252077, 0.362771, 0.266357, 0.270353, 0.011175, 0.004979, 0.157434, 0.420078, 0.360755, 0.584536, 0.402205, 0.181238, 0.044094, 0.410776, 0.317375, 0.070546, 0.575946, 0.338983, -0.081189, -0.061116, 0.249573, 0.256627, -0.364727, 0.021999, -0.085619, -0.144809, 0.216487, -0.281537, -0.114872, 0.381773, -0.215337, 0.021853, 0.129827, 0.176070, -0.188225, 0.169097, -0.126676, -0.146291, -0.070661, -0.131546, -0.171877, 0.082139, 0.325560, 0.287669, -0.215132, 0.345762, -0.172680, 0.168890, -0.516268, -0.065602, 0.333036, 0.018244, 0.443803, -0.384156, -0.001594, -0.150053, -0.309234, -0.276618, 0.574684, 0.352918, -0.321723, 0.303094, 0.117988, 0.631798, -0.188478, -0.107297, -0.480661, 0.018960, 2.261529, -0.443995, -0.541627, -0.586246, -0.246746, -0.011244, -0.860248, -0.423810, -0.765583, -0.114241, -0.901155, -0.249553, -0.176697, 0.028670, 0.194143, 0.308849, -0.555852, 0.034224, 0.708203, 0.019217, 1.715177, 0.358481, -0.647378, -0.288556, -0.311716, -0.657631, -0.179791, -0.141112, 1.428572, 0.241732, 0.287274, 0.141454, 0.181507, 0.608161, 0.013685, 0.082591, 0.071929, -0.158437, -0.081322, -0.905661, -0.069309, 0.539370, 0.348990, 0.103279, 1.045401, 0.480973, -2.188757, 0.206237, -0.478964, -0.366569, -0.054792, 0.317783, 2.418729, 0.113228, 0.157782, 0.000936, -0.243652, 0.176774, 0.096662, 0.402265, 0.221335, -0.208652, 0.157636, -0.160918, 0.234954, 0.119490, -0.025738, -0.408080, 0.207802, -0.632406, 0.247355, 0.172186, 0.118203, -0.220304, 0.291033, 0.116821, -0.603588, 0.341526, -0.060975, -0.044207, 0.320584, 0.410024, -0.010493, 0.003071, 0.130458, -0.002739, -0.293395, 0.334032, 0.166636, 0.122398, 0.093116, 0.060212, -0.199897, -0.388108, -0.127450, 0.304021, 0.300997, -0.161651, -0.395064, -0.904280, 0.390866, -0.112625, -0.554335, -0.269584, 0.029395, -0.117536, 0.018336, 0.169500, -0.096308, -0.212605, 0.465731, -0.096484, -0.142432, 0.287874, 0.249367, 0.303744, -0.004732, -0.171215, 0.178641, 0.376993, -0.424318, -0.795764, 0.019706, -0.004229, -0.137753, -0.568899, 0.025481, -1.383136, -0.242460, -0.206084, 0.600739, 0.458382, -0.644963, 0.649362, 0.649668, 0.185808, 0.989351, 0.473412, 0.754290, -0.108228, 0.381665, -1.070194, -1.041329, -0.217491, 0.315219, -0.387743, -0.664044, 0.603213, -0.355389, 0.607915, 0.214193, 0.122833, 0.766669, 0.271031, 0.681246, -0.514345, -0.834733, -0.872137, 0.988766, 0.895104, 0.414238, -1.032845, -1.093160, 0.314644, 1.592392, 0.199817, -1.230720, 0.076772, -0.092515, 0.995895, 0.061324, -0.367267, 0.085142, -0.880406, 0.420983, 0.751643, 0.744396, 0.418971, -0.351487, -1.522343, -0.192213, 0.273819, 0.563565, -0.078024, -0.348557, -0.251791, 0.222949, 0.518043, -0.101796, 0.197389, -0.353628, -0.062068, 0.417623, 0.116344, 0.384247, 0.251660, -0.488985, 0.015939, 0.083557, 0.424604, 0.590439, 0.684976, 0.009485, 0.352787, 0.330289, -0.013659, -0.364547, 0.044133, -0.362033, 0.174459, -0.072486, 0.000857, 0.388993, 0.211020, -0.245897, -0.271680, 0.177194, -0.014763, 0.040617, -0.293007, 0.170754, -0.143510, 0.288735, 0.276920, 0.130341, -0.352152, -0.559321, 0.026872, 0.448549, 0.111273, -0.462393, -0.244060, 0.036489, 0.203034, -0.063017, -0.113698, -0.075806, 0.239183, -0.353693, 0.287667, 0.274594, -0.347214, -0.081288, -0.086406, 0.329074, -0.281651, 0.614450, 0.114606, -0.070491, -0.367769, 0.265336, 0.235624, -0.129045, 0.061576, -0.471537, -0.557829, -0.286196, -0.166835, -0.218552, -0.311445, -0.175599, -0.263620, -0.030036, 0.297331, 0.079789, 0.183082, -0.090527, 0.039544, 0.035971, -0.232782, -0.304567, -0.353643, -0.031012, -0.046945, -0.032674, -0.001727, -0.146112, -0.101799, 0.114134, -0.288973, 0.085104, -0.209221, -0.365283, 0.024548, 0.232919, -0.446576, -0.202387, 0.076351, 0.342338, -0.306042, -0.505300, -0.345316, 0.244771, 0.096453, -0.475420, -0.053264, 0.191673, 0.121668, -0.152897, 0.051234, 0.104776, 0.018081, -0.006427, -0.034425, -0.083732, -0.347932, -0.433038, -0.338349, 0.143961, -0.189607, -0.761606, -0.019099, 0.020787, -0.381463, 0.337694, -0.040936, 0.247978, 0.311415, 0.476980, -0.277317, 0.427747, 0.056753, 0.487386, 0.437724, -0.254159, -0.066109, 0.210221, 0.256200, 0.103688, 0.071086, 0.515032, 0.315826, -0.069857, -0.359030, -0.256809, -0.087157, -0.672338, -0.007762, -0.173121, -0.336074, 0.250462, -0.792931, 0.229368, -0.042662, 0.671391, -0.195713, 0.080722, 0.280302, -0.039902, 0.201672, -0.016018, -0.090023, -0.249736, 0.301767, 0.151235, -0.070099, -0.071262, 0.062271, -0.137009, -0.078627, -0.060518, -0.490192, -0.120093, -1.142450, -0.212953, -0.131055, 0.110003, 0.137932, 0.055411, -0.043896, -0.251029, -0.054806, -0.136522, -0.128583, 0.309606, 0.289865, 0.441611, -0.061622, -0.041864, 0.210186, 0.041193, 0.111874, -0.673849, -0.048223, 0.155156, 0.213774, 0.081854, -0.385982, 0.025366, 0.143329, -0.584959, -0.386814, 0.000515, 0.313331, 0.213552, -0.019117, 0.753336, 0.071946, -0.106610, -0.634570, 0.126677, 0.243352, 0.327322, -0.031288, 0.403073, -0.037990, -0.167246, -0.223771, -0.511869, -0.504612, -0.018117, -0.144521, 0.310588, -0.042587, 0.541161, -0.157834, 0.142721, 0.395873, 0.066013, -0.680955, 0.242506, 0.222474, -0.032687, -0.179587, 0.369133, -0.004411, 0.075520, 0.123077, 0.214687, -0.027733, -0.414585, -0.599632, -0.060000, -0.392733, 0.201237, 0.211685, 0.053476, -0.056661, 0.147669, -0.136038, 0.189412, -0.058802, -0.189828, 0.286168, 0.048955, -0.313779, 0.193554, 0.054996, 0.082855, 0.055689, -0.000366, -0.621362, 0.024661, -0.568468, 0.289091, 0.175753, -0.120412, -0.213784, 0.329919, -0.084900, -0.243389, 0.109406, 0.252194, -0.201185, 0.310059, 0.359351, -0.043322, 0.022935, 0.377412, 0.229210, -0.328667, 0.269891, 0.069932, -0.067708, 0.111525, 0.492042, -0.028915, -0.152671, -0.326849, 0.581765, 0.276996, -0.250458, 0.097077, -0.265558, 0.216475, -0.119601, -0.334476, -0.275937, -0.107221, 0.344253, -0.443012, -0.021992, 0.010264, 0.027066, 0.482576, -0.077320, -0.141267, 0.249447, 0.019611, -0.054090, -0.185668, 0.102210, -0.097164, 0.120631, 0.721340, 0.528807, -0.263916, -0.299522, -0.180345, -0.792391, 0.207435, -0.019091, 0.218310, -0.254187, 0.179432, -0.496499, 0.635051, -0.374295, 0.664419, -0.052363, 0.314359, -0.617903, 0.512128, -0.244994, 0.168624, -0.337098, 0.195785, -0.080177, 0.298068, 0.213286, 0.049332, 0.190499, -0.358403, 0.379279, 0.212532, -0.404485, 0.060047, 0.554724, 0.747058, 0.137042, -0.703733, 0.288695, 0.179889, 0.011769, -0.294462, 0.203808, 0.445374, 0.004466, -0.205559, 0.149981, 0.383127, -0.086810, 0.341004, 0.351753, 0.199023, -0.116107, -0.584110, -0.029581, 0.478370, 0.266746, 0.246542, 0.499417, 0.414895, 0.428472, -0.247187, 0.206616, 0.240683, -0.575367, -1.417695, -0.358355, 0.009271, 0.218348, 0.179647, 0.509761, 0.343911, -0.399582, 0.116264, -0.702817, 0.044233, 0.850718, -0.764672, 1.291220, -0.354017, -0.348315, -0.180809, 0.185622, 0.146086, 0.611337, -0.893861, 0.266470, -0.832427, 0.676386, 0.075081, -0.764401, -1.483803, -0.512727, -0.006999, -0.025948, -0.974834, 0.098664, -0.003422, 0.217000, -0.994277, -0.573113, -0.161137, -0.575990, 0.028278, -0.166227, 0.004733, 0.030669, -0.684439, -0.029006, 1.043256, -0.419944, -0.833227, -0.740563, -0.138268, 0.651898, 0.037724, 0.285316, 0.286575, -0.576107, 0.208497, 0.290907, 0.141748, -0.518903, -1.753262, -1.401180, 0.324781, -0.015712, 0.442828, -0.160043, 0.241179, -0.027611, 0.049878, 0.116227, -0.252528, -0.052828, -0.253187, 0.201108, 0.557122, -0.138630, 0.030155, -0.137951, -0.092036, 0.062494, -0.471069, 0.045753, -0.021275, -0.302719, 0.058058, -0.148434, -0.275286, 0.168804, 0.135769, 0.383930, 0.041993, -0.261914, 0.344655, 0.347469, 0.353649, 0.449933, -0.074150, -0.206437, -0.292788, 0.315334, -0.190460, 0.184101, -0.107622, 0.131953, 0.336617, 0.399311, -0.037715, 0.458074, 0.390793, 0.271877, 0.107996, -0.271108, 0.210062, -0.254178, 0.686849, 0.963380, -0.263423, 0.099337, 0.127965, 0.189966, -0.232243, 0.351191, -0.257119, 0.074878, 0.358829, 0.611132, 0.660630
};

// Shape: (64,)
static const float B0[64] ALIGN16 = {
    -0.418351, 0.141887, 0.349145, -0.440019, -0.758665, 0.015144, -0.277808, 0.216239, -0.228366, 0.048690, -0.751169, 0.197576, 0.257161, 0.255597, -0.207216, -0.738543, 0.066458, -0.083093, -0.003392, 0.314805, 0.607731, -0.234312, -0.560729, -0.331230, -0.146537, -0.829608, 0.179666, -0.410135, 0.698876, 0.221556, 0.679522, 0.044105, 0.405609, 0.361999, 0.267043, 0.280473, -0.148280, 0.384028, 0.258157, 0.478206, -0.617970, 0.664212, 0.003168, -0.194080, -0.380905, -0.438978, -0.027473, 0.028350, -0.347345, -0.846497, 0.662388, -0.526047, 0.421556, -0.229508, 0.179213, 0.848575, -0.337734, -0.699298, 0.403871, 0.139501, 0.211464, 0.048776, -0.453120, 0.123019
};

// Shape: (64, 32)
static const float W1[2048] ALIGN16 = {
    0.653579, -0.333509, 0.408526, 0.432578, -0.111144, 0.223932, -0.061510, -0.130269, -0.081846, 0.000000, 0.372984, -0.121644, 0.123481, 0.662580, 0.118011, 0.415968, 0.054290, 0.350035, -0.189533, 0.293647, -0.740659, 0.654397, -0.054592, -0.157331, -0.968081, 0.199645, 0.764793, 0.303959, -0.197311, 0.204618, -0.004621, -0.030276, -0.204059, -0.118034, -0.436828, 0.008261, 0.106672, 0.051962, -0.128731, -0.038343, -0.162291, 0.000000, -0.115072, -0.506137, -0.265241, -0.154160, 0.926242, -0.779263, 0.276440, -0.249105, -0.187997, -0.218227, -0.444516, -0.274986, -0.134690, 0.002191, 0.090282, 0.152549, -0.323077, 0.094447, -0.071161, -0.016758, -0.141461, 0.046245, -0.492238, -0.169886, 0.056987, 0.354924, -0.061479, 0.242072, 0.230315, -0.288150, 0.261117, 0.000000, 0.084649, 0.098733, -0.312076, -0.117966, 0.347850, 0.133253, -0.759324, -0.098920, 0.076397, -0.342823, 0.125419, -0.635231, 0.213504, -0.147037, 0.123154, 0.258796, 0.038862, -0.359263, 0.320940, -0.061987, 0.083963, 0.001451, -0.046525, 0.970348, 0.108597, -0.537881, 0.258104, 0.955365, 0.142951, 0.991637, 0.119877, 0.000000, 0.276959, 0.195574, -0.362506, 0.509425, 0.346544, -0.171613, 0.140940, -0.285742, -0.315073, 0.109506, -0.203562, 1.069020, -0.482533, -0.105046, 0.409670, 0.354573, -0.901027, -0.162903, -0.529813, -0.193142, -0.033541, -0.213881, 1.114940, -0.067684, 0.668528, 0.379967, 0.599708, -1.020405, -0.401622, 0.355944, -1.058703, -0.000000, -0.908287, 0.044105, 0.688163, 0.299119, 0.041910, 0.390138, 0.861064, 0.579021, -1.937951, 1.225857, -0.058943, 0.696733, -0.484971, 0.682136, 0.813601, 0.580329, 0.471419, -0.287840, -0.257270, -0.577618, -0.923494, 0.238725, 0.839148, 0.317234, 0.396745, -0.249914, 0.129867, -0.214289, -0.063767, -0.431164, -0.369557, 0.000000, -0.327337, 0.318150, -0.204814, 0.845583, 0.144188, 0.111637, -0.206368, -0.299569, 0.312171, 0.245927, 0.034550, 0.148273, -0.065144, 0.524417, -0.112969, 0.002745, 0.289777, -0.230167, -0.155954, 0.031063, -0.385282, -0.296937, 0.297864, -0.120699, 1.125443, -0.360487, 0.579002, -0.510234, -1.055979, -0.082800, -0.591131, 0.000000, -0.391618, -0.094739, 0.112584, 0.367350, 0.289943, 0.079709, 0.078158, 0.260080, 0.140770, 0.302455, -0.913801, 0.325289, -0.789833, 0.545528, 0.044118, 0.213601, -0.193898, 0.018119, -0.381425, -0.103869, -1.378509, 0.260701, 0.079193, -0.253553, -0.248469, 0.452659, -0.237887, -0.156933, -0.194609, -0.454543, -0.251536, -0.000000, 0.206489, 0.243065, 0.073363, -0.217071, 0.023648, -0.062158, 0.159110, 0.186925, 0.129711, -0.020790, -0.089529, -0.284903, 0.040471, 0.086433, -0.024173, -0.241947, 0.212301, -0.470010, 0.199761, -0.009988, 0.242283, -0.700108, 0.348068, -0.487999, 0.175153, 0.372597, -0.721990, -0.075656, 0.137585, -0.227229, -0.228729, -0.000000, -0.201870, 0.142594, 0.750703, -0.108326, -0.033246, 0.287616, 0.506809, 0.479192, 0.171452, 0.316478, 0.796350, 0.059829, -0.040250, 0.375808, -0.276051, 0.075880, 0.858477, -0.572702, 0.584741, -0.051474, -0.475480, -0.065145, -0.216063, -0.722192, -0.149526, 0.725711, 0.183960, 0.198029, 0.226128, -0.375901, 0.301148, 0.000000, 0.445032, -0.088203, 0.407419, -0.572821, -0.688911, 0.436572, -0.161911, 1.051645, -0.520206, 0.486930, 0.265914, -1.086464, 0.154727, -0.193419, -0.077444, -0.225249, -0.331386, 0.059836, 0.303251, 0.298694, 0.602197, 0.183792, 0.585074, 0.496554, 0.267878, -0.039071, 0.053044, -0.334152, -0.104163, -0.384524, -0.547764, -0.000000, -0.301714, 0.552537, -0.081084, 0.249757, -0.192823, 0.055699, 0.700324, 0.586566, -0.876622, 0.339461, 0.171081, 1.220790, -0.756910, 0.463888, -0.063635, 0.346055, -0.631102, -0.405820, -0.736275, -0.493278, -0.375111, 0.770289, -0.080910, -1.057731, 0.143130, 0.061779, 0.124933, -0.562204, -0.185892, 0.563169, 0.244072, -0.000000, -0.084972, 0.075714, 0.133514, -0.291936, -0.387920, 0.155720, -0.395052, 0.075196, 0.131671, -0.518600, 0.034708, -0.079919, 0.016226, 0.002339, 1.148240, -1.583615, 0.148068, 0.354408, 0.978591, 0.527656, 0.276663, -0.428820, -0.530214, 0.168679, -0.826532, 0.772954, 0.083182, 0.699452, 0.684770, -0.793052, 0.410354, 0.000000, 0.047566, -0.033634, -0.065839, -0.758728, -0.401671, 0.457709, -0.807628, 0.295622, -0.039175, -0.226579, 0.118559, -1.098088, 0.545924, -0.301595, 0.198744, -0.001580, -0.433450, 0.159471, 0.370071, 0.432430, 0.119342, 0.014201, 0.053964, -0.291925, -0.059641, 0.487794, 0.012184, 0.042231, -0.064884, 0.060539, 0.173603, 0.000000, -0.238928, -0.023148, -0.167763, 0.434338, -0.075172, 0.341315, -0.322709, 0.620564, -0.339830, -0.923456, -0.562198, -0.550402, -0.099593, 0.077531, 0.631383, 0.049523, 0.152432, -0.090851, 0.295540, -0.018911, -0.273925, 0.249884, -0.240536, -0.877495, 0.275405, 0.706666, 0.201034, -0.895830, -0.659592, -0.335530, 0.102127, 0.000000, -0.036039, 0.033715, 0.001734, -0.236037, 0.200722, 0.776724, 0.358278, 1.049837, 0.131549, -0.657339, 0.474766, -0.435295, 0.134639, 0.362941, -1.357034, -0.276201, 0.599186, 0.095952, 0.420521, 0.078913, -0.013059, -0.088810, 0.677572, 0.722583, -0.363113, -0.657692, 0.404786, 0.505313, 0.418487, -0.114477, -0.439667, -0.000000, 0.065978, 0.226219, -0.730321, 0.382447, -0.132862, -0.288552, 0.712284, -0.757397, -0.827638, 1.039497, -0.154140, 1.490185, -0.863659, 0.530230, -0.015356, 0.767342, -0.613396, -0.078124, -1.055984, -0.447600, -0.143040, 1.122022, -0.239798, -1.284275, 0.478150, 0.252142, -0.173136, -0.934489, -1.007313, -0.166014, -0.123895, -0.000000, -0.037504, 0.101234, 0.082807, -0.298826, -0.488981, 0.461095, 0.514692, 0.504930, -0.339759, -0.129258, 0.366754, -0.518810, 0.102209, 0.397149, -1.460091, -0.026536, 0.208035, 0.410795, -0.052352, 0.062697, 0.047936, -0.068107, 0.442789, 0.109479, -0.242322, 0.001005, 0.118733, 0.458552, 0.380669, -0.282718, 0.464283, 0.000000, 0.553414, -0.172219, -0.420708, 0.526990, -0.586759, 0.062917, 0.206565, 0.278879, -0.459367, 0.742445, -0.211689, 0.445036, -0.352080, -0.134193, 0.001891, 0.495379, -0.709501, 0.156001, 0.120930, 0.502174, 0.231243, 0.377851, 0.066011, -0.020998, -0.593712, 0.632682, -0.268522, 0.774038, 0.535367, 0.102490, 0.322853, -0.000000, 0.230557, -0.295262, -0.043776, -0.515907, -0.070702, -0.106994, -0.464775, 0.543374, 0.026028, -0.245400, -0.454853, -0.065831, 0.025356, -0.232606, 0.305211, 0.261235, -0.543368, -0.058731, -0.053596, -0.073044, 0.092325, 0.232704, -0.754834, 0.065785, -0.163956, 0.634785, 0.210837, 1.057802, 0.801311, 0.328375, 0.066427, -0.000000, 0.327303, -0.486979, 0.032333, -0.438074, -0.482295, -0.307474, -0.612385, 0.410704, -1.229169, 0.358056, -1.282161, -0.540259, 0.386616, -0.566163, -0.081694, -0.076970, -0.032482, -0.383210, 0.361658, 0.072340, -0.181211, 0.810878, 0.074942, -0.460725, 0.157053, 0.548385, -0.206591, 0.101452, -0.507992, -0.261432, 0.127255, 0.000000, -0.104225, -0.253969, 0.551203, 0.274192, -0.187249, 0.007864, -0.125779, 0.097586, -0.008116, -0.553687, 0.168199, -0.405920, 0.167099, -0.235693, -1.221488, 0.306730, 0.762653, -0.189937, 0.453453, 0.167967, -0.285779, 0.276885, 0.234533, 0.959222, -1.779512, -0.188777, 0.221605, 0.751658, 0.328095, 0.115793, 0.187176, 0.000000, 0.071652, -0.123505, -0.037725, 0.642216, -1.007042, -2.026551, -0.144949, 0.093604, -0.563856, 0.376382, -0.904782, 0.255401, -0.576248, 0.029047, 0.249598, 0.286426, -0.964073, 0.159476, -0.540604, -0.102617, -0.366990, 0.193057, 0.727099, 0.236914, 0.124746, -0.370229, 0.191526, -0.370484, -0.447031, -0.310778, -0.373436, -0.000000, -0.349532, 0.314081, -0.423189, 0.873432, 0.427770, -0.268783, -0.018353, -0.273875, 0.083814, 0.741705, -0.505697, 0.700236, -1.029284, 0.780650, -0.040644, -0.111260, 0.148781, -0.236950, -0.520771, -0.786383, -0.766463, -0.128991, -0.800497, 0.449169, -0.776014, -0.104404, -0.533891, 1.372687, 0.564966, 0.147164, 0.613327, 0.000000, 0.965173, 0.029577, -0.915882, -0.317277, 0.158498, -0.541362, -1.376868, -0.034021, -0.595014, -0.546106, -1.719137, 0.393415, -0.490118, -0.730592, -2.234080, -0.821891, 0.044990, 0.547206, 0.135320, 0.408668, 0.211580, -1.400101, 0.503145, -0.066701, 0.459021, 0.084775, 0.172094, -0.257385, -0.497765, -0.853605, 0.077209, -0.000000, -0.415170, -0.117669, -0.023574, 0.523417, -0.333614, 0.289243, 0.191763, 0.494701, 0.438033, 0.113812, -0.029969, 0.403795, -0.115786, 0.301012, -0.552595, 0.345302, 0.183070, 0.262585, -0.209870, -0.060891, -0.189024, -0.165564, 0.932663, 0.557721, 0.227390, -0.078296, 0.384141, -2.344521, -0.450594, 0.482441, -0.175731, 0.000000, -0.592912, 0.390832, 0.035210, 0.092849, 0.219278, -0.141433, 0.613271, 0.133904, 0.175865, 0.552338, -0.502051, 0.619574, -0.521027, 0.453204, 0.873386, 0.004376, -0.192147, 0.254694, -0.059674, -0.250270, -0.278049, -0.258340, -0.178175, -0.192069, 0.112962, -0.024880, 0.327384, -0.526878, -0.361447, 0.172077, 0.119418, -0.000000, 0.253861, 0.007134, 0.082827, -0.413507, 0.217461, 0.435454, -0.070486, 0.346434, 0.312234, 0.027953, 0.077055, -0.217577, 0.392327, 0.176153, 0.150658, -0.151359, -0.067666, 0.015113, -0.033826, 0.127248, -0.184940, -0.679404, 0.690821, 0.446540, 0.246397, -0.327757, 0.247019, -0.135849, 0.059785, -0.208290, -0.257065, 0.000000, 0.250247, 0.067074, -0.472493, 0.406782, -0.069178, -0.102050, -0.063585, -0.167771, -0.500507, 0.502701, -0.602394, 0.273391, -0.086588, 0.346818, -0.661420, 0.079182, 0.059019, 0.767916, -0.170909, 0.316418, -0.087866, 0.213435, -0.529356, 0.436367, -0.697122, 0.146334, 0.047972, 0.540782, 0.505940, -0.404338, 0.264174, 0.000000, 0.353097, 0.158160, 0.251152, -0.380910, -0.785061, -0.346699, -1.571121, -0.284560, 0.367190, -0.573917, -0.666975, -0.354864, 0.378194, -0.136068, -0.538682, 0.077563, -0.203973, 0.067067, 0.533524, 0.108432, 0.535977, -1.221766, -0.459155, 0.515760, -0.260834, -0.353369, 0.238031, 0.117995, 0.616569, -0.076116, 0.129256, 0.000000, 0.196787, 0.196570, -0.580065, -0.069504, -0.079332, 0.040314, -0.115610, -0.032536, 0.486589, -0.785695, 0.050824, 0.163833, -0.253342, -0.260050, 0.710655, -0.220350, -0.846460, -0.943030, -0.250772, -0.345677, 0.275175, -0.202137, -0.550167, 0.100958, -0.050157, -0.137473, 0.085783, 0.193815, 0.504795, 0.510408, 0.277041, 0.000000, 0.237618, 0.061307, -0.309120, -0.116041, 0.180678, -0.084652, -0.384729, -0.384610, -0.425337, -0.637854, -0.047055, -0.058177, 0.256482, -0.145124, -0.083377, 0.334594, 0.113910, 0.386584, 0.014878, 0.248730, 0.489661, 0.396700, -0.210872, -1.059224, 0.250422, 0.443266, 0.318645, -0.573023, -0.814741, 0.172321, 0.046313, 0.000000, -0.038357, 0.332552, 0.002956, -0.067855, -0.293113, 0.303347, 0.139172, 0.320909, 0.494088, -0.295169, -0.360481, -0.173714, -0.206626, 0.359199, 0.159730, -0.017708, 0.497078, 0.577603, 0.058114, 0.290671, -0.372027, -0.230540, 0.106135, -1.315004, -0.114674, -0.303126, 0.075059, -0.354300, -0.202073, 0.219855, -0.056825, -0.000000, 0.131310, -0.171772, -0.142980, 0.062605, 0.372133, -0.186409, -0.490140, -0.525423, -0.840063, -0.899273, 0.136774, -0.204291, -0.341981, 0.417485, -0.670337, 0.017339, -0.053577, 0.118698, 0.029917, -0.047414, 0.070199, 0.223164, -0.374243, 0.499903, -0.385262, 0.001327, -0.057636, 0.966550, 0.416216, -0.336307, 0.441818, -0.000000, 0.277619, -0.076753, -0.148378, -0.224501, -0.151644, -0.070251, -0.316742, -0.040358, -1.404230, -0.589170, 0.272615, -1.376799, 0.569686, -0.657604, -0.263197, -1.239047, -0.042092, -0.168495, 0.262427, 0.576785, 0.499277, -1.001646, -0.374890, -0.442276, 0.191702, 0.138533, 0.382423, -0.313691, 0.269575, -0.349750, 0.099045, 0.000000, 0.559780, -0.077025, 0.087752, -0.264494, 0.130626, 0.231345, 0.406321, 0.229186, -0.241528, 0.230807, -0.450702, -0.315102, 0.244625, -0.189404, 0.515735, -0.313405, -0.351895, -0.453567, 0.090004, 0.407331, -0.081248, 0.056483, -0.274100, 0.360515, -0.689483, 0.392170, 0.028062, 0.404500, 0.291784, 0.254943, 0.120576, -0.000000, 0.274436, -0.116058, -0.285218, -0.243112, -0.307938, -0.841245, -0.439688, 0.042407, -0.022231, 0.187022, 0.096777, -0.725023, 0.096927, -0.540469, 0.668480, 0.117131, 0.013326, -0.005496, 0.308140, -0.024363, -0.133957, 0.134588, 0.009176, -0.327184, -0.007320, 0.364059, 0.547172, 0.458631, 0.128856, 0.406885, 0.201157, 0.000000, 0.286309, -0.307986, 0.514365, -0.066604, 0.029417, -0.175067, 0.053822, 0.367806, -1.001071, 0.512068, -0.514326, 0.280648, -0.180645, -0.310946, -0.152001, 0.351176, -0.270663, 0.229550, 0.062597, 0.121539, -0.130011, 0.267656, 0.107324, 0.428954, -0.013863, -0.295777, 0.530844, 0.213434, 0.552333, 0.306097, 0.223497, 0.000000, 0.654182, -0.397821, -0.418881, 0.107438, 0.321907, -0.291539, -0.051295, -0.212404, 0.308912, 0.186318, -0.050926, -0.126233, 0.004626, -0.325539, 0.194678, -0.265980, -1.068848, -0.142115, 0.201671, 0.487558, 0.259917, -0.433560, -0.005187, -0.675196, -0.574353, 0.451409, -0.322136, -0.301199, 0.025446, -0.098272, -0.097153, 0.000000, 0.174032, -0.278484, 0.116952, -0.349911, 0.073232, 0.015590, 0.484910, 0.074083, 0.187083, -0.304531, 0.223519, -0.328292, 0.410330, -0.287945, 0.270408, -0.503580, 0.111143, -0.135639, 0.210283, 0.118510, 0.083170, -0.481510, -0.582892, -0.460196, -0.294564, -0.013692, 0.111704, -0.261394, -0.226637, -0.285478, 0.356822, 0.000000, 0.030395, -0.062283, 0.022277, -0.537205, 0.192074, 0.369989, -0.618243, 0.224007, 0.396063, -0.997483, 0.025852, -1.111692, 0.421007, -0.242861, -0.383835, 0.373918, 0.180410, -0.046491, 0.382379, -0.155619, 0.400285, -0.002439, 0.326435, 0.407498, 0.202834, 0.076488, 0.000125, 0.118715, 0.302436, 0.147602, -0.245356, -0.000000, 0.022535, 0.229049, 0.165892, 0.630214, 0.390823, 0.146311, 0.198335, 0.249705, -0.041389, 0.289800, 0.043516, 0.655799, -0.476656, 0.035456, -0.029992, -0.027928, 0.233956, -0.616438, -0.270208, -0.577368, 0.222260, 0.163109, -1.041026, -0.358563, -0.178272, -0.050897, 0.150270, 0.586245, 0.267139, 0.684841, 0.637054, 0.000000, 0.958339, -0.354017, -0.297608, -0.586468, 0.172745, 0.238215, -0.554259, -0.381734, -1.454838, 0.276856, -1.300287, -1.026580, 0.373069, -0.608774, -0.075045, 0.180991, 0.169188, 0.256547, 0.110534, 0.441513, 0.295578, 0.450001, -0.108392, 0.757987, 0.031491, 0.047700, -0.716286, 0.067302, -0.439204, 0.005969, -0.081063, -0.000000, -0.132398, -0.466399, 0.125006, -0.033800, -0.736167, -1.124026, -0.190934, -0.379811, 0.392799, 0.388617, 0.104880, -0.158829, -0.580816, -0.080456, -0.086218, 0.147963, -0.167781, -0.039805, 0.162613, 0.117180, -0.036629, 0.267515, -0.037477, 0.009238, 0.090284, -0.377403, 0.259242, 0.054272, -0.232403, -0.006617, 0.116618, 0.000000, -0.090327, 0.075496, -0.256485, 0.180874, -0.185876, 0.013386, -0.984740, 0.181512, -0.006889, -0.484154, -0.084449, 0.120114, -0.013115, 0.247595, -0.373807, 0.037433, -0.192827, 0.020603, 0.188334, 0.007378, -0.848062, 0.112871, 0.530580, 0.305786, 0.333652, 0.061378, 0.240812, 0.160723, 0.218550, 0.703686, -0.113366, 0.000000, 0.422682, 0.170873, 0.222874, 0.402990, 0.128527, 0.249058, 0.331218, 0.171619, 0.133854, 0.283791, 0.436209, 0.465278, -0.474785, 0.310349, 0.369590, 0.024124, -0.110348, -0.089791, -0.047608, -0.369204, -0.085696, -0.204366, -0.474745, 0.789815, 0.092414, 0.086886, 0.116428, 0.137271, 0.596560, 0.959452, 0.115034, 0.000000, 0.260100, 0.294854, 0.014345, 0.160826, 0.359137, 0.150496, -0.389872, 0.351860, -1.696817, -1.048333, -0.002245, 0.367745, -0.392285, -0.127677, 0.373461, 0.212050, -0.453888, 0.039441, -0.160568, -0.325746, -0.088609, -0.065968, -0.361058, 1.205878, -1.757272, -0.595352, 0.032707, 0.764558, 0.854644, 0.320342, 0.305368, -0.000000, 0.293140, -0.041739, -0.322645, -0.937677, -0.215316, -0.252485, -0.347911, -0.567419, -1.138970, -0.540771, 0.222064, -0.006299, 0.731882, -0.234375, -0.359066, -0.433873, -0.346019, 0.044363, 0.364197, 0.502280, 0.478241, -0.344015, -0.485298, -1.700890, -3.758402, 0.179545, -4.520508, -0.047513, 0.238120, 0.062942, 0.285677, -0.000000, -0.076849, -4.537445, 0.208622, -0.644231, -4.932431, 0.647716, 0.663814, -0.260536, 0.174269, 0.165875, -0.394257, 0.352860, 0.423357, -4.005132, 0.659287, -0.181105, 0.594995, 0.119055, 0.242424, 0.280438, 0.548013, 0.214583, -0.133756, 0.276660, -0.052368, 0.099511, 0.057573, 0.209754, 0.082028, -0.244617, -0.023455, 0.000000, 0.084353, 0.222893, 0.133893, 0.108812, 0.448717, 0.412378, -0.463457, 0.121238, 0.441272, 0.136037, -0.374887, -0.064734, 0.398165, 0.003864, -0.046900, 0.020090, -0.230641, -0.211997, 0.062848, -0.024724, 0.345233, -0.000000, 0.588234, 0.814427, 0.103778, -0.024458, 0.369109, 0.351279, -0.033741, -0.492954, -0.331802, 0.000000, -0.230912, 0.563659, -0.160776, 0.436249, 0.306705, -0.056315, 0.553388, 0.135208, 0.119563, 0.236189, 0.145070, 0.857905, -1.356572, 0.502674, 0.103321, 0.631359, -0.735788, -0.701329, -0.788779, -1.209754, -0.403807, 0.591381, -0.230828, 0.054708, 0.074844, 0.293152, -3.782407, 0.092803, 0.500709, -0.300311, 0.349327, 0.000000, 0.481395, 0.202239, 0.307432, 0.027599, -0.212247, 0.089109, 0.235309, 0.187901, 0.041971, -0.108971, 0.099218, -0.630795, 0.625293, -0.327595, -0.026399, -1.585581, 0.031661, -0.074572, 0.587837, 0.658851, 0.669224, -1.387398, 0.000000, -0.018535, 0.072371, 0.100669, 0.003192, 0.407856, -0.227746, 0.292204, 0.316837, 0.000000, 0.310046, -0.035982, -0.020924, 0.000131, -0.004761, 0.043444, 0.014015, 0.745635, 0.207643, 0.000000, -0.000000, 0.000000, 0.242490, -0.071360, -0.115293, -0.134753, -0.054123, 0.139838, 0.268188, 0.212698, 0.123603, -0.146919, -1.104277, -0.830173, -0.577020, -0.380174, 0.137754, -0.556713, -0.507143, 0.395301, -0.238950, -0.000000, -0.128457, -0.264999, -0.480011, -0.512340, 1.400972, -1.350003, -0.198210, -1.181728, -0.589226, -0.463884, 0.568747, -0.103988, -0.324089, -0.066349, -0.557643, -0.182222, -0.874084, 0.043340, -0.499275, 0.076070, 0.289330, 0.044719, -0.089502, -0.095977, 0.537455, -0.029557, -0.047327, 0.258275, 0.503531, -0.223246, 0.215761, 0.000000, 0.165573, 0.036350, -0.106094, -0.310117, 0.305884, 0.073923, -0.078640, 0.477808, 0.890967, 0.186085, -0.262345, 0.030139, 0.065737, -0.195034, -0.015991, 0.026079, -0.216888, -0.376305, 0.106103, -0.171065, 0.115839, -0.013958, -0.351312, -0.895341, -0.448434, -0.124995, -0.335042, -0.118440, 0.104373, -0.314584, 0.024964, 0.000000, 0.251865, 0.029457, -0.218597, -1.377422, -0.453867, 0.327766, -0.077432, 0.437532, 0.468244, -0.077975, 0.555423, -0.798009, 0.448188, -0.077556, -0.143537, 0.131619, -0.015442, 0.584039, 0.132003, 0.105821, 0.252313, -0.343526, -0.509415, -0.557621, 0.321707, -0.215365, -0.354016, 0.071232, 0.148830, -0.230761, -0.079331, 0.000000, -0.119821, -0.105642, 0.077572, -0.736814, 0.634821, 0.296923, -0.255507, 0.102068, 0.631306, -0.521433, -0.998662, -0.915835, 0.509931, 0.195539, 0.592647, -1.351203, 0.142953, -0.597171, 0.131203, -0.154444, 0.550713, -0.451130, 0.251654, 0.348972, 0.149655, -0.174639, -0.008240, 0.202503, 0.064622, -0.041007, -0.068324, 0.000000, -0.175360, 0.191459, 0.290475, 0.401893, -0.007739, 0.553548, 0.133412, 0.093954, 0.369530, -0.072103, -0.348529, 0.425927, -0.208985, 0.249195, -0.014921, 0.159034, 0.415509, -0.945127, -0.062081, -0.335225, -0.195713, -0.006848, 0.270394, 0.471021, -1.500404, 0.042951, 0.450321, 0.600068, -0.238183, -0.274632, -0.084118, 0.000000, 0.590001, -0.777751, -0.119877, 0.312238, -1.201751, 0.221448, -0.096047, 0.514209, -0.046300, 0.944923, -1.854680, 0.588883, 0.113977, -0.429178, 0.216247, 0.084461, -0.449609, 0.363033, -0.041787, 0.309441, -0.899898, -0.231802, -0.214481, -0.218832, -0.239869, 0.038093, -0.298492, 0.099619, -0.208147, 0.505653, 0.115957, 0.000000, 0.238149, 0.141738, -0.313252, 0.034109, 0.185091, -0.077572, -0.280411, -0.472408, -0.642287, 0.148618, 0.498936, -0.089546, 0.140354, 0.139623, -0.651923, -0.173343, -0.226817, -0.092515, 0.058781, 0.187437, -0.112199, -0.037354, 0.162063, -0.555219, 0.093143, 0.278422, 0.167149, -0.013363, 0.022068, -0.027238, 0.072928, 0.000000, -0.006294, -0.050876, 0.011592, 0.503567, -0.540093, -0.112085, -0.294616, -0.331460, -0.960050, -0.192947, -0.100120, -0.172279, -0.303032, 0.200446, -0.384200, 0.305067, 0.181276, 0.074582, 0.047547, 0.217411, 0.203822, 0.152356, -0.083585, -0.235068, -0.160977, -0.465843, 0.628244, 0.117790, 0.780309, 0.325570, 0.260438, 0.000000, 0.448721, -0.270893, -0.277304, -0.191173, 0.315973, -0.256113, 0.103677, -0.063305, 0.377690, 0.467991, -1.140826, -0.177059, 0.132885, -0.235839, 0.523019, -0.479735, -0.500314, -0.477829, -0.089607, 0.491034, 0.182586, 0.130656, -0.586924, 0.596674, -0.238997, -0.375644, 0.351988, 0.464130, 0.614941, 0.406824, 0.126824, -0.000000, 0.085287, 0.096607, -0.232571, -0.439757, 0.180490, 0.070107, -0.201816, -0.576929, -2.032486, -0.462353, -0.102877, 0.337568, -0.007166, 0.074187, 0.266143, -0.015538, -0.363239, 0.291110, -0.182460, 0.101102, 0.330107, 0.120495, 0.059179, 0.221069, 0.445469, 0.114758, 0.388760, -1.003471, -0.074174, 0.509113, 0.061238, 0.000000, -0.206102, 0.376267, -0.518976, 0.003813, 0.260285, -0.467428, 0.594012, -0.326234, -0.212416, 0.099085, -1.160515, 1.296960, -1.217986, 0.264847, 1.265171, -0.224598, -1.573649, 0.035022, -1.138488, -0.839614, -0.010199, -0.051175, -1.475039, -0.413272, -1.243680, -0.277933, -0.768991, -0.551948, 0.164090, 0.321807, -0.095505, 0.000000, 0.035165, 0.020532, -0.043421, -1.089601, -1.274469, -0.059802, -1.851428, -0.057590, -0.486813, -1.331414, -0.368640, -1.245832, 0.447480, -0.401465, 1.232016, -0.260370, 0.046879, 0.626689, 0.919286, 0.266523, 0.102535, -0.848224
};

// Shape: (32,)
static const float B1[32] ALIGN16 = {
    0.079682, 0.124994, 0.136615, 0.257393, -0.061510, 0.190130, 0.072941, -0.095689, 0.125472, -0.117382, 0.409291, 0.071075, 0.488343, 0.119372, 0.029203, 0.201117, -0.003623, 0.141038, 0.404267, -0.262840, 0.426179, -0.502264, 0.527058, -0.140510, -0.433031, -0.207223, 0.336593, 0.075368, 0.237357, 0.344378, 0.590026, -0.021163
};

// Shape: (32, 4)
static const float W2[128] ALIGN16 = {
    0.657926, 0.216800, 0.489277, -1.324250, 0.814619, 0.359782, -1.770164, -0.556388, -1.935656, 1.231408, 1.483489, -1.151344, -1.172575, -0.129953, -0.006903, -0.149319, -0.143413, 0.974502, -3.041438, -0.737506, 0.300806, 0.624476, -1.740847, 0.655911, 0.797206, 0.183961, -2.064238, 0.217299, -1.217303, 0.307608, -1.606732, 0.418023, 0.094386, 0.046150, -0.268563, 0.198426, 0.000000, -0.000000, 0.000000, 0.000000, -0.016335, 0.139927, -0.711011, 0.227062, -0.526560, 0.750630, -0.111672, -0.854912, -1.277122, -0.114287, 0.412446, 0.098398, 0.838557, -0.289311, -0.061395, -1.294341, -2.801599, 1.494500, -0.044096, -0.985382, -1.699580, -0.304591, 0.391874, 0.284855, -0.091854, -1.934118, 0.285334, -0.160682, -1.511235, 0.304303, 0.248065, 0.442770, -2.653585, -0.097282, 0.937966, 0.427994, 0.666915, -4.276097, 0.652449, 0.869589, 1.119444, -1.508659, 0.075481, -0.513104, 1.427004, -4.214702, -0.347776, 1.166147, 0.598569, -3.400269, 0.004031, 0.863764, -0.274532, 0.299598, 0.171251, -0.903900, 0.837086, -2.967405, 0.139226, 0.558507, -0.175545, 0.354165, 0.900363, -0.449879, 0.292778, -2.744359, 0.930081, 0.260930, 0.499344, -0.221223, -0.941855, 0.412903, 0.114177, -1.329728, 0.471453, 0.362428, 0.277677, -0.769026, -0.515729, 0.423707, 0.592940, -0.298792, -1.667607, 0.700260, -0.517464, 0.343221, 1.028084, -0.384969
};

// Shape: (4,)
static const float B2[4] ALIGN16 = {
    -0.583467, -0.412464, -0.045971, 0.485536
};

// Weight & bias pointers per layer
static const float *WEIGHTS[NUM_LAYERS] = { W0, W1, W2 };
static const float *BIASES[NUM_LAYERS]  = { B0, B1, B2 };

#undef ALIGN16
