// Auto-generated MLP weights + pointers for C inference
// Generated from scikit-learn MLPClassifier

#pragma once

#define ALIGN16 __attribute__((aligned(16)))

#define NUM_LAYERS 3

#define NUM_CLASSES 4

static const int LAYER_SIZES[NUM_LAYERS+1] = { 16, 64, 32, 4 };

#define OUTPUT_SIZE 4

// Convenience macros for selecting code paths at compile time
#if OUTPUT_SIZE == 1
    #define IS_BINARY_CLASSIFICATION 1
    #define IS_MULTICLASS_CLASSIFICATION 0
#else
    #define IS_BINARY_CLASSIFICATION 0
    #define IS_MULTICLASS_CLASSIFICATION 1
#endif

// Shape: (16, 64)
static const float W0[1024] ALIGN16 = {
    -0.277555, 3.089427, 1.848917, 1.039225, 0.055522, -2.120281, -2.723857, 1.916772, 0.267717, 1.536032, -0.616309, 0.241088, 0.320456, -0.171929, 0.336211, 0.133261, 0.361229, -0.599067, 0.925758, 0.451110, -0.261453, -1.128284, -3.135020, 0.271803, -0.792533, -0.713495, -0.209838, -0.837885, 2.462336, 1.371745, 2.971282, 1.903208, -0.192750, 2.707474, 0.426936, 0.731137, 0.203051, 0.801021, 0.473495, 0.159205, -0.393794, 0.667666, 0.021551, -0.227867, -0.451988, 1.925113, 0.244263, 0.502147, 2.575249, -0.465668, 2.529321, 0.581940, 1.608730, 1.166178, 0.567653, 2.444986, -0.472493, -2.752449, -0.469124, 0.197887, 0.700462, 0.125117, 0.741579, 1.323750, 0.206945, -0.005117, 0.139838, 0.407944, -0.941755, -0.046210, 0.386920, -0.331940, -0.013928, 0.325838, 0.147236, 0.066437, -0.084667, -0.518937, 0.047821, -0.257153, 0.120122, -0.209534, -0.008790, -0.747427, 0.096954, 0.213091, 0.140341, 0.480435, 0.225274, 0.273855, -0.976200, -0.226257, 0.105704, -0.412853, 0.147546, 0.404432, -0.882776, -0.182443, -0.751067, -0.679640, -0.700453, 0.162507, -0.061816, -0.273627, 0.048337, -0.912330, -0.020943, 0.185570, -0.878752, -1.778795, 0.319223, -0.187311, 0.573752, 0.155566, 0.242500, -0.005699, 0.367299, 0.162877, 0.271206, -0.161646, 0.102201, 0.273452, -0.252387, -0.465426, -0.408313, -0.797879, 0.256528, 0.258481, -0.867333, -0.077610, -0.246715, -0.400158, -0.232103, 0.066247, 0.223975, 0.077738, 0.200043, 0.457257, -0.043402, 0.227177, 0.551157, -0.034622, -0.149519, -0.172882, -1.137511, -0.678851, 0.595059, 0.488994, -2.104680, -0.742854, 0.150667, 0.815254, -0.217617, -0.260678, 0.961370, -0.276960, -0.097663, 0.515941, -0.211433, -0.137198, 1.019857, 0.138274, 1.135840, 0.043989, -0.444878, 0.280409, 0.280133, -1.491188, -0.298130, 0.281046, 0.360754, 0.271411, 0.044041, 0.776279, 0.162083, -0.775563, -0.538209, 0.070071, -0.340952, -0.278148, -0.442349, -0.214072, 0.253038, 0.007406, -0.260990, 0.417772, 0.030778, 0.162702, 0.383732, -0.736209, -0.912541, 0.913686, 0.801299, -0.208837, -0.192082, -0.029074, 0.123378, 0.249726, 0.555239, -0.107023, 0.560732, -0.214819, 0.063715, 0.206328, 0.876741, 0.133007, -1.080007, -0.018029, -0.388898, -0.518497, 0.087503, -0.206466, 0.291898, -0.266158, 0.437467, 0.347672, -0.007522, 1.087904, 0.025484, 0.657632, -0.103115, -0.064012, -0.135435, 0.153233, -0.416430, -0.031314, 0.946301, 0.022137, 1.464089, 0.006241, 0.388174, 0.088593, -0.112716, 0.663173, -0.534258, 0.727501, 0.247907, -0.286629, 0.500840, -1.364338, 0.355773, 0.200906, 0.347248, -0.180696, -0.763042, 0.222669, 0.313912, 0.176565, -0.052557, 0.542770, -0.652790, -0.567909, 0.736477, -0.106147, -0.010199, -0.078165, 0.226454, 0.072377, 0.098142, 0.063088, 0.511797, 0.324134, 0.027306, 0.104796, 0.188637, 0.137809, 0.170036, -0.202049, 0.085912, 0.079581, 0.321903, 0.095408, 0.543859, 0.478460, -0.467714, 0.340750, 1.092282, 0.606772, 0.326099, 0.585379, 0.135557, -0.397060, 0.077431, -0.046055, 0.251429, -0.582972, -0.043446, 0.561065, -0.262255, -0.043155, -0.404132, -0.560537, 0.295583, 0.080883, -0.404423, 0.648918, 0.212407, -0.218249, 0.363110, -0.967578, 0.063733, -0.696404, 0.027219, 0.563108, 0.240907, 0.370822, 0.218222, 0.005497, 0.680276, 0.008426, -0.650778, -0.175702, 0.044526, 0.301461, 0.463968, 0.554514, -0.676672, 0.473668, 0.533664, 0.041129, 0.091578, 0.122725, 0.172071, 0.350458, 0.554337, 0.337505, -0.148404, -0.073347, 0.091348, -1.107701, -0.279239, 0.466451, -1.820046, 0.578652, 0.773084, -0.196329, 0.399446, 0.688946, 0.106672, -0.054520, -0.045573, -0.090526, -0.003664, -0.328495, -0.151270, 0.018827, 0.240089, -0.069997, 0.192470, 0.180894, 0.164421, 0.692753, 1.043871, -0.436978, -0.045403, 0.579941, -1.229869, -0.271749, 0.624573, -0.420577, 0.068142, 0.134916, -0.068477, 0.054033, 1.172559, -0.360287, 0.031116, 0.657207, -0.090943, -0.197089, -0.076212, -0.187876, -0.561922, -0.049381, -0.271287, -0.163301, 0.098245, 0.083794, 0.329920, 0.276223, -0.108061, 0.433235, 0.035901, 0.154836, 0.019376, 0.245720, -0.692355, -0.248461, 0.281445, 0.022356, 0.164524, -0.106777, 0.297923, -0.054742, -0.041781, 0.207812, 0.172479, -0.061137, 0.051832, 0.119518, -0.491954, 0.228605, -0.843652, 0.702168, -1.053244, 0.021976, 0.034095, 0.121560, 0.321535, -0.377183, -0.334756, 0.498759, 0.384059, 0.312330, 0.019088, 0.144032, -0.427657, -0.059020, 0.558277, 0.241271, 0.127929, -0.363683, 0.285300, -0.309900, -0.235805, -0.071570, -0.172977, 0.446781, 0.121772, -0.048737, -0.168536, -0.125862, -0.082111, -0.499636, -0.270446, 0.177798, -0.041585, 0.220282, 0.125755, -0.275732, -0.164334, 0.451641, -0.501242, -0.100305, -0.516883, 0.260484, 0.202545, 0.355040, -0.290997, -0.702210, 0.326058, 0.733897, -0.122523, 0.787309, -0.135589, 0.049581, -0.651500, 0.009412, -0.809577, 0.337895, 0.499080, 0.460450, 0.554660, -0.543987, 0.858498, -0.232868, -0.070877, 0.274846, 0.626312, 0.598586, 0.010291, 0.730903, -0.739578, 0.354042, 0.426595, 0.367011, -0.387609, -0.326314, 0.116370, -0.738286, 0.304438, 0.098729, -0.566043, 0.411977, 0.370150, 0.996451, -0.184428, -0.228161, -0.138250, 0.311166, -0.167046, 0.173470, -0.131317, 0.129760, -0.392621, -0.004311, -0.256607, -0.763324, 0.085412, -0.261301, -0.387921, -0.559126, -0.374787, 0.093840, 0.038346, -0.393403, 0.975298, 0.167209, 0.384982, 0.116521, -0.043455, -0.616253, 0.411361, -0.105253, 0.338860, 0.228349, -1.177191, -0.337678, 0.628757, -0.197869, 0.315529, -0.141960, 0.858002, -0.348739, 0.174846, 0.283230, -0.407296, 0.607586, -1.342496, 0.179968, 1.072025, 0.842073, 0.653925, 0.722125, 0.634121, 0.749313, 0.471093, -0.195704, -0.705023, 0.874599, 0.716980, 0.518225, -0.045042, 1.352482, -0.179035, -0.670045, 0.001207, 0.402042, 0.391838, -0.172754, 0.608888, 0.564133, 0.087622, 0.429705, -0.314043, -0.605383, 0.695395, 2.382459, 0.534773, 0.818245, 0.582295, 0.170033, 0.241764, 0.166492, 0.305057, 1.337343, -1.246094, -0.177257, -0.147536, 0.470797, -0.111884, 0.697284, 0.869130, 0.939400, 1.226191, 0.558088, -1.059509, 0.367355, 0.623484, -1.198599, -0.197223, 0.048180, -0.518075, 0.564651, -1.601759, 0.216700, -0.093244, 3.858110, -0.686935, -0.948499, -0.914994, 0.614357, -0.464384, -0.082012, -0.515465, 0.520540, 0.240736, -0.786403, -0.611109, 0.657329, -0.032383, 1.707471, 1.113778, -0.863623, -1.411903, 0.512863, -1.415171, -0.936671, 0.421657, 0.846383, -0.747846, 0.082759, -0.416341, 2.659210, 0.589648, 1.020644, 0.141612, -0.384308, 0.018736, 1.748620, -1.154154, 0.728235, -1.250809, 0.054331, -0.502220, 0.181663, -0.567808, 0.287010, -0.045116, -0.470383, 2.841871, 1.305668, 0.342170, -1.300289, -0.980742, -0.855510, 1.801841, -0.899783, -0.726574, 0.773359, -1.512248, -0.334706, 0.498567, -0.474985, -0.581341, 0.238220, 0.315160, -0.448299, 0.424302, -0.459707, -2.318751, -0.450379, 1.500666, 2.133378, 0.137911, -2.827912, -0.200661, -0.160549, 1.331776, 0.900200, -0.071061, 0.629177, 0.913342, 0.888510, -2.249131, -0.055395, -0.650228, 0.610183, 0.298101, -1.403538, 0.016435, 0.934145, -0.237389, -0.790764, 0.224640, 1.448660, -0.011891, 0.037865, 0.789224, 0.728476, -2.118043, 0.653166, -0.706222, -0.026160, 0.362135, 0.104269, 0.247085, 0.269692, 0.632735, -1.986771, -0.111145, -2.467074, -0.145983, -0.429826, -1.423942, -0.046163, -2.266840, 0.951048, 1.586200, 0.716728, 0.636373, -0.080962, 0.784700, 0.249416, -0.439798, 0.218041, -0.845523, -0.103416, -0.028609, 0.116442, 0.192233, -0.099138, 0.207982, -0.461852, -0.034092, 0.159081, 0.215302, 0.279934, -0.467599, -0.052058, -0.050149, -0.019274, -1.362700, 0.648793, -1.068469, -0.034231, 0.036215, 0.550574, -0.044735, -0.425543, -0.338313, 0.391574, 0.066537, 0.355580, -0.091177, 0.260630, -0.330608, 0.169802, 0.385368, 0.119489, -0.156299, -0.671038, 0.564353, -0.606416, -0.106125, 0.210465, -0.403598, 0.233243, 0.421555, 0.131985, -0.302380, 0.046169, -0.074724, -0.345579, -0.334885, 0.114756, 0.119167, 0.026537, 0.228248, 0.127675, -0.103983, 0.173185, -0.754441, -0.117112, -0.841827, 0.133462, 0.113435, 0.462363, 0.572497, -0.141079, -1.956591, -0.305685, 0.370790, 0.433742, 0.002181, -0.954398, 0.829512, 0.102849, -1.111003, -0.162920, 1.163401, 0.046200, 0.582953, -1.729785, 0.767815, 0.151660, 0.733716, 0.473192, -0.219502, -0.600415, -0.462332, 0.715865, -0.388319, 0.085382, -0.389155, -0.067742, -0.020675, -1.276804, -0.238489, 0.489780, 0.022560, -0.906970, 0.500091, -0.108950, -0.162131, 0.398384, 0.444835, 0.144401, -0.602869, -0.486251, 1.245229, 0.204494, -0.100158, -0.016921, 1.052192, -0.960709, -0.432500, -1.300718, -0.960235, -1.559968, -0.294176, -2.894652, 0.124705, -1.699324, 0.283112, 0.504890, 0.505980, -0.126816, -0.608690, -0.728112, -2.192416, -0.117380, -0.090794, -0.274056, 0.119461, 0.463338, -0.221957, -0.361936, 0.052605, 0.215905, -1.635499, 0.295098, 0.025355, 0.362000, 0.008436, -0.551231, -0.615505, 0.464637, 0.407192, 0.359635, -1.035290, 0.344724, 0.482874, 0.354605, -0.350766, -0.031958, -0.022583, 0.153513, 0.599131, -0.033661, -0.363968, -0.178297, 0.175851, -0.669113, 0.090754, 0.130058, -1.107536, 0.324310, 0.055974, 0.528900, -0.557472, 0.067241, 0.435358, 0.069741, -0.608624, -0.260844, -0.809571, -0.082890, -1.441110, -0.542941, -0.123846, 0.287876, -0.119081, -0.110432, 0.774030, 0.120386, 0.121294, -0.055716, 0.155460, -0.919511, -0.482202, -0.350999, 0.966501, -0.276466, 0.044763, -1.174139, -0.374412, -0.143294, 0.004378, 0.277049, -0.361053, -0.033155, -0.081788, 0.257819, -0.736978, -0.028624, -0.208159, -0.102480, 0.537488, -0.220675, 0.035797, -0.631695, 0.040362, -0.578432, -0.333703, -0.086788, 0.365917, 0.603673, 0.335836, 0.140663, -0.108515, -0.034715, 0.556426, -0.027226, -0.513385, -0.688627, -0.196064, -0.307468, 0.031470, -0.456295, -0.861184, 0.354306, -0.072550, 0.717570, -0.606786, -0.925955, -0.401545, 0.091534, -0.962860, -0.376316, -0.641282, 0.059848, -0.829105, 0.591030, -0.445649, -0.817333, -0.263527, -0.252724, 0.359234, -0.423036, -0.082212, 0.171260, -0.320170, 0.234292, -0.388740, -0.378349, -0.390966, 0.047184, -0.058203, -0.627384, -0.068616, -0.402348, 0.176868, -0.047606, -0.135235, 0.380163, 0.423123, -0.018449, 0.283074, 0.180119, 0.517039, 1.092029, 0.104024, -0.243924, -0.163652, 0.319103, 0.110160, 0.323904, 0.162539, 0.690220, 0.772674, 0.385178, 0.034158, 0.352398, 0.552606, 0.653651, 0.573159, 0.329633, -0.260313, 0.743413, -0.014926, -0.100409, 0.366218, 0.132837, 0.049472, 0.140227, 0.462934, 0.062161, 0.480435, 0.271300, 0.281679, 0.275006, 0.568075, 0.692284, 0.358211, 3.234289, 0.471063, 0.663651, -0.446248, 0.423308, -0.243120, 0.612270, 0.232206, -0.143282, 0.496696, 0.287457, 0.402258, 0.027538, 0.183205, -0.064295, 0.963842, 0.397105, 0.187474, 0.098308
};

// Shape: (64,)
static const float B0[64] ALIGN16 = {
    -1.081143, 0.696951, 0.470576, -0.888654, -0.684624, -0.276653, -1.060121, 0.556006, -0.702842, 0.495039, -1.302613, 0.185301, 0.652222, 0.493758, -0.244881, -1.517946, -0.000948, -1.071627, -0.327457, 0.078729, -0.091516, -0.404296, -0.835820, -0.492851, -1.083412, -0.770159, 0.644806, -0.615202, 0.297430, 0.031159, 0.527982, -0.051009, -0.316967, 0.707973, -0.557738, 0.351665, -0.819560, 1.018711, -0.143745, -1.034785, -1.109781, 0.696711, -0.422429, -0.647796, -0.493907, -0.098870, -1.035965, -0.075248, 0.112086, -1.223827, 0.830563, -1.069188, -0.228065, -0.275878, -0.173074, 1.043957, -0.872788, -0.934045, 0.181301, 0.337255, 0.179566, -0.098498, 0.199491, 0.334894
};

// Shape: (64, 32)
static const float W1[2048] ALIGN16 = {
    0.872651, -0.235514, 0.718277, 0.609694, -0.430645, 0.139169, -0.567440, 0.492524, -1.069455, 0.027484, 0.402556, 0.236236, -0.158337, 0.395348, 0.231442, 0.832826, 0.541370, 0.338282, 0.621045, 0.594316, 0.421824, 0.003666, 0.301205, 0.148531, 0.061788, -0.000000, 0.933694, 0.330034, -0.183226, 0.315567, -0.445664, -0.712335, -1.100215, 0.279909, 0.712380, 0.975433, 0.040533, 0.162405, 0.965904, 0.586819, 0.304031, 0.207277, 0.899927, 0.147255, -0.176229, -0.997288, 0.762457, 1.109365, -0.054215, 0.204906, 1.044839, -0.267432, -1.487717, -0.449692, 0.637568, 0.468227, 0.016628, 0.000000, -0.404441, -0.463691, 0.032139, 0.139218, 0.261619, -0.126634, -0.350410, 0.089540, 0.009056, -0.608285, -0.329696, 0.650317, -0.943270, -2.955517, -0.103254, -0.287953, -0.079457, 0.086482, -0.214411, 0.651729, 0.610297, 0.000744, 0.129307, -0.576820, -0.527290, -0.192275, -0.146952, -0.484540, 0.507657, -0.820782, -0.102285, 0.000000, -0.339940, 0.359715, -0.046470, -0.092972, 0.937790, 0.665842, -0.624124, -0.415090, -0.020330, 0.897695, 0.240308, 1.572844, 0.544684, 0.180905, -0.066235, 0.692777, -0.002176, -0.107059, 0.258963, -0.915117, -0.295726, 0.146701, 0.123948, -0.112584, 0.036290, -0.091277, 0.442685, 0.028913, -0.406419, -0.046144, 0.183288, 0.000000, -0.106361, 0.238749, 0.226481, 0.415352, -0.027169, -0.177750, 0.234384, 0.068134, 0.154327, 0.425468, -0.148790, -0.060822, -0.162929, 0.175864, 0.024664, 0.119194, -0.221159, -0.813073, 0.772191, 0.122626, -0.543824, 0.369563, -0.260462, -0.511635, 0.426671, -0.262231, 0.283606, -0.252105, 0.415196, 0.302183, -0.109754, -0.000000, 0.632612, 0.241551, -0.436059, -0.703919, 0.340354, -1.499819, 0.211096, 0.079066, -0.061081, -0.873145, 0.034207, -0.529151, -0.398505, -0.088557, -0.470011, 0.004766, -0.347765, 0.415274, -0.251930, 0.454634, -0.053850, -0.252179, -0.154758, 0.102762, -0.180193, 0.194151, -0.000683, -0.047656, -0.057668, 0.096970, -0.014342, 0.000000, -0.122692, -0.394514, -0.481619, -0.003532, -0.514638, -0.576985, 0.696467, 0.375681, -0.405355, -0.068706, 0.486834, -0.567032, -0.793105, 0.701389, -1.396854, 0.373202, -0.000221, 0.381284, -0.699906, 0.418771, 0.230254, -0.627325, 0.217747, 0.776845, 0.158161, 0.570951, -0.215149, 1.080589, -0.753407, 0.027766, 0.773615, -0.000000, -0.569329, 0.276714, -0.146705, -0.364314, -0.773508, -0.569077, -0.508755, -0.310997, -0.023472, -0.214875, -0.239542, 0.308795, -0.033812, -0.299668, -0.145929, 0.075384, -0.019929, 0.325793, 0.454145, -0.061660, 0.250608, 0.137048, -0.251229, -0.831556, 0.083315, -0.500626, -0.360709, -0.271388, 0.420472, 0.220300, -0.397003, 0.000000, 0.064543, -0.079195, -0.009117, -0.099919, 0.439640, 0.220488, -0.155231, -0.144742, 0.683116, -0.531373, 0.000247, -0.337923, 1.148143, 0.764172, 0.325730, 0.721317, 0.569136, -0.311011, 0.618817, -0.420870, -0.285574, 0.464469, 0.256700, -0.292817, 0.874914, 0.096201, 0.336575, 0.838688, -0.269746, 0.218155, -0.173794, 0.000000, 1.580958, -0.374392, 0.827634, 0.462655, -0.413022, -0.643579, -0.313189, -0.559822, -0.410130, 0.094169, -0.008661, -0.652599, 0.166215, -0.366022, -0.073531, 0.381606, 0.157152, -0.092198, 0.002840, -0.963832, 0.468972, -0.507212, 0.274481, 0.298863, 0.048485, -0.452566, -0.855257, 0.054509, 0.216178, -0.053540, -1.105194, 0.000000, -0.350503, -0.346808, 0.012073, -0.226638, 0.577558, 0.424929, 1.080828, 0.913982, -0.150420, 1.045100, 0.123445, 1.089814, 0.457784, 1.361899, 0.294501, -0.099375, 0.528045, 0.597799, -1.363679, -0.471421, 0.431492, -0.376469, 1.063781, 0.407082, -0.357366, 1.572934, 1.314124, 1.672338, -1.288187, -0.191961, 0.000764, -0.000000, 0.223867, -0.092421, -2.027147, -1.614449, -0.175022, -1.203436, 0.169515, -0.346940, -0.400884, -0.845457, 0.933605, -1.081271, 0.242439, 0.851817, 0.280827, 0.829345, -0.569376, -0.576225, 0.016088, -0.230590, -0.702810, 0.115884, -0.271127, -0.069270, -0.099824, -1.019229, -0.254467, -0.587101, -0.552453, -0.023322, 1.038089, 0.000000, 0.143590, -0.271978, 0.455040, 0.031398, 0.110898, -0.689979, -0.170891, -0.183861, -0.459672, 0.335498, -0.343130, -0.391927, -0.076560, -0.119884, 0.237954, -0.151082, -0.454760, -0.070631, 0.111173, -0.839303, -0.227915, -0.343960, -0.691495, 0.206436, -0.369074, 0.172475, -0.425036, -0.561842, 0.011594, -0.671012, -1.763328, -0.000000, -0.960449, 0.467995, -0.201116, -0.085108, 0.038929, 0.013629, -0.323350, -0.069362, 0.451799, 0.670403, -0.771302, -0.291335, -0.163227, 0.783675, 0.196025, -0.568046, -0.428742, -0.637591, 0.879358, -0.643869, -0.498329, 0.408350, -0.570210, 0.064631, -0.110861, -0.398139, -0.739353, -0.861761, 0.140976, 0.011628, 1.359688, -0.000000, -0.799054, -0.020450, 0.084740, 0.323992, -0.488808, -0.242577, -0.902643, -0.071033, 0.209319, 0.342627, -0.034255, 0.004807, 0.391872, 0.146025, 0.412185, 0.079515, -0.074812, -0.252924, -0.344530, 0.526586, -0.361184, -0.043314, 0.794452, 0.308155, -0.616353, -0.594751, 0.176228, -0.209608, 0.149234, -0.307609, -0.895788, 0.000000, -0.112676, -0.015929, 0.178725, -0.510870, 0.739841, 0.243576, 1.772169, 1.831035, 0.797927, 0.270969, -0.177772, -0.440827, -0.614271, -1.796337, -0.668583, 1.944353, 0.037707, 2.209825, -4.076713, -0.714142, 1.919110, -0.057641, 3.391855, 0.471301, -0.423759, 3.759300, 3.053365, 3.462410, -5.273211, 0.138089, 1.050794, -0.000000, 1.468046, -0.143297, -4.005233, -4.588672, -1.104167, 0.282702, -0.990322, -0.319770, 0.186231, 0.301764, -0.036966, -1.155064, -0.276706, -0.404905, -0.741515, 0.312499, -1.231426, -0.357085, 0.448582, -0.123507, -0.802832, 0.694284, 0.078712, -0.042524, 0.542008, -0.031271, 0.384660, -0.606564, -0.086918, 0.705587, -0.787230, -0.000000, 1.007004, -0.286955, -0.178986, -0.178735, 0.140740, 0.257008, 0.312378, -0.141864, 0.110454, -0.108992, 0.294979, -0.076385, -0.045140, 0.097054, -0.059840, 0.103547, 0.130493, -0.263976, 0.278289, 0.048824, -0.097352, -0.066852, 0.289946, 0.006850, -0.049221, -0.146075, 1.241862, 0.011270, 0.350433, 0.041431, -0.034575, -0.000000, 0.309585, -0.353192, -0.003465, 0.535212, 0.080092, -0.000001, -0.069612, 0.550264, -0.372245, 0.753918, -0.000000, 2.687277, -0.275474, -0.344974, 0.630613, -1.256696, 1.034822, -0.178997, -0.682953, -0.340706, 0.700709, -0.072375, -1.141814, -0.186556, -1.114299, -0.357865, -0.435722, 0.018879, 0.310297, -0.770918, -0.322829, 0.000000, -1.321775, 1.603047, 0.451718, 0.425752, 0.234907, -0.242966, -1.519233, -0.877707, 0.377462, -0.408172, -1.991972, 0.130915, -0.484999, -0.548848, 0.270398, -1.497923, 0.229726, -0.000000, 0.173463, -1.219114, -1.246636, 0.094424, 0.131311, -0.316597, 0.368945, 0.823657, -1.063668, 0.141017, -0.341710, -0.156650, 1.212115, -0.000000, -0.710973, -0.358533, 0.383757, 0.127857, 0.175348, 0.673126, 0.408226, -0.090405, 0.451191, -0.008845, -0.845812, 0.224323, -0.617297, 0.447380, -1.008835, -0.571978, -0.276822, 0.262051, 0.658880, 0.234420, -0.057654, -0.031870, 0.127526, -0.107754, -0.319499, 1.301715, 0.457145, -0.759700, -1.402707, -0.063819, -2.847437, 0.000000, 0.652570, 1.230572, 0.379382, 0.264369, 0.140612, -0.139514, -0.548620, 0.279117, -0.131996, 0.526308, -0.024293, 1.532925, -0.119016, -0.205444, -0.032986, -1.268574, 0.264275, -1.341181, 0.044419, 0.309492, 0.414365, 0.219044, 0.861835, 0.203841, 0.094235, 0.010062, -0.932597, 0.510275, -0.575474, -0.193488, -0.152196, 0.000000, -0.523271, 0.412320, -0.182808, -0.207101, -0.241595, 0.298798, 0.143953, 0.013147, -0.423508, -1.690207, 0.314927, -0.262400, -0.421165, 0.962519, -0.808216, 0.680157, -0.155647, 0.110668, -0.821397, 0.588259, -0.139808, -0.967571, 0.094303, 0.111799, -0.691598, 1.070662, -0.001095, 0.994271, -1.065125, 0.241576, 0.499763, 0.000000, -0.971933, -0.171955, -0.735541, -1.130594, -2.162912, -0.427771, 0.487584, 0.342878, 0.034430, -0.158333, 0.080658, -0.740032, -0.324077, 0.099623, -0.002007, 0.123833, -0.563879, -0.233979, -0.697331, 0.324640, -0.186291, -0.182681, -0.053402, -0.386179, -0.527136, -0.142834, -0.090461, -0.025353, -0.125243, -0.547316, 0.045062, -0.000000, -0.027519, -0.145953, -0.110979, 0.263559, 0.454900, -0.370030, 0.541830, 0.477150, -0.068608, 1.001327, 0.195069, 0.412233, -1.003413, 0.382192, -0.814146, 0.691760, 0.098171, 0.028770, -0.048124, 0.785115, 0.254130, 0.180854, 0.469908, 0.527019, 0.183226, 0.543713, 0.322355, 0.578726, -0.429172, 0.345659, -0.039775, 0.000000, 0.533786, 0.014120, -0.493081, -0.012057, -0.686754, -1.068913, 0.374037, -0.017155, 0.721072, 0.115186, -0.693589, 0.016117, -0.951703, -0.292064, 0.041166, 0.356709, -0.186195, 0.564226, 0.171788, -1.113326, 0.227226, 0.125658, 1.065517, 1.805790, 0.928786, -0.608102, -0.036309, 0.137235, 0.056426, -0.230824, 0.509440, -0.000000, 0.069446, 0.103457, 0.234062, -0.886569, -0.014537, -0.338110, -0.475041, -0.660077, -0.012690, -0.657806, 0.220411, -0.469804, -0.451746, -0.558088, -0.048755, 0.064791, -0.516662, -0.591656, -0.079442, 0.096117, 0.057730, 0.306865, -0.290423, 0.032325, 0.528696, -1.269485, -0.085546, -1.019600, 0.469778, 0.176662, -0.243505, 0.000000, -0.108717, 0.048486, -0.015051, -0.950650, 0.074365, 0.511693, 0.321228, 0.009442, -0.364960, 0.303446, -0.282019, 0.195363, -0.032727, -0.258129, -0.134092, -0.858117, 0.194913, -0.845312, -0.143965, 0.694532, -0.373185, 0.053139, 0.161586, -1.017580, -0.395835, 0.283488, -0.966015, 0.041889, -0.598664, 0.079892, -0.258368, -0.000000, 0.399112, 0.157985, -0.170037, 0.001052, 0.280779, 0.069501, -0.396236, -0.365826, 0.733111, 0.638789, -0.512430, 0.178232, 0.175269, -0.120702, 0.136076, 0.302287, 0.439275, 0.398728, -0.341546, -1.046314, 0.257068, 0.658954, 0.987176, 0.233904, 0.565817, -0.325837, -0.977721, 0.450410, -0.142263, 0.354287, 0.098753, 0.000000, 0.200420, 0.367314, 0.408100, 0.094266, 0.567767, 0.532168, -0.442883, 0.438150, 0.261496, 0.209088, 0.171077, 1.196877, 0.617644, 1.475990, 0.880484, 0.563394, 0.772998, 0.354063, -0.513949, -0.692368, 0.706326, -0.212107, -0.351228, 0.743677, -0.086999, -0.014820, -0.389939, 0.159198, -0.496122, -0.131114, 0.112829, -0.000000, 0.054516, 0.186708, 0.079422, -0.519073, -0.153686, 1.096621, -0.903164, -1.065584, 0.357220, 0.215694, -0.037477, 0.901242, 0.555357, -0.073217, -0.046436, 0.872523, -0.068391, 0.457061, -0.456569, -2.194320, -0.030568, 0.175175, -0.435815, -0.002983, 0.576672, -0.368468, -0.950180, -0.228509, -0.045919, 0.340725, -0.703005, 0.000000, 0.691095, 0.090300, -0.271844, -0.253206, 0.200455, 0.152802, -0.866255, 0.318224, -0.499152, 0.432775, -0.324470, 0.577362, 0.474880, -0.495301, 0.056524, -0.913056, 0.154861, 0.064440, -0.944204, -0.348932, -0.356485, -0.045514, 0.346067, 0.131130, 0.304330, 1.278048, 0.187407, -1.045369, 0.346820, 0.516922, 0.167308, -0.000000, 0.452430, 1.032535, -0.256446, 0.300916, 0.393706, -0.491671, 1.068749, 0.457530, 0.577077, -0.867433, 0.021896, -0.542333, -0.067969, 0.664268, -0.393711, 0.190268, -0.322945, -0.246841, -0.076356, 0.568483, 0.577416, 0.172805, 0.423172, 0.372124, 0.129648, 0.038973, 0.868612, -1.093169, 0.434718, -0.373085, -0.283335, -0.000000, -0.493024, 0.432471, 1.056584, 0.432920, -0.033084, -0.433962, -0.517952, -0.676938, 0.467227, -0.180340, -0.907699, 0.884888, 0.541067, -0.474141, 0.050234, 0.902948, 0.415321, -0.293816, 0.324172, -1.750514, 0.136773, -0.165204, -0.499572, 0.584715, 0.686964, -0.311260, -0.907979, -1.096615, 0.727662, -0.193515, -1.010787, 0.000000, 1.085699, 0.236333, 0.175571, 0.184880, 0.592367, 1.966724, -1.003284, -0.159508, -0.453935, -0.859674, -0.175379, -0.668519, 0.124055, -0.545204, 0.618592, 0.468024, -0.222887, 0.091343, 0.400022, -0.148331, 0.391277, -0.219676, 0.459729, -0.796288, -0.734438, 0.406414, 0.213659, -0.304088, -0.737804, -0.000440, 1.730298, 0.000000, 1.438299, 0.244848, 1.176829, 0.946515, 0.257136, -0.500961, -1.136990, -0.585330, 0.026993, -0.156272, 0.155342, 0.560774, 0.546203, 0.046725, 0.451095, -0.695758, 0.002860, -0.176781, 0.062749, -1.001837, -0.612504, 0.013058, 0.206037, 0.134497, 0.412815, -0.412743, 1.061230, -0.077108, 0.838843, -0.715776, -0.191027, -0.000000, -0.625792, -0.476145, 0.282667, 0.307201, -0.164219, 0.357778, 0.373471, -0.726322, -0.687417, -0.033099, 0.842505, -0.802949, 0.064708, 0.723378, -0.212716, 0.284197, -0.086282, -0.561237, 0.044561, 0.405095, -0.350117, -0.055950, 0.165096, 0.080648, -0.458994, -0.013124, 0.186678, 0.482850, -0.066852, 0.144993, -0.132571, -0.000000, 1.133801, 0.072465, 0.192163, -1.035821, -0.492784, -0.101700, 0.037395, -1.037982, -0.705426, -0.918404, -0.151197, -0.274292, 0.505885, -0.392069, 0.314535, -0.139312, -0.380787, -0.477295, 0.265018, -0.838153, -0.482951, -0.274659, -0.603238, -0.485730, -0.431220, -1.482645, -0.680057, -0.250621, -0.185857, 0.013047, -0.378987, 0.000000, -0.746841, -0.544042, 0.164310, 0.128592, 0.289789, -0.028004, -0.168302, 0.104821, 0.008113, 0.075261, 0.254445, -0.472004, 0.612758, -0.072157, 0.488770, 0.293177, 0.463381, -0.642051, -0.134336, 0.041345, 0.591257, 0.042933, 0.683598, -0.224406, 0.187285, 0.132676, -0.141163, -0.143647, 0.100000, -0.930193, -0.267122, -0.000000, 0.002192, 0.028936, -0.663634, -0.453188, -0.013096, -0.192049, 0.410131, 0.070049, 0.386974, -0.429195, 0.000000, -1.873120, -0.857902, -3.198486, 0.571155, 1.245002, -0.074274, 0.269249, 0.128653, 1.162568, 0.453949, 0.660458, 0.613304, 0.586953, 0.008214, -0.691489, 0.611993, 0.314272, -0.045352, 0.214093, -0.007379, 0.000000, 0.856453, -0.704083, 0.507849, 0.633052, -0.232984, -0.097268, 0.442974, 0.005283, -0.080872, 0.544478, -0.672078, 0.982994, -0.691832, 0.008392, -0.105058, 0.373161, 0.367217, 0.025835, 0.317906, 0.617595, 0.013886, 0.259490, 0.495235, 0.247435, 0.241330, 0.107488, 0.140713, 0.164046, 0.036452, 0.085790, -0.284835, 0.000000, 0.512234, 0.254286, -0.424751, -0.087152, -0.410040, -0.617875, 0.125169, -0.411692, -0.550008, 0.331222, -0.395374, -0.039374, 0.327742, -0.105736, 0.648288, -1.285390, -0.305569, -0.016932, -0.019041, -0.524676, -0.076434, 0.278523, -0.307246, 0.345304, -0.363880, 0.134239, -0.500205, -0.729198, 0.086041, -0.624078, 0.710957, 0.000000, -0.537255, 0.085695, -0.122574, -0.123798, 0.234489, 0.428422, -0.009065, -0.213725, 0.525545, -0.016390, 0.000085, -0.743760, 0.441530, -0.010227, 0.438470, 0.592822, 0.264586, 0.148348, 0.408936, 0.108866, -0.564845, 0.517767, 0.547327, 0.615831, 0.080727, -0.369166, -0.193701, -0.351103, 0.157743, 0.227646, -2.722711, -0.000000, 0.826828, -2.224792, 0.658987, 0.003108, 0.259569, -0.041978, 0.370198, -0.013858, -0.284306, 0.022059, 0.379197, -0.984289, -0.291486, 0.195962, 0.808144, 0.485506, -0.200893, -0.332858, -0.187597, 0.568188, -0.539480, 0.145010, 0.814560, -0.499862, 0.206498, -0.532054, -0.031312, 0.425395, -0.426722, -0.523018, 0.364753, 0.000000, -0.295908, -0.591296, 0.328515, 0.086462, 0.560328, -0.041282, -0.052811, 0.697040, 1.119897, 0.243564, 0.064260, 0.120978, 0.446936, -0.010350, -0.095213, -0.084183, 0.449989, -0.217091, 0.699508, 0.461657, 0.252051, 1.016758, -0.020700, 0.444628, 0.094268, 0.321740, -0.683097, -0.736332, -0.446402, 0.306686, 0.489644, -0.000000, -0.348666, 0.061720, 0.057687, -1.253763, -0.088634, -0.885192, -0.000000, -0.034154, 0.012320, 0.106576, 0.000000, 0.037949, 0.110604, 0.100183, 1.709203, -0.019438, -0.008050, -0.225646, -0.087893, 0.000000, -0.171116, 0.751056, 0.046849, 0.077065, 0.085792, -0.411594, -0.000000, -0.000000, 0.286609, -0.000000, 0.014903, 0.000000, 0.016071, 0.084150, 0.419769, 2.623505, 0.603504, -1.091731, 0.410706, 0.391842, 0.378160, -0.822948, -0.000000, 0.279226, 1.099526, 0.327165, 0.299815, 0.744176, 0.270109, 0.047896, -0.024273, -0.292853, -0.031078, 0.032813, 0.019420, 0.075599, 0.372077, 0.545669, 0.446795, 0.191165, 0.107293, -0.058218, 0.218903, 0.000000, 1.451617, 0.212650, 0.595858, 0.585327, -0.293824, -0.097500, 0.879895, -0.095149, 0.187000, 0.185557, 0.012541, 1.201265, 0.032599, -0.321660, -0.062757, -1.066238, 0.190731, 0.004893, 0.411881, -0.078814, -0.214789, 0.042356, 0.511329, -0.085725, 0.123836, 0.615744, 0.130200, 0.160055, 0.118485, -0.935880, 0.477746, 0.000000, 0.074782, 0.454582, -0.107487, 0.535371, 1.329261, -0.520846, -0.226717, 0.615199, 0.240282, 0.964533, -0.405813, 0.325369, 0.258749, -0.585944, 0.398886, 0.226177, 0.500371, 0.805116, -0.456850, 0.326268, 0.745870, 0.605047, -0.362729, 0.210191, 0.185240, 0.567253, 0.588993, -0.108699, 1.033815, -0.244417, 0.653226, -0.000000, -0.412257, -0.194328, -0.620248, 0.583140, 0.544422, -0.038357, 0.632871, 0.854867, 0.121492, -0.097798, -0.328959, 0.780644, -0.150247, 0.195782, 0.170601, 0.222568, 0.183502, 0.732057, -0.224912, 0.859305, 0.489057, -0.036799, 0.730193, -0.112416, 0.050340, 0.227908, 0.855989, 0.984539, -1.089436, 0.056949, -0.497085, -0.000000, -0.265943, -0.099780, -1.399576, -1.167327, -0.866969, -0.813064, -0.477495, -0.170562, -0.064172, -0.009113, -3.543541, 0.393826, 0.542294, -1.282914, 0.666723, -0.210907, 0.772255, 0.534214, 0.536250, 0.272828, 0.192969, 0.103207, -0.379638, -0.099694, -0.040391, -0.391527, -0.230869, -0.219389, 0.756059, -0.489118, 0.275233, -0.000000, -0.240146, 0.237340, 0.610189, 1.005881, 0.566845, 0.369651, 0.498844, 0.539514, 0.307801, 0.085519, -0.226100, -0.007757, 0.219437, -0.991188, 0.674441, 0.922096, 0.599698, 0.427031, -1.096331, -0.476552, 0.852594, 0.052096, 1.044778, 0.701353, -0.326174, 0.621990, 0.506224, 0.635229, -0.888520, 0.508410, -0.213107, 0.000000, 0.699107, -0.480006, -0.347205, -0.536887, -0.315786, 0.470645, -0.912357, -0.068468, -0.107784, -0.013661, 0.273511, 0.972711, 0.053478, -0.555556, -0.827421, -0.590083, -0.487972, -0.787708, 0.049000, 0.054209, 0.479202, -0.073632, -0.604469, 0.232888, 0.791067, -0.630932, -0.291527, -0.249016, -0.097675, -0.205303, 0.064990, 0.000000, -1.021755, 0.488386, 0.220827, 0.116214, 0.496850, 0.384970, 0.543873, 0.482568, -0.382498, 0.720699, 0.591902, 0.946148, 0.753000, 0.141485, -0.108309, -1.305969, 0.615214, 0.610297, -0.724959, 0.245428, 0.987918, -0.650478, -0.055870, -0.203946, 0.201227, 0.712641, 0.181399, 0.687478, 0.378479, -1.412219, 0.618195, -0.000000, -0.024071, 0.678323, -0.966623, -0.255163, 0.731603, -0.326791, 0.425248, -0.754241, -0.145456, 0.181559, 0.272535, -0.911975, -0.132921, -0.396333, 0.216738, 1.278317, -0.066703, -0.005071, 1.068591, -0.391019, -0.059224, -0.043512, -0.950875, 0.868832, 0.788037, -0.753030, 0.034567, -0.594211, 0.452797, 0.207473, -0.095597, 0.000000, -0.252949, -0.611202, 0.666035, 0.061428, 0.455834, -1.018427, -0.439955, -0.455078, 0.119635, -0.659893, 0.070769, 0.215362, 0.087471, -0.631465, 0.385780, -0.198885, -0.057045, 0.042176, 0.448587, -0.346783, 0.217651, -0.498036, -1.666610, -0.537278, 0.212626, -0.842325, -0.435213, -1.303204, 1.266470, 0.010702, 0.293256, 0.000000, -0.378326, -0.259732, 0.018042, 0.040871, 0.418946, 0.919761, 0.185111, 0.104824, 0.177622, 0.102689, -1.244231, 0.581724, -0.206209, -0.932882, -0.094710, 0.577977, 0.134230, 0.334497, 0.442992, 0.274378, -0.032138, 0.650215, 0.291709, 0.474108, 0.534564, 0.103571, 0.129232, 0.185676, -0.152752, 0.257962, -0.276252, 0.000000, 0.568079, 0.143920, -0.371627, -0.023207, -0.325105, -0.706385, 0.608441, 0.490650, -0.243227, -1.721159, 0.845706, -0.588434, -0.501411, 0.693992, -0.642551, 0.673848, -0.183167, 0.129519, -0.836727, 0.119812, -0.108707, -0.335750, 0.115313, 0.672348, -0.557066, 1.472621, -0.362791, 0.777297, -0.927960, 0.668539, 0.432373, 0.000000, -0.841644, -0.747890, -0.589906, -0.388311, -1.869932, -0.306708, -0.398144, -0.919084, 0.759851, 0.363066, -0.000000, -0.326459, 0.387938, 0.711997, 0.130702, 0.691667, -0.300817, -0.193971, 0.394675, -0.667853, -1.253539, 0.197241, 0.041866, 0.197695, -0.121682, -0.958940, 0.159793, -0.381700, 0.170645, -0.746823, 0.206906, -0.000000, -0.289624, -0.135635, 0.248433, -0.171767, -0.579830, 0.062494, -1.130839, -0.303224, -0.153017, 0.171730, -0.000474, 0.185271, 0.173692, 0.377266, -0.152270, 0.471559, 0.022187, -0.801053, -0.185783, 0.178730, -0.829429, -0.246305, 0.301959, -0.352876, 0.214768, 0.157018, -0.298562, -0.277421, -0.249500, -0.733965, 0.925085, 0.000000, 0.228429, 0.724406, -0.010517, -0.728351, -0.033565, 0.252583, 0.370331, 0.595980, -0.309745, 0.597450, 0.051375, 0.506811, -0.340255, -0.523849, 0.727960, -1.487790, -0.020867, 0.518335, -0.382484, 0.815857, 0.001790, 0.335736, 0.172531, 0.073935, -0.127258, -0.125512, -0.645593, 0.185006, -0.281444, -0.031338, 0.647430, -0.000000, -1.299460, 0.266861, 0.730107, 0.654113, 0.995649, -0.599264, 0.113571, 0.553664, -0.005898, -0.227381, -0.245190, 0.810612, 1.124525, 0.210279, 0.077781, 0.293730, 0.056028, -0.340984, -0.019254, 0.077638, -0.421620, 0.461213, 0.208778, -0.284787, -0.283184, -0.005356, -0.228347, -0.248547, 0.038651, 0.360385, 0.179369, 0.000000, -0.369952, 0.409929, -0.570805, 0.377422, 0.982239, -0.285162, -0.243240, 0.629638, -0.394663, 0.337084, 0.776517, 0.381223, -0.763959, 0.062148, -0.407148, -0.569362, 0.028957, -0.297327, -0.217436, 0.820349, 0.149442, -0.150277, -2.609439, -0.455240, 0.033429, 0.121039, -0.884266, 0.096335, 0.344925, 0.228166, 0.216346, 0.000000, -0.172502, 0.311496, 0.011027, 0.436222, 0.687282, -0.974238, 0.275676, 0.391665, -0.556299, -0.084348, -0.754820, 0.433198, 0.729232, 0.048656, 0.016671, -0.111687, 0.080988, 0.522415, -0.480860, -0.359259, -0.013814, -0.021433, -0.335672, 0.038143, 0.093103, 0.394827, 0.292564, 0.199114, 0.772296, 0.589131, 0.799503, -0.000000, -2.555799, 0.759710, -0.366911, 0.190575, 0.092787, -0.685187
};

// Shape: (32,)
static const float B1[32] ALIGN16 = {
    0.008751, 0.042108, 0.103456, 0.040569, -0.449207, -0.207747, 0.203099, -0.109362, 0.268668, -0.032037, 0.273458, 0.219584, 1.137506, 0.085968, 0.160761, 0.398533, -0.110527, -0.377007, -0.181774, -0.520381, 0.104299, -0.708365, 0.722074, -0.100800, -0.451082, -0.569891, 0.119093, 0.029819, 0.301876, 0.431173, 0.504782, -0.441371
};

// Shape: (32, 4)
static const float W2[128] ALIGN16 = {
    -0.082176, 0.654005, 0.599765, -1.154349, -0.108964, 0.262368, -0.322790, -0.812125, -2.067252, 0.632085, 0.309482, 0.172394, -2.107911, 0.303821, -2.133777, 0.226505, 0.599751, 1.379269, -2.666868, -0.917307, 0.965010, 0.578415, -2.191103, 0.543583, 1.390818, 0.043185, -0.940468, 0.096561, -0.691446, 0.744105, -2.324945, 0.720532, 0.066433, 0.044249, -0.849530, 0.363100, -2.925333, 0.315679, 1.166778, -0.438275, -0.289864, 0.231933, -0.796546, 0.170779, -1.100127, 0.869475, -0.065851, -0.875946, -2.197268, -1.479234, 0.924601, 0.180174, 1.224286, -0.199686, 0.135603, -1.646038, -0.773433, 0.825116, -0.941418, -0.022687, -2.513428, 0.070557, 0.201601, 0.048221, -0.866488, -2.550214, 0.507348, 0.100416, -2.429222, 0.401759, 0.337532, 0.385740, -2.619136, 0.258174, 0.383724, 0.257364, 1.346529, -2.838911, -0.746027, 1.044995, -0.257704, 0.816349, 0.875740, -1.875201, 1.158415, -3.750848, -0.122116, 0.790242, 0.543382, -2.316560, 0.344749, 0.588607, -0.200415, 0.215294, 0.596088, -0.792659, -0.113456, -1.892787, 1.100291, 0.524151, 0.000000, 0.000000, -0.000000, -0.000000, -1.000733, -2.664295, 1.155025, 0.500168, 0.049081, 0.368797, -1.142864, 0.303533, 0.018038, -3.446565, 0.539521, 0.387563, -1.197405, -2.681519, 0.273811, 0.684723, 0.584951, 0.042417, -1.391134, 0.439234, 0.683561, 0.226665, 0.674154, -1.028269
};

// Shape: (4,)
static const float B2[4] ALIGN16 = {
    -0.380045, -0.443677, 0.126859, 0.360438
};

// Weight & bias pointers per layer
static const float *WEIGHTS[NUM_LAYERS] = { W0, W1, W2 };
static const float *BIASES[NUM_LAYERS]  = { B0, B1, B2 };

#undef ALIGN16
